{"ip":0,"fr":60,"v":"5.1.20","assets":[{"id":"precomp_1","layers":[{"ty":4,"nm":"Path","ip":0,"st":0,"ind":19,"hix":1,"ks":{"o":{"a":1,"k":[{"t":0,"s":[100],"e":[0],"i":{"x":[0.515],"y":[0.955]},"o":{"x":[0.455],"y":[0.03]}},{"t":60}]},"or":{"a":0,"k":[0,0,0]},"a":{"a":0,"k":[14.330184936523438,14.84033203125,0]},"p":{"s":true,"x":{"a":1,"k":[{"t":0,"s":[135.58209797499325],"e":[128.83128356933594],"i":{"x":[0.515],"y":[0.955]},"o":{"x":[0.455],"y":[0.03]}},{"t":60,"s":[128.83128356933594],"e":[128.831],"i":{"x":[0.515],"y":[0.955]},"o":{"x":[0.455],"y":[0.03]}},{"t":77}]},"y":{"a":1,"k":[{"t":0,"s":[195.289439365595],"e":[194.56942749023438],"i":{"x":[0.515],"y":[0.955]},"o":{"x":[0.455],"y":[0.03]}},{"t":60}]}},"rx":{"a":0,"k":0},"ry":{"a":0,"k":0},"rz":{"a":0,"k":0},"s":{"a":0,"k":[100,100,100]}},"shapes":[{"ty":"gr","nm":"Path shape group","it":[{"ty":"sh","ks":{"a":0,"k":{"c":true,"v":[[-431.334,3055.64],[-434.03,3058.67],[-422.677,3058.24],[-405.866,3033.87],[-410.169,3032.11],[-426.959,3051.51]],"i":[[0,0],[0.14599999999995816,-0.6300000000001091],[-4.919999999999959,2.9400000000000546],[-2.282000000000039,6.940000000000055],[0.22800000000000864,-0.3000000000001819],[0,0]],"o":[[0,0],[-0.146000000000015,0.6199999999998909],[4.920000000000016,-2.9299999999998363],[2.2829999999999586,-6.949999999999818],[-0.22800000000000864,0.2899999999999636],[0,0]]}}},{"ty":"st","o":{"a":0,"k":0},"w":{"a":0,"k":0},"c":{"a":0,"k":[0,0,0,0]},"lc":3,"lj":1,"ml":1},{"ty":"fl","o":{"a":0,"k":100},"r":1,"c":{"a":0,"k":[1,1,1,1]}},{"ty":"tr","o":{"a":0,"k":100},"a":{"a":0,"k":[0,0]},"s":{"a":0,"k":[100,100]},"p":{"a":0,"k":[434.032,-3030.16]},"r":{"a":0,"k":0}}]}],"op":77},{"ty":4,"nm":"mulut","ip":0,"st":0,"ind":18,"hix":2,"ks":{"o":{"a":0,"k":100},"or":{"a":0,"k":[0,0,0]},"a":{"a":0,"k":[8.632003784179688,21.5299072265625,0]},"p":{"s":true,"x":{"a":1,"k":[{"t":0,"s":[71.16409797499325],"e":[69.465087890625],"i":{"x":[0.515],"y":[0.955]},"o":{"x":[0.455],"y":[0.03]}},{"t":60,"s":[69.465087890625],"e":[69.465],"i":{"x":[0.515],"y":[0.955]},"o":{"x":[0.455],"y":[0.03]}},{"t":77}]},"y":{"a":1,"k":[{"t":0,"s":[137.81964611816406],"e":[157.0938739226665],"i":{"x":[0.515],"y":[0.955]},"o":{"x":[0.455],"y":[0.03]}},{"t":60}]}},"rx":{"a":0,"k":0},"ry":{"a":0,"k":0},"rz":{"a":0,"k":0},"s":{"a":1,"k":[{"t":0,"s":[100,47.3],"e":[100,93.2],"i":{"x":[1,0.515],"y":[1,0.955]},"o":{"x":[0,0.455],"y":[0,0.03]}},{"t":60}]}},"shapes":[{"ty":"gr","nm":"mulut shape group","it":[{"ty":"sh","ks":{"a":0,"k":{"c":true,"v":[[-486.132,2981.1],[-485.144,2989.82],[-483.271,2990.19],[-479.586,2983.4],[-481.344,2982.45],[-483.514,2986.44],[-484.145,2980.88]],"i":[[-0.20699999999999363,-1.2799999999997453],[-0.32900000000000773,-2.900000000000091],[-0.450999999999965,0.8299999999999272],[-1.2280000000000086,2.2599999999997635],[0.5649999999999977,-1.169999999999618],[0.7239999999999895,-1.3299999999999272],[0.20999999999997954,1.849999999999909]],"o":[[0.32900000000000773,2.9100000000003092],[0.10700000000002774,0.9400000000000546],[1.2280000000000086,-2.269999999999982],[0.6709999999999923,-1.1100000000001273],[-0.7230000000000132,1.330000000000382],[-0.20999999999997954,-1.849999999999909],[-0.08500000000003638,-1.300000000000182]]}}},{"ty":"st","o":{"a":0,"k":0},"w":{"a":0,"k":0},"c":{"a":0,"k":[0,0,0,0]},"lc":3,"lj":1,"ml":1},{"ty":"fl","o":{"a":0,"k":100},"r":1,"c":{"a":0,"k":[0.4823529411764706,0,0.28627450980392155,1]}},{"ty":"tr","o":{"a":0,"k":100},"a":{"a":0,"k":[0,0]},"s":{"a":0,"k":[100,100]},"p":{"a":0,"k":[492.752,-2977.34]},"r":{"a":0,"k":0}}]},{"ty":"gr","nm":"mulut shape group","it":[{"ty":"sh","ks":{"a":0,"k":{"c":false,"v":[[-485.139,2980.99],[-484.15,2989.71],[-480.465,2982.92]],"i":[[0,0],[0,0],[0,0]],"o":[[0,0],[0,0],[0,0]]}}},{"ty":"st","o":{"a":0,"k":0},"w":{"a":0,"k":0},"c":{"a":0,"k":[0,0,0,0]},"lc":3,"lj":1,"ml":1},{"ty":"fl","o":{"a":0,"k":100},"r":1,"c":{"a":0,"k":[1,1,1,1]}},{"ty":"tr","o":{"a":0,"k":100},"a":{"a":0,"k":[0,0]},"s":{"a":0,"k":[100,100]},"p":{"a":0,"k":[492.752,-2977.34]},"r":{"a":0,"k":0}}]},{"ty":"gr","nm":"mulut shape group","it":[{"ty":"sh","ks":{"a":0,"k":{"c":true,"v":[[-490.623,2979.87],[-481.334,2982.68],[-479.247,3000.45],[-477.945,3013.23],[-477.662,3018.27],[-483.121,3017.05],[-488.391,3015.48]],"i":[[0.742999999999995,11.86999999999989],[-3.09699999999998,-0.9400000000000546],[-0.6579999999999586,-5.929999999999836],[-0.3369999999999891,-4.260000000000218],[0.07099999999996953,-1.5900000000001455],[1.8909999999999627,0.5],[1.7630000000000337,0.5599999999999454]],"o":[[3.0960000000000036,0.9400000000000546],[0.7280000000000086,5.920000000000073],[0.47399999999998954,4.269999999999982],[0.14100000000001955,1.75],[-1.7590000000000146,-0.09999999999990905],[-1.7580000000000382,-0.4600000000000364],[-0.7450000000000045,-11.86999999999989]]}}},{"ty":"sh","ks":{"a":0,"k":{"c":true,"v":[[-492.71,2978.56],[-490.346,3016.29],[-489.651,3017.18],[-483.627,3018.99],[-476.694,3020.29],[-475.75,3019.41],[-475.951,3013.07],[-477.259,3000.23],[-479.427,2981.79],[-480.13,2980.95],[-491.422,2977.54]],"i":[[-0.04200000000003001,-0.6700000000000728],[-0.7880000000000109,-12.579999999999927],[-0.38900000000001,-0.1299999999996544],[-2.048000000000002,-0.5399999999999636],[-2.5260000000000105,0.11000000000012733],[-0.05700000000001637,0.47000000000025466],[0.15399999999999636,2],[0.4730000000000132,4.2599999999997635],[0.7549999999999955,6.139999999999873],[0.37599999999997635,0.12000000000034561],[3.76400000000001,1.1399999999998727]],"o":[[0.7879999999999541,12.570000000000164],[0.02600000000001046,0.40000000000009095],[1.9800000000000182,0.6200000000003456],[2.112000000000023,0.5400000000004184],[0.4759999999999991,-0.02999999999974534],[0.26200000000000045,-2.199999999999818],[-0.34099999999995134,-4.300000000000182],[-0.6829999999999927,-6.1599999999998545],[-0.04800000000000182,-0.38999999999987267],[-3.76400000000001,-1.1399999999998727],[-0.6459999999999582,-0.1999999999998181]]}}},{"ty":"st","o":{"a":0,"k":0},"w":{"a":0,"k":0},"c":{"a":0,"k":[0,0,0,0]},"lc":3,"lj":1,"ml":1},{"ty":"fl","o":{"a":0,"k":100},"r":1,"c":{"a":0,"k":[0.4823529411764706,0,0.28627450980392155,1]}},{"ty":"tr","o":{"a":0,"k":100},"a":{"a":0,"k":[0,0]},"s":{"a":0,"k":[100,100]},"p":{"a":0,"k":[492.752,-2977.34]},"r":{"a":0,"k":0}}]},{"ty":"gr","nm":"mulut shape group","it":[{"ty":"sh","ks":{"a":0,"k":{"c":true,"v":[[-491.711,2978.5],[-480.419,2981.91],[-476.743,3019.29],[-489.348,3016.22]],"i":[[0,0],[0,0],[0.875,-0.6999999999998181],[0,0]],"o":[[0,0],[0,0],[-0.875,0.6999999999998181],[0,0]]}}},{"ty":"st","o":{"a":0,"k":0},"w":{"a":0,"k":0},"c":{"a":0,"k":[0,0,0,0]},"lc":3,"lj":1,"ml":1},{"ty":"fl","o":{"a":0,"k":100},"r":1,"c":{"a":0,"k":[1,0.5843137254901961,0.12941176470588237,1]}},{"ty":"tr","o":{"a":0,"k":100},"a":{"a":0,"k":[0,0]},"s":{"a":0,"k":[100,100]},"p":{"a":0,"k":[492.752,-2977.34]},"r":{"a":0,"k":0}}]}],"op":77},{"ty":4,"nm":"tompel kanan","ip":0,"st":0,"ind":17,"hix":3,"ks":{"o":{"a":0,"k":100},"or":{"a":0,"k":[0,0,0]},"a":{"a":0,"k":[6.4290008544921875,4.570068359375,0]},"p":{"s":true,"x":{"a":1,"k":[{"t":0,"s":[97.32009797499326],"e":[98.76011657714844],"i":{"x":[0.515],"y":[0.955]},"o":{"x":[0.455],"y":[0.03]}},{"t":60,"s":[98.76011657714844],"e":[98.76],"i":{"x":[0.515],"y":[0.955]},"o":{"x":[0.455],"y":[0.03]}},{"t":77}]},"y":{"a":1,"k":[{"t":0,"s":[127.82943936559501],"e":[127.75433349609374],"i":{"x":[0.515],"y":[0.955]},"o":{"x":[0.455],"y":[0.03]}},{"t":60}]}},"rx":{"a":0,"k":0},"ry":{"a":0,"k":0},"rz":{"a":0,"k":0},"s":{"a":0,"k":[100,100,100]}},"shapes":[{"ty":"gr","nm":"tompel kanan shape group","it":[{"ty":"sh","ks":{"a":0,"k":{"c":true,"v":[[-464.393,2976.58],[-455.595,2972.97],[-456.723,2977.71],[-451.535,2977.82],[-460.784,2982.11]],"i":[[0,0],[0,0],[0,0],[0,0],[0,0]],"o":[[0,0],[0,0],[0,0],[0,0],[0,0]]}}},{"ty":"st","o":{"a":0,"k":100},"c":{"a":0,"k":[0,0,0,1]},"lc":2,"lj":2,"ml":10,"w":{"a":0,"k":0}},{"ty":"fl","o":{"a":0,"k":0},"c":{"a":0,"k":[0,0,0,0]},"r":1},{"ty":"tr","o":{"a":0,"k":100},"a":{"a":0,"k":[0,0]},"s":{"a":0,"k":[100,100]},"p":{"a":0,"k":[464.393,-2972.97]},"r":{"a":0,"k":0}}]},{"ty":"gr","nm":"tompel kanan shape group","it":[{"ty":"sh","ks":{"a":0,"k":{"c":true,"v":[[-464.393,2976.58],[-455.595,2972.97],[-456.723,2977.71],[-451.535,2977.82],[-460.784,2982.11]],"i":[[0,0],[0,0],[0,0],[0,0],[0,0]],"o":[[0,0],[0,0],[0,0],[0,0],[0,0]]}}},{"ty":"st","o":{"a":0,"k":0},"w":{"a":0,"k":0},"c":{"a":0,"k":[0,0,0,0]},"lc":3,"lj":1,"ml":1},{"ty":"fl","o":{"a":0,"k":100},"r":1,"c":{"a":0,"k":[1,0.5764705882352941,0.11372549019607843,1]}},{"ty":"tr","o":{"a":0,"k":98},"a":{"a":0,"k":[0,0]},"s":{"a":0,"k":[100,100]},"p":{"a":0,"k":[464.393,-2972.97]},"r":{"a":0,"k":0}}]}],"op":77},{"ty":4,"nm":"mata kanan","ip":0,"st":0,"ind":16,"hix":4,"ks":{"o":{"a":0,"k":100},"or":{"a":0,"k":[0,0,0]},"a":{"a":0,"k":[8.793045043945312,5.602783203125,0]},"p":{"s":true,"x":{"a":1,"k":[{"t":0,"s":[78.31609797499327],"e":[78.20014953613281],"i":{"x":[0.515],"y":[0.955]},"o":{"x":[0.455],"y":[0.03]}},{"t":60,"s":[78.20014953613281],"e":[78.2],"i":{"x":[0.515],"y":[0.955]},"o":{"x":[0.455],"y":[0.03]}},{"t":77}]},"y":{"a":1,"k":[{"t":0,"s":[122.05643936559501],"e":[126.43670654296875],"i":{"x":[0.515],"y":[0.955]},"o":{"x":[0.455],"y":[0.03]}},{"t":60}]}},"rx":{"a":0,"k":0},"ry":{"a":0,"k":0},"rz":{"a":0,"k":0},"s":{"a":0,"k":[100,100,100]}},"shapes":[{"ty":"gr","nm":"mata kanan shape group","it":[{"ty":"sh","ks":{"a":0,"k":{"c":true,"v":[[-470.981,2968.67],[-473.896,2973],[-483.641,2973.47],[-483.765,2973.37],[-483.778,2973.45],[-483.743,2973.46],[-482.91,2972.77],[-477.723,2970.58]],"i":[[-2.3079999999999927,0.5499999999997272],[1.1070000000000277,-1.3800000000001091],[2.5810000000000173,2.680000000000291],[0.07999999999998408,0.05999999999994543],[-0.0019999999999527063,-0.11999999999989086],[-0.06799999999998363,0.09999999999990905],[-0.2799999999999727,0.15999999999985448],[-1.83299999999997,0.6100000000001273]],"o":[[-0.8070000000000164,1.5199999999999818],[-2.375,2.9899999999997817],[-0.024999999999977263,-0.01999999999998181],[-0.1220000000000141,-0.09999999999990905],[0.0049999999999954525,0.12000000000034561],[0.11899999999997135,-0.19000000000005457],[1.5720000000000027,-0.9299999999998363],[2.1960000000000264,-0.7300000000000182]]}}},{"ty":"sh","ks":{"a":0,"k":{"c":true,"v":[[-469.402,2966.19],[-478.358,2968.69],[-483.93,2971.05],[-485.388,2972.33],[-484.948,2974.98],[-485.071,2974.87],[-472.339,2974.25],[-468.244,2967.53]],"i":[[0.7609999999999673,-0.1799999999998363],[2.951000000000022,-0.9900000000002365],[1.7930000000000064,-1.0600000000004002],[0.450999999999965,-0.6300000000001091],[-1.024000000000001,-0.5599999999999454],[0.04100000000005366,0.03999999999996362],[-3.214999999999975,3.9400000000000546],[-0.9939999999999714,2.480000000000018]],"o":[[-3.004000000000019,0.7100000000000364],[-1.8600000000000136,0.6199999999998909],[-0.42099999999999227,0.25999999999976353],[-0.5340000000000487,0.5],[-0.04099999999999682,-0.03999999999996362],[3.4910000000000423,3.5300000000002],[1.634999999999991,-2.0300000000002],[0.29200000000003,-0.7200000000002547]]}}},{"ty":"st","o":{"a":0,"k":0},"w":{"a":0,"k":0},"c":{"a":0,"k":[0,0,0,0]},"lc":3,"lj":1,"ml":1},{"ty":"fl","o":{"a":0,"k":100},"r":1,"c":{"a":0,"k":[0.4823529411764706,0,0.28627450980392155,1]}},{"ty":"tr","o":{"a":0,"k":100},"a":{"a":0,"k":[0,0]},"s":{"a":0,"k":[100,100]},"p":{"a":0,"k":[485.762,-2966.164]},"r":{"a":0,"k":0}}]}],"op":77},{"ty":4,"nm":"mata kiri","ip":0,"st":0,"ind":15,"hix":5,"ks":{"o":{"a":0,"k":100},"or":{"a":0,"k":[0,0,0]},"a":{"a":0,"k":[3.386993408203125,7.5872802734375,0]},"p":{"s":true,"x":{"a":1,"k":[{"t":0,"s":[62.40709797499326],"e":[60.77508544921875],"i":{"x":[0.515],"y":[0.955]},"o":{"x":[0.455],"y":[0.03]}},{"t":60,"s":[60.77508544921875],"e":[60.775],"i":{"x":[0.515],"y":[0.955]},"o":{"x":[0.455],"y":[0.03]}},{"t":77}]},"y":{"a":1,"k":[{"t":0,"s":[114.21243936559499],"e":[120.50949096679686],"i":{"x":[0.515],"y":[0.955]},"o":{"x":[0.455],"y":[0.03]}},{"t":60}]}},"rx":{"a":0,"k":0},"ry":{"a":0,"k":0},"rz":{"a":0,"k":0},"s":{"a":0,"k":[100,100,100]}},"shapes":[{"ty":"gr","nm":"mata kiri shape group","it":[{"ty":"sh","ks":{"a":0,"k":{"c":true,"v":[[-492.929,2969.35],[-493.469,2963.12],[-492.149,2960.14],[-491.559,2964.86],[-491.645,2968.56],[-493.035,2969.3]],"i":[[-0.03500000000002501,-0.01999999999998181],[-0.896000000000015,2.349999999999909],[-0.5059999999999718,0.9700000000002547],[-0.05699999999995953,-1.5599999999999454],[0.24799999999999045,-1.0499999999997272],[1.3450000000000273,0.2699999999999818]],"o":[[-1.913000000000011,-0.8800000000001091],[0.36599999999998545,-1.0199999999999818],[0.3129999999999882,1.5799999999999272],[0.04400000000003956,1],[-0.5130000000000337,1.0700000000001637],[0.036000000000001364,0.01999999999998181]]}}},{"ty":"sh","ks":{"a":0,"k":{"c":true,"v":[[-493.794,2971.15],[-489.696,2969],[-489.56,2964.79],[-490.699,2957.11],[-492.524,2956.78],[-495.35,2962.44],[-493.899,2971.1]],"i":[[-0.03500000000002501,-0.01999999999998181],[-0.07199999999994589,1.4899999999997817],[0.02800000000002001,0.9400000000000546],[0.5300000000000296,2.480000000000018],[0.46100000000001273,-0.7300000000000182],[0.7230000000000132,-2.0100000000002183],[-3.569000000000017,-2.1599999999998545]],"o":[[2.093999999999994,1.1399999999998727],[0.33700000000004593,-1.5199999999999818],[-0.09899999999998954,-2.6399999999998727],[-0.18000000000000682,-0.849999999999909],[-1.1089999999999804,1.7699999999999818],[-0.8039999999999736,2.3600000000001273],[0.03500000000002501,0.010000000000218279]]}}},{"ty":"st","o":{"a":0,"k":0},"w":{"a":0,"k":0},"c":{"a":0,"k":[0,0,0,0]},"lc":3,"lj":1,"ml":1},{"ty":"fl","o":{"a":0,"k":100},"r":1,"c":{"a":0,"k":[0.4823529411764706,0,0.28627450980392155,1]}},{"ty":"tr","o":{"a":0,"k":100},"a":{"a":0,"k":[0,0]},"s":{"a":0,"k":[100,100]},"p":{"a":0,"k":[496.265,-2956.335]},"r":{"a":0,"k":0}}]}],"op":77},{"ty":4,"nm":"rambut atas","ip":0,"st":0,"ind":14,"hix":6,"ks":{"o":{"a":0,"k":100},"or":{"a":0,"k":[0,0,0]},"a":{"a":0,"k":[12.45550537109375,11.800048828125,0]},"p":{"s":true,"x":{"a":1,"k":[{"t":0,"s":[92.38909797499326],"e":[84.23309326171875],"i":{"x":[0.515],"y":[0.955]},"o":{"x":[0.455],"y":[0.03]}},{"t":60,"s":[84.23309326171875],"e":[84.233],"i":{"x":[0.515],"y":[0.955]},"o":{"x":[0.455],"y":[0.03]}},{"t":77}]},"y":{"a":1,"k":[{"t":0,"s":[95.82943936559501],"e":[107.55997207238592],"i":{"x":[0.515],"y":[0.955]},"o":{"x":[0.455],"y":[0.03]}},{"t":60}]}},"rx":{"a":0,"k":0},"ry":{"a":0,"k":0},"rz":{"a":0,"k":0},"s":{"a":0,"k":[100,100,100]}},"shapes":[{"ty":"gr","nm":"rambut atas shape group","it":[{"ty":"sh","ks":{"a":0,"k":{"c":true,"v":[[-472.919,2947.8],[-461.754,2937.62],[-465.146,2945.8],[-463.694,2947.03],[-453.417,2940.63],[-458.048,2955.49],[-456.139,2956.08],[-450.707,2938.66],[-452.19,2937.51],[-462.098,2943.68],[-458.676,2935.46],[-460.121,2934.23],[-474.57,2946.67]],"i":[[-0.68100000000004,1.099999999999909],[-4.301999999999964,2.8099999999999454],[1.1340000000000146,-2.7200000000002547],[-0.7980000000000018,0.5],[-3.4260000000000446,2.1399999999998727],[1.5439999999999827,-4.949999999999818],[-0.3269999999999982,1.2600000000002183],[-1.8100000000000023,5.809999999999945],[0.7590000000000146,-0.47000000000025466],[3.3029999999999973,-2.049999999999727],[-1.1410000000000196,2.7399999999997817],[0.7980000000000018,-0.49000000000023647],[3.7040000000000077,-5.4099999999998545]],"o":[[2.8379999999999654,-4.160000000000309],[-1.125,2.7400000000002365],[-0.36099999999999,0.8699999999998909],[3.4260000000000446,-2.130000000000109],[-1.5440000000000396,4.949999999999818],[-0.4440000000000168,1.2200000000002547],[1.8110000000000355,-5.799999999999727],[0.2669999999999959,-0.849999999999909],[-3.3029999999999973,2.0599999999999454],[1.1410000000000196,-2.7399999999997817],[0.36000000000001364,-0.8600000000001273],[-5.343999999999994,3.269999999999982],[-0.7810000000000059,1.0299999999997453]]}}},{"ty":"st","o":{"a":0,"k":0},"w":{"a":0,"k":0},"c":{"a":0,"k":[0,0,0,0]},"lc":3,"lj":1,"ml":1},{"ty":"fl","o":{"a":0,"k":100},"r":1,"c":{"a":0,"k":[0.4823529411764706,0,0.28627450980392155,1]}},{"ty":"tr","o":{"a":0,"k":100},"a":{"a":0,"k":[0,0]},"s":{"a":0,"k":[100,100]},"p":{"a":0,"k":[475.351,-2933.74]},"r":{"a":0,"k":0}}]},{"ty":"gr","nm":"rambut atas shape group","it":[{"ty":"sh","ks":{"a":0,"k":{"c":false,"v":[[-473.744,2947.23],[-459.599,2935.08],[-464.223,2946.19],[-451.661,2938.36],[-457.093,2955.79]],"i":[[0,0],[0,0],[0,0],[0,0],[0,0]],"o":[[4.1270000000000095,-6.4699999999998],[0,0],[0,0],[0,0],[0,0]]}}},{"ty":"st","o":{"a":0,"k":0},"w":{"a":0,"k":0},"c":{"a":0,"k":[0,0,0,0]},"lc":3,"lj":1,"ml":1},{"ty":"fl","o":{"a":0,"k":100},"r":1,"c":{"a":0,"k":[1,1,1,1]}},{"ty":"tr","o":{"a":0,"k":100},"a":{"a":0,"k":[0,0]},"s":{"a":0,"k":[100,100]},"p":{"a":0,"k":[475.351,-2933.74]},"r":{"a":0,"k":0}}]}],"op":77},{"ty":4,"nm":"rambut kanan","ip":0,"st":0,"ind":13,"hix":7,"ks":{"o":{"a":0,"k":100},"or":{"a":0,"k":[0,0,0]},"a":{"a":0,"k":[11.968490600585938,14.6949462890625,0]},"p":{"s":true,"x":{"a":1,"k":[{"t":0,"s":[124.95309797499326],"e":[117.09959411621094],"i":{"x":[0.515],"y":[0.955]},"o":{"x":[0.455],"y":[0.03]}},{"t":60,"s":[117.09959411621094],"e":[117.1],"i":{"x":[0.515],"y":[0.955]},"o":{"x":[0.455],"y":[0.03]}},{"t":77}]},"y":{"a":1,"k":[{"t":0,"s":[139.484439365595],"e":[143.7532958984375],"i":{"x":[0.515],"y":[0.955]},"o":{"x":[0.455],"y":[0.03]}},{"t":60}]}},"rx":{"a":0,"k":0},"ry":{"a":0,"k":0},"rz":{"a":0,"k":0},"s":{"a":0,"k":[100,100,100]}},"shapes":[{"ty":"gr","nm":"rambut kanan shape group","it":[{"ty":"sh","ks":{"a":0,"k":{"c":true,"v":[[-439.972,2984.81],[-424.326,2977.18],[-430.581,2983.05],[-429.924,2984.78],[-421.893,2984.98],[-427.524,2991.09],[-427.109,2992.71],[-424.278,2993.67],[-434.6,3001.47],[-433.394,3003.06],[-421.564,2994.13],[-421.847,2992.38],[-425.01,2991.31],[-418.925,2984.71],[-419.637,2983.03],[-427.421,2982.84],[-420.44,2976.35],[-421.248,2974.62],[-441.282,2983.3]],"i":[[-0.938000000000045,0.900000000000091],[-5.7450000000000045,1.2400000000002365],[2.0880000000000223,-1.9400000000000546],[-0.8650000000000091,-0.01999999999998181],[-2.677000000000021,-0.07000000000016371],[1.8770000000000095,-2.0399999999999636],[-0.6630000000000109,-0.22000000000025466],[-0.94399999999996,-0.3200000000001637],[3.441000000000031,-2.599999999999909],[-0.9970000000000141,0.8299999999999272],[-3.94399999999996,2.9699999999998],[0.7349999999999568,0.25],[1.0539999999999736,0.36000000000012733],[-2.0289999999999964,2.199999999999818],[0.8299999999999841,0.01999999999998181],[2.5949999999999704,0.06999999999970896],[-2.326999999999998,2.1600000000003092],[0.9309999999999832,-0.11999999999989086],[5.613999999999976,-4.870000000000346]],"o":[[4.421999999999969,-3.8400000000001455],[-2.078999999999951,1.9900000000002365],[-0.6339999999999577,0.5899999999996908],[2.676999999999964,0.06999999999970896],[-1.8770000000000095,2.0300000000002],[-0.47399999999998954,0.5099999999997635],[0.94399999999996,0.3200000000001637],[-3.440999999999974,2.599999999999909],[-1.0699999999999932,0.7300000000000182],[3.9429999999999836,-2.980000000000018],[0.617999999999995,-0.47000000000025466],[-1.0540000000000305,-0.36000000000012733],[2.027999999999963,-2.199999999999818],[0.5620000000000118,-0.6100000000001273],[-2.5950000000000273,-0.06000000000040018],[2.326999999999998,-2.1600000000003092],[0.6870000000000118,-0.6399999999998727],[-7.283999999999992,0.930000000000291],[-1.018000000000029,0.7999999999997272]]}}},{"ty":"st","o":{"a":0,"k":0},"w":{"a":0,"k":0},"c":{"a":0,"k":[0,0,0,0]},"lc":3,"lj":1,"ml":1},{"ty":"fl","o":{"a":0,"k":100},"r":1,"c":{"a":0,"k":[0.4823529411764706,0,0.28627450980392155,1]}},{"ty":"tr","o":{"a":0,"k":100},"a":{"a":0,"k":[0,0]},"s":{"a":0,"k":[100,100]},"p":{"a":0,"k":[442.3,-2974.5]},"r":{"a":0,"k":0}}]},{"ty":"gr","nm":"rambut kanan shape group","it":[{"ty":"sh","ks":{"a":0,"k":{"c":false,"v":[[-440.627,2984.06],[-421.122,2975.62],[-429.9,2983.78],[-419.661,2984.03],[-426.788,2991.76],[-422.167,2993.33],[-433.997,3002.26]],"i":[[0,0],[0,0],[0,0],[0,0],[0,0],[0,0],[0,0]],"o":[[8.64100000000002,-7.559999999999945],[0,0],[0,0],[0,0],[0,0],[0,0],[0,0]]}}},{"ty":"st","o":{"a":0,"k":0},"w":{"a":0,"k":0},"c":{"a":0,"k":[0,0,0,0]},"lc":3,"lj":1,"ml":1},{"ty":"fl","o":{"a":0,"k":100},"r":1,"c":{"a":0,"k":[1,1,1,1]}},{"ty":"tr","o":{"a":0,"k":100},"a":{"a":0,"k":[0,0]},"s":{"a":0,"k":[100,100]},"p":{"a":0,"k":[442.3,-2974.5]},"r":{"a":0,"k":0}}]}],"op":77},{"ty":4,"nm":"tompel kiri","ip":0,"st":0,"ind":12,"hix":8,"ks":{"o":{"a":0,"k":100},"or":{"a":0,"k":[0,0,0]},"a":{"a":0,"k":[3.3699951171875,4.6400146484375,0]},"p":{"s":true,"x":{"a":1,"k":[{"t":0,"s":[51.187097974993264],"e":[48.026123046875],"i":{"x":[0.515],"y":[0.955]},"o":{"x":[0.455],"y":[0.03]}},{"t":60,"s":[48.026123046875],"e":[48.026],"i":{"x":[0.515],"y":[0.955]},"o":{"x":[0.455],"y":[0.03]}},{"t":77}]},"y":{"a":1,"k":[{"t":0,"s":[113.119439365595],"e":[121.6959717672175],"i":{"x":[0.515],"y":[0.955]},"o":{"x":[0.455],"y":[0.03]}},{"t":60}]}},"rx":{"a":0,"k":0},"ry":{"a":0,"k":0},"rz":{"a":0,"k":0},"s":{"a":0,"k":[100,100,100]}},"shapes":[{"ty":"gr","nm":"tompel kiri shape group","it":[{"ty":"sh","ks":{"a":0,"k":{"c":true,"v":[[-500.728,2964.67],[-503.091,2958.19],[-504.492,2962.21],[-507.468,2961.78],[-504.579,2967.47]],"i":[[0,0],[0,0],[0,0],[0,0],[0,0]],"o":[[0,0],[0,0],[0,0],[0,0],[0,0]]}}},{"ty":"st","o":{"a":0,"k":0},"w":{"a":0,"k":0},"c":{"a":0,"k":[0,0,0,0]},"lc":3,"lj":1,"ml":1},{"ty":"fl","o":{"a":0,"k":100},"r":1,"c":{"a":0,"k":[1,0.5843137254901961,0.12941176470588237,1]}},{"ty":"tr","o":{"a":0,"k":100},"a":{"a":0,"k":[0,0]},"s":{"a":0,"k":[100,100]},"p":{"a":0,"k":[507.468,-2958.19]},"r":{"a":0,"k":0}}]}],"op":77},{"ty":4,"nm":"head","ip":0,"st":0,"ind":11,"hix":9,"ks":{"o":{"a":0,"k":100},"or":{"a":0,"k":[0,0,0]},"a":{"a":0,"k":[55.29100036621094,45.9249267578125,0]},"p":{"s":true,"x":{"a":1,"k":[{"t":0,"s":[72.06509797499326],"e":[66.46412658691406],"i":{"x":[0.515],"y":[0.955]},"o":{"x":[0.455],"y":[0.03]}},{"t":60,"s":[66.46412658691406],"e":[66.464],"i":{"x":[0.515],"y":[0.955]},"o":{"x":[0.455],"y":[0.03]}},{"t":77}]},"y":{"a":1,"k":[{"t":0,"s":[137.044439365595],"e":[149.0045166015625],"i":{"x":[0.515],"y":[0.955]},"o":{"x":[0.455],"y":[0.03]}},{"t":60}]}},"rx":{"a":0,"k":0},"ry":{"a":0,"k":0},"rz":{"a":0,"k":0},"s":{"a":0,"k":[100,100,100]}},"shapes":[{"ty":"gr","nm":"head shape group","it":[{"ty":"sh","ks":{"a":0,"k":{"c":true,"v":[[-465.678,2946.16],[-519.351,2966.53],[-484.172,3007.28],[-430.148,2995.19]],"i":[[25.60899999999998,7.760000000000218],[12.470000000000027,-18.5],[-23.853999999999985,-8.080000000000382],[-2.5509999999999877,20.110000000000127]],"o":[[-17.61500000000001,-5.329999999999927],[-10.426000000000045,16.309999999999945],[23.916000000000054,7.929999999999836],[2.219000000000051,-20.289999999999964]]}}},{"ty":"sh","ks":{"a":0,"k":{"c":true,"v":[[-466.261,2948.07],[-432.137,2994.97],[-483.537,3005.38],[-517.692,2967.65]],"i":[[-16.666999999999973,-5.100000000000364],[2.0740000000000123,-19.34999999999991],[23.751999999999953,8.039999999999964],[-9.563999999999965,13.420000000000073]],"o":[[24.786,7.569999999999709],[-1.521000000000015,17.490000000000236],[-23.81600000000003,-7.869999999999891],[11.89100000000002,-17.740000000000236]]}}},{"ty":"st","o":{"a":0,"k":0},"w":{"a":0,"k":0},"c":{"a":0,"k":[0,0,0,0]},"lc":3,"lj":1,"ml":1},{"ty":"fl","o":{"a":0,"k":100},"r":1,"c":{"a":0,"k":[0.4823529411764706,0,0.28627450980392155,1]}},{"ty":"tr","o":{"a":0,"k":100},"a":{"a":0,"k":[0,0]},"s":{"a":0,"k":[100,100]},"p":{"a":0,"k":[538.511,-2940.83]},"r":{"a":0,"k":0}}]},{"ty":"gr","nm":"head shape group","it":[{"ty":"sh","ks":{"a":0,"k":{"c":true,"v":[[-465.97,2947.11],[-518.521,2967.09],[-431.142,2995.08]],"i":[[25.198000000000036,7.670000000000073],[12.17999999999995,-18.120000000000346],[-4.072000000000003,37.59999999999991]],"o":[[-17.139999999999986,-5.210000000000036],[-19.99000000000001,29.730000000000018],[2.146000000000015,-19.81999999999971]]}}},{"ty":"st","o":{"a":0,"k":0},"w":{"a":0,"k":0},"c":{"a":0,"k":[0,0,0,0]},"lc":3,"lj":1,"ml":1},{"ty":"fl","o":{"a":0,"k":100},"r":1,"c":{"a":0,"k":[1,1,1,1]}},{"ty":"tr","o":{"a":0,"k":100},"a":{"a":0,"k":[0,0]},"s":{"a":0,"k":[100,100]},"p":{"a":0,"k":[538.511,-2940.83]},"r":{"a":0,"k":0}}]}],"op":77},{"ty":4,"nm":"kuping kanan","ip":0,"st":0,"ind":10,"hix":10,"ks":{"o":{"a":0,"k":100},"or":{"a":0,"k":[0,0,0]},"a":{"a":0,"k":[24.3074951171875,28.43994140625,0]},"p":{"s":true,"x":{"a":1,"k":[{"t":0,"s":[118.48009797499326],"e":[112.92663574218749],"i":{"x":[0.515],"y":[0.955]},"o":{"x":[0.455],"y":[0.03]}},{"t":60,"s":[112.92663574218749],"e":[112.927],"i":{"x":[0.515],"y":[0.955]},"o":{"x":[0.455],"y":[0.03]}},{"t":77}]},"y":{"a":1,"k":[{"t":0,"s":[115.09943936559499],"e":[126.76939392089844],"i":{"x":[0.515],"y":[0.955]},"o":{"x":[0.455],"y":[0.03]}},{"t":60}]}},"rx":{"a":0,"k":0},"ry":{"a":0,"k":0},"rz":{"a":0,"k":0},"s":{"a":0,"k":[100,100,100]}},"shapes":[{"ty":"gr","nm":"kuping kanan shape group","it":[{"ty":"sh","ks":{"a":0,"k":{"c":true,"v":[[-452.937,2955.71],[-451.759,2955.07],[-444.994,2952.06],[-431.991,2949.72],[-432.205,2949.53],[-432.111,2955.57],[-435.959,2967.52],[-442.008,2981.9],[-446.582,2969.7],[-450.717,2959.7]],"i":[[1.1100000000000136,1.25],[-0.45999999999997954,0.23999999999978172],[-2.651999999999987,1.0300000000002],[-1.407000000000039,-1.2199999999998],[0.07200000000000273,0.05999999999994543],[0.5260000000000105,-2.3200000000001637],[1.5129999999999768,-3.9600000000000364],[2.1569999999999823,-4.7400000000002365],[1.5740000000000123,4.050000000000182],[1.5529999999999973,3.2899999999999636]],"o":[[0.31799999999998363,-0.1799999999998363],[1.65300000000002,-0.8500000000003638],[5.236000000000047,-2.119999999999891],[-0.07100000000002638,-0.05999999999994543],[1.19399999999996,1.2999999999997272],[-0.8319999999999936,4.049999999999727],[-1.8519999999999754,4.860000000000127],[-1.4860000000000468,-4.0900000000001455],[-1.2989999999999782,-3.3299999999999272],[-0.5930000000000177,-1.2199999999998]]}}},{"ty":"sh","ks":{"a":0,"k":{"c":true,"v":[[-454.293,2956.65],[-454.969,2956.42],[-452.526,2960.56],[-448.446,2970.43],[-443.066,2984.88],[-441.218,2984.96],[-434.09,2968.24],[-430.152,2955.97],[-430.671,2948.25],[-430.885,2948.06],[-445.718,2950.2],[-452.676,2953.3],[-454.653,2954.43],[-455.281,2955.01],[-455.131,2956.36],[-454.593,2956.63]],"i":[[0,0],[0.2259999999999991,0.07999999999992724],[-0.7609999999999673,-1.6599999999998545],[-1.301999999999964,-3.349999999999909],[-1.7350000000000136,-4.8400000000001455],[-0.36299999999999955,0.7899999999999636],[-2.164000000000044,5.670000000000073],[-0.8779999999999859,4.269999999999982],[2.0289999999999964,2.550000000000182],[0.05899999999996908,0.03000000000020009],[5.516999999999996,-2.049999999999727],[1.728999999999985,-0.8900000000003274],[0.4449999999999932,-0.30999999999994543],[0.2440000000000282,-0.3400000000001455],[-0.5640000000000214,-0.5300000000002001],[-0.12999999999999545,-0.01999999999998181]],"o":[[-0.2249999999999659,-0.07999999999992724],[1.0629999999999882,0.849999999999909],[1.509999999999991,3.1900000000000546],[1.8629999999999995,4.789999999999964],[0.2909999999999968,0.8099999999999454],[2.5510000000000446,-5.4900000000002365],[1.509999999999991,-3.9599999999995816],[0.3879999999999768,-2.1299999999996544],[-0.06600000000003092,-0.09000000000014552],[-3.2760000000000105,-1.8899999999998727],[-2.7239999999999895,1.0600000000004002],[-0.867999999999995,0.4499999999998181],[-0.2330000000000041,0.17000000000007276],[-0.09399999999999409,0.08999999999969077],[0.23799999999999955,0.1799999999998363],[0,0]]}}},{"ty":"st","o":{"a":0,"k":0},"w":{"a":0,"k":0},"c":{"a":0,"k":[0,0,0,0]},"lc":3,"lj":1,"ml":1},{"ty":"fl","o":{"a":0,"k":100},"r":1,"c":{"a":0,"k":[0.4823529411764706,0,0.28627450980392155,1]}},{"ty":"tr","o":{"a":0,"k":100},"a":{"a":0,"k":[0,0]},"s":{"a":0,"k":[100,100]},"p":{"a":0,"k":[461.112,-2936.37]},"r":{"a":0,"k":0}}]},{"ty":"gr","nm":"kuping kanan shape group","it":[{"ty":"sh","ks":{"a":0,"k":{"c":true,"v":[[-454.333,2955.65],[-431.438,2948.89],[-442.125,2984.54]],"i":[[1.9050000000000296,-0.07999999999992724],[-4.684000000000026,-3.1099999999996726],[0,0]],"o":[[-1.9039999999999964,0.06999999999970896],[4.683999999999969,3.1100000000001273],[0,0]]}}},{"ty":"st","o":{"a":0,"k":0},"w":{"a":0,"k":0},"c":{"a":0,"k":[0,0,0,0]},"lc":3,"lj":1,"ml":1},{"ty":"fl","o":{"a":0,"k":100},"r":1,"c":{"a":0,"k":[0.8627450980392157,0.3215686274509804,0.09803921568627451,1]}},{"ty":"tr","o":{"a":0,"k":100},"a":{"a":0,"k":[0,0]},"s":{"a":0,"k":[100,100]},"p":{"a":0,"k":[461.112,-2936.37]},"r":{"a":0,"k":0}}]},{"ty":"gr","nm":"kuping kanan shape group","it":[{"ty":"sh","ks":{"a":0,"k":{"c":true,"v":[[-419.967,2939.15],[-421.112,2940.53],[-423.503,2943.46],[-424.108,2946.6],[-421.313,2946.9],[-417.962,2946.06],[-414.903,2945.43],[-414.771,2945.41],[-415.517,2946.29],[-418.424,2949.37],[-423.198,2955.5],[-441.243,2990.31],[-454.405,2973.87],[-457.726,2960.54],[-457.962,2953.38],[-435.877,2943.85],[-421.677,2939.12]],"i":[[0,0],[0.4140000000000441,-0.4800000000000182],[0.6569999999999823,-0.9299999999998363],[-0.7690000000000055,-1.4400000000000546],[-1.0679999999999836,0.09999999999990905],[-1.1659999999999968,0.3000000000001819],[-0.7620000000000005,0.07000000000016371],[-0.04099999999999682,0.010000000000218279],[0.28600000000000136,-0.32999999999992724],[1.0840000000000032,-1.1099999999996726],[0.38700000000000045,-1.8400000000001455],[7.971000000000004,-0.8899999999998727],[3.0809999999999604,9.360000000000127],[0.59699999999998,3.8600000000001273],[-0.3050000000000068,0.2300000000000182],[-9.182000000000016,1.5599999999999454],[-4.395999999999958,1.3900000000003274]],"o":[[-0.33300000000002683,0.42000000000007276],[-0.8319999999999936,0.9699999999997999],[-0.549000000000035,0.9699999999997999],[1.2210000000000036,0.900000000000091],[0.9889999999999759,-0.21000000000003638],[1.1589999999999918,-0.29999999999972715],[0.047000000000025466,-0.009999999999763531],[-0.21699999999998454,0.25],[-0.7590000000000146,0.8800000000001091],[-2.1820000000000164,2.3099999999999454],[-1.2730000000000246,12.949999999999818],[-4.824000000000012,1.1100000000001273],[-1.5820000000000505,-4.639999999999873],[-0.6410000000000196,-3.8099999999999454],[0.825999999999965,-1.6600000000003092],[2.127999999999986,-0.4099999999998545],[0,0]]}}},{"ty":"sh","ks":{"a":0,"k":{"c":true,"v":[[-459.658,2952.32],[-459.703,2960.84],[-456.298,2974.51],[-440.926,2992.29],[-421.21,2955.72],[-416.993,2950.77],[-414.005,2947.6],[-412.497,2944.81],[-415.096,2943.44],[-418.458,2944.12],[-421.728,2944.94],[-422.139,2945.05],[-421.867,2944.61],[-419.594,2941.83],[-417.474,2939.07],[-417.109,2937.55],[-418.64,2936.41],[-436.23,2941.88]],"i":[[1.9700000000000273,-2.8099999999999454],[-0.5750000000000455,-4.050000000000182],[-1.6229999999999905,-4.760000000000218],[-7.285000000000025,0.8400000000001455],[-1.6160000000000423,13.480000000000018],[-2.15300000000002,2.119999999999891],[-0.8249999999999886,0.9600000000000364],[-0.05500000000000682,1.2200000000002547],[0.853999999999985,0],[1.1920000000000073,-0.29999999999972715],[0.8940000000000055,-0.1799999999998363],[0.1330000000000382,-0.01999999999998181],[-0.13700000000000045,0.15999999999985448],[-0.8380000000000223,0.9800000000000182],[-0.4800000000000182,0.8399999999996908],[0.09699999999997999,0.6899999999995998],[0.48399999999998045,-0.03999999999996362],[2.466000000000008,-0.41000000000030923]],"o":[[-0.8460000000000036,1.6199999999998909],[0.617999999999995,3.9899999999997817],[3.329999999999984,9.429999999999836],[10.158000000000015,-2.019999999999982],[-0.1570000000000391,-0.25],[1.08299999999997,-1.1100000000001273],[0.8059999999999832,-1.0199999999999818],[-0.4490000000000123,-1.6700000000000728],[-0.9889999999999759,0.09999999999990905],[-1.1859999999999786,0.30999999999994543],[-0.1379999999999768,0.05999999999994543],[0.03300000000001546,-0.13000000000010914],[0.5579999999999927,-0.7899999999999636],[0.8419999999999845,-0.9899999999997817],[0.2230000000000132,-0.44000000000005457],[-0.1260000000000332,-0.830000000000382],[-2.7620000000000005,0],[-9.786000000000001,1.8299999999999272]]}}},{"ty":"st","o":{"a":0,"k":0},"w":{"a":0,"k":0},"c":{"a":0,"k":[0,0,0,0]},"lc":3,"lj":1,"ml":1},{"ty":"fl","o":{"a":0,"k":100},"r":1,"c":{"a":0,"k":[0.4823529411764706,0,0.28627450980392155,1]}},{"ty":"tr","o":{"a":0,"k":100},"a":{"a":0,"k":[0,0]},"s":{"a":0,"k":[100,100]},"p":{"a":0,"k":[461.112,-2936.37]},"r":{"a":0,"k":0}}]},{"ty":"gr","nm":"kuping kanan shape group","it":[{"ty":"sh","ks":{"a":0,"k":{"c":true,"v":[[-458.81,2952.85],[-436.054,2942.86],[-418.671,2937.41],[-423.327,2945.98],[-413.493,2944.9],[-422.204,2955.61],[-441.085,2991.3]],"i":[[-2.302000000000021,3.6900000000000546],[-9.484000000000037,1.699999999999818],[-2.1999999999999886,-0.06999999999970896],[-1.1639999999999873,-1.4600000000000364],[-0.160000000000025,-1.7899999999999636],[0.228999999999985,-2.0900000000001455],[9.064999999999998,-1.4600000000000364]],"o":[[1.3980000000000246,-2.2399999999997817],[2.652999999999963,-0.47000000000025466],[2.8870000000000005,0.09000000000014552],[0.6940000000000168,0.8600000000001273],[0.14400000000000546,1.5899999999996908],[-1.4440000000000168,13.210000000000036],[-12.108000000000004,1.949999999999818]]}}},{"ty":"st","o":{"a":0,"k":0},"w":{"a":0,"k":0},"c":{"a":0,"k":[0,0,0,0]},"lc":3,"lj":1,"ml":1},{"ty":"fl","o":{"a":0,"k":100},"r":1,"c":{"a":0,"k":[1,0.5764705882352941,0.11372549019607843,1]}},{"ty":"tr","o":{"a":0,"k":100},"a":{"a":0,"k":[0,0]},"s":{"a":0,"k":[100,100]},"p":{"a":0,"k":[461.112,-2936.37]},"r":{"a":0,"k":0}}]}],"op":77},{"ty":4,"nm":"rambut kiri","ip":0,"st":0,"ind":9,"hix":11,"ks":{"o":{"a":0,"k":100},"or":{"a":0,"k":[0,0,0]},"a":{"a":0,"k":[9.452499389648438,12.8250732421875,0]},"p":{"s":true,"x":{"a":1,"k":[{"t":0,"s":[44.714097974993265],"e":[41.67658996582031],"i":{"x":[0.515],"y":[0.955]},"o":{"x":[0.455],"y":[0.03]}},{"t":60,"s":[41.67658996582031],"e":[41.677],"i":{"x":[0.515],"y":[0.955]},"o":{"x":[0.455],"y":[0.03]}},{"t":77}]},"y":{"a":1,"k":[{"t":0,"s":[108.04443936559501],"e":[113.58428955078125],"i":{"x":[0.515],"y":[0.955]},"o":{"x":[0.455],"y":[0.03]}},{"t":60}]}},"rx":{"a":0,"k":0},"ry":{"a":0,"k":0},"rz":{"a":0,"k":0},"s":{"a":0,"k":[100,100,100]}},"shapes":[{"ty":"gr","nm":"rambut kiri shape group","it":[{"ty":"sh","ks":{"a":0,"k":{"c":true,"v":[[-501.207,2962.9],[-507.345,2945.67],[-509.15,2946.25],[-509.257,2953.86],[-513.722,2949.43],[-515.422,2950.05],[-516.107,2957.29],[-518.495,2956.05],[-519.952,2957.03],[-518.807,2969.29],[-516.815,2969.1],[-517.79,2958.67],[-515.713,2959.75],[-514.256,2958.96],[-513.63,2952.34],[-508.995,2956.94],[-507.29,2956.25],[-507.197,2949.58],[-503.206,2962.94]],"i":[[0.08899999999999864,1.2899999999999636],[3.6480000000000246,4.949999999999818],[0.012999999999976808,-0.9299999999998363],[0.036000000000001364,-2.5300000000002],[1.4879999999999427,1.4800000000000182],[0.07699999999999818,-0.8100000000004002],[0.2279999999999518,-2.4200000000000728],[0.7960000000000491,0.4099999999998545],[-0.07100000000002638,-0.7699999999999818],[-0.3809999999999718,-4.0900000000001455],[0.18100000000004002,1.2899999999999636],[0.3249999999999318,3.480000000000018],[-0.6929999999999836,-0.36000000000012733],[-0.06500000000005457,0.6799999999998363],[-0.20900000000006003,2.2100000000000364],[-1.545000000000016,-1.5300000000002],[-0.012000000000000455,0.849999999999909],[-0.03100000000000591,2.2200000000002547],[-0.0999999999999659,-4.690000000000055]],"o":[[-0.13700000000000045,-6.25],[-0.5489999999999782,-0.7400000000002365],[-0.036000000000001364,2.5399999999999636],[-1.4879999999999995,-1.4700000000002547],[-0.5779999999999745,-0.569999999999709],[-0.22899999999992815,2.4099999999998545],[-0.7960000000000491,-0.42000000000007276],[-0.6779999999999973,-0.36000000000012733],[0.38199999999994816,4.079999999999927],[0.06000000000005912,1.2899999999999636],[-0.3249999999999318,-3.4699999999998],[0.6920000000000073,0.36000000000012733],[0.6089999999999236,0.3200000000001637],[0.20899999999994634,-2.2100000000000364],[1.544999999999959,1.5399999999999636],[0.603999999999985,0.599999999999909],[0.03100000000000591,-2.230000000000018],[2.4220000000000255,4.050000000000182],[-0.03299999999995862,1.2999999999997272]]}}},{"ty":"st","o":{"a":0,"k":0},"w":{"a":0,"k":0},"c":{"a":0,"k":[0,0,0,0]},"lc":3,"lj":1,"ml":1},{"ty":"fl","o":{"a":0,"k":100},"r":1,"c":{"a":0,"k":[0.4823529411764706,0,0.28627450980392155,1]}},{"ty":"tr","o":{"a":0,"k":100},"a":{"a":0,"k":[0,0]},"s":{"a":0,"k":[100,100]},"p":{"a":0,"k":[520.023,-2944.93]},"r":{"a":0,"k":0}}]},{"ty":"gr","nm":"rambut kiri shape group","it":[{"ty":"sh","ks":{"a":0,"k":{"c":false,"v":[[-502.207,2962.92],[-508.15,2946.26],[-508.29,2956.23],[-514.427,2950.14],[-515.252,2958.86],[-518.956,2956.93],[-517.811,2969.2]],"i":[[0,0],[0,0],[0,0],[0,0],[0,0],[0,0],[0,0]],"o":[[-0.17200000000002547,-9.539999999999964],[0,0],[0,0],[0,0],[0,0],[0,0],[0,0]]}}},{"ty":"st","o":{"a":0,"k":0},"w":{"a":0,"k":0},"c":{"a":0,"k":[0,0,0,0]},"lc":3,"lj":1,"ml":1},{"ty":"fl","o":{"a":0,"k":100},"r":1,"c":{"a":0,"k":[1,1,1,1]}},{"ty":"tr","o":{"a":0,"k":100},"a":{"a":0,"k":[0,0]},"s":{"a":0,"k":[100,100]},"p":{"a":0,"k":[520.023,-2944.93]},"r":{"a":0,"k":0}}]}],"op":77},{"ty":4,"nm":"kuping kiri","ip":0,"st":0,"ind":8,"hix":12,"ks":{"o":{"a":0,"k":100},"or":{"a":0,"k":[0,0,0]},"a":{"a":0,"k":[19.345001220703125,24.3699951171875,0]},"p":{"s":true,"x":{"a":1,"k":[{"t":0,"s":[67.46209797499327],"e":[66.4061279296875],"i":{"x":[0.515],"y":[0.955]},"o":{"x":[0.455],"y":[0.03]}},{"t":60,"s":[66.4061279296875],"e":[66.406],"i":{"x":[0.515],"y":[0.955]},"o":{"x":[0.455],"y":[0.03]}},{"t":77}]},"y":{"a":1,"k":[{"t":0,"s":[94.869439365595],"e":[103.02432250976562],"i":{"x":[0.515],"y":[0.955]},"o":{"x":[0.455],"y":[0.03]}},{"t":60}]}},"rx":{"a":0,"k":0},"ry":{"a":0,"k":0},"rz":{"a":0,"k":0},"s":{"a":0,"k":[100,100,100]}},"shapes":[{"ty":"gr","nm":"kuping kiri shape group","it":[{"ty":"sh","ks":{"a":0,"k":{"c":true,"v":[[-473.665,2949.94],[-477.005,2941.12],[-480.551,2934.93],[-485.333,2931.81],[-494.533,2943.57],[-497.19,2951.85],[-497.229,2957.35],[-496.944,2957.59],[-492.092,2957.61],[-484.545,2955.24],[-474.228,2951.16]],"i":[[0.1500000000000341,0.4800000000000182],[1.3129999999999882,2.869999999999891],[1.495999999999981,1.930000000000291],[2.3389999999999986,0.13999999999987267],[2.4710000000000036,-5.7800000000002],[0.5459999999999923,-2.4200000000000728],[-0.8300000000000409,-1.3899999999998727],[-0.13999999999998636,-0.07000000000016371],[-1.2479999999999905,0.2300000000000182],[-2.437000000000012,0.8800000000001091],[-3.399000000000001,1.4400000000000546]],"o":[[-0.9359999999999786,-3],[-0.9689999999999941,-2.119999999999891],[-1.0300000000000296,-1.2899999999999636],[-3.930999999999983,0.34999999999990905],[-1.1709999999999923,2.899999999999636],[-0.4800000000000182,2.480000000000018],[0.026999999999986812,0.03999999999996362],[1.8330000000000268,0.9899999999997817],[2.6229999999999905,-0.5799999999999272],[3.483000000000004,-1.2599999999997635],[0.4630000000000223,-0.1999999999998181]]}}},{"ty":"sh","ks":{"a":0,"k":{"c":true,"v":[[-495.949,2955.86],[-495.663,2956.11],[-495.638,2956.14],[-495.677,2955.96],[-495.693,2955.13],[-495.239,2952.29],[-492.678,2944.32],[-485.383,2933.81],[-482.13,2936.16],[-478.823,2941.95],[-475.867,2949.68],[-485.224,2953.36],[-492.521,2955.65],[-495.703,2955.98]],"i":[[0,0],[-0.09600000000000364,-0.09000000000014552],[-0.009000000000014552,-0.02999999999974534],[0.013000000000033651,0.09000000000014552],[-0.021000000000015007,0.3599999999996726],[-0.257000000000005,1.1399999999998727],[-1.1340000000000146,2.799999999999727],[-1.535000000000025,-0.38000000000010914],[-0.9540000000000077,-1.25],[-0.9460000000000264,-2.069999999999709],[-0.8359999999999559,-2.649999999999636],[3.1479999999999677,-1.1400000000003274],[2.4470000000000027,-0.5300000000002001],[0.7299999999999613,0.2699999999999818]],"o":[[0.09500000000002728,0.07999999999992724],[0.03500000000002501,0.03999999999996362],[-0.010000000000047748,-0.02999999999974534],[-0.026999999999986812,-0.1799999999998363],[0.03999999999996362,-0.7200000000002547],[0.5139999999999532,-2.2799999999997453],[2.13900000000001,-5.640000000000327],[1.1730000000000018,0.01999999999998181],[1.3389999999999986,1.7200000000002547],[1.1440000000000055,2.5],[-3.092999999999961,1.300000000000182],[-2.4420000000000073,0.8799999999996544],[-1.2729999999999677,0.31999999999970896],[0,0]]}}},{"ty":"st","o":{"a":0,"k":0},"w":{"a":0,"k":0},"c":{"a":0,"k":[0,0,0,0]},"lc":3,"lj":1,"ml":1},{"ty":"fl","o":{"a":0,"k":100},"r":1,"c":{"a":0,"k":[0.4823529411764706,0,0.28627450980392155,1]}},{"ty":"tr","o":{"a":0,"k":100},"a":{"a":0,"k":[0,0]},"s":{"a":0,"k":[100,100]},"p":{"a":0,"k":[507.168,-2920.21]},"r":{"a":0,"k":0}}]},{"ty":"gr","nm":"kuping kiri shape group","it":[{"ty":"sh","ks":{"a":0,"k":{"c":true,"v":[[-474.62,2950.24],[-485.338,2932.81],[-496.446,2956.73]],"i":[[0,0],[5.506000000000029,0.03000000000020009],[-1.728999999999985,-2.1799999999998363]],"o":[[0,0],[-5.505999999999972,-0.02999999999974534],[1.7280000000000086,2.1700000000000728]]}}},{"ty":"st","o":{"a":0,"k":0},"w":{"a":0,"k":0},"c":{"a":0,"k":[0,0,0,0]},"lc":3,"lj":1,"ml":1},{"ty":"fl","o":{"a":0,"k":100},"r":1,"c":{"a":0,"k":[0.8627450980392157,0.3215686274509804,0.09803921568627451,1]}},{"ty":"tr","o":{"a":0,"k":100},"a":{"a":0,"k":[0,0]},"s":{"a":0,"k":[100,100]},"p":{"a":0,"k":[507.168,-2920.21]},"r":{"a":0,"k":0}}]},{"ty":"gr","nm":"kuping kiri shape group","it":[{"ty":"sh","ks":{"a":0,"k":{"c":true,"v":[[-469.018,2950.94],[-474.633,2934.99],[-473.784,2931.16],[-473.25,2925.83],[-477.392,2925.96],[-478.706,2926.34],[-478.72,2922.94],[-480.716,2920.21],[-485.951,2924.06],[-491.018,2929.19],[-502.705,2961.4],[-483.873,2960.96],[-474.049,2955.63]],"i":[[-0.5580000000000496,1.4899999999997817],[3.5249999999999773,6.3400000000001455],[-0.6820000000000164,1.800000000000182],[0.9580000000000268,1.7400000000002365],[1.406000000000006,-0.2800000000002001],[0.33600000000001273,-0.07000000000016371],[0.05900000000002592,1.0099999999997635],[1.867999999999995,0.09000000000014552],[2.1020000000000323,-1.9299999999998363],[1.0149999999999864,-1.0700000000001637],[-4.463000000000022,-7.5300000000002],[-7.295999999999992,3.0700000000001637],[-2.671000000000049,1.7799999999997453]],"o":[[0.5399999999999636,-2.6700000000000728],[-0.22400000000004638,0.010000000000218279],[0.5389999999999873,-1.949999999999818],[-1.697999999999979,-1.199999999999818],[-0.4970000000000141,0.15999999999985448],[-0.0020000000000095497,-1.1900000000000546],[-0.11099999999999,-1.0199999999999818],[-1.5559999999999832,0.2899999999999636],[-1.9979999999999905,1.9099999999998545],[-7.234000000000037,7.829999999999927],[3.5919999999999845,4.869999999999891],[3.6549999999999727,-1.599999999999909],[2.686999999999955,-1.849999999999909]]}}},{"ty":"sh","ks":{"a":0,"k":{"c":true,"v":[[-474.831,2927.19],[-474.928,2928],[-475.681,2930.52],[-476.372,2935.98],[-470.945,2950.4],[-475.158,2953.97],[-484.674,2959.13],[-501.034,2960.3],[-489.568,2930.57],[-484.568,2925.5],[-481.863,2923.08],[-480.88,2922.37],[-480.71,2922.27]],"i":[[0,0],[0.07299999999997908,-0.3400000000001455],[0.311999999999955,-0.9299999999998363],[-0.7579999999999814,-1.75],[0.46699999999998454,-0.9400000000000546],[2.5470000000000255,-1.6399999999998727],[3.5360000000000014,-1.550000000000182],[1.7350000000000136,3.2399999999997817],[-7.013000000000034,7.149999999999636],[-1.9540000000000077,1.8699999999998909],[-0.7740000000000009,0.6199999999998909],[-0.25499999999999545,0.16000000000030923],[-0.05000000000001137,0.03000000000020009]],"o":[[0.007000000000005002,0.1799999999998363],[-0.1430000000000291,0.6900000000000546],[-0.5670000000000073,1.9299999999998363],[3.444000000000017,5.9099999999998545],[0.09800000000001319,0.17000000000007276],[-2.562000000000012,1.7000000000002728],[-7.085000000000036,3.2100000000000364],[-3.834000000000003,-5.0900000000001455],[1.0079999999999814,-1.0599999999999454],[0.9749999999999659,-0.9299999999998363],[0.3860000000000241,-0.30999999999994543],[0.06299999999998818,-0.03999999999996362],[0,0]]}}},{"ty":"sh","ks":{"a":0,"k":{"c":true,"v":[[-480.827,2922.34],[-480.716,2923.06],[-480.649,2927.04],[-478.725,2928.37],[-476.768,2927.86],[-474.991,2927.32],[-474.773,2927.27]],"i":[[0,0],[-0.009000000000014552,-0.4499999999998181],[-0.07999999999998408,-1.4899999999997817],[-0.44199999999995043,0.13000000000010914],[-0.66700000000003,0.2199999999997999],[-0.4619999999999891,0.09999999999990905],[-0.06299999999998818,0.010000000000218279]],"o":[[0.03899999999998727,0.009999999999763531],[0.06400000000002137,1.0100000000002183],[0.04899999999997817,1.2800000000002],[0.6360000000000241,-0.07999999999992724],[0.6579999999999586,-0.22000000000025466],[0.08199999999999363,-0.03000000000020009],[0,0]]}}},{"ty":"st","o":{"a":0,"k":0},"w":{"a":0,"k":0},"c":{"a":0,"k":[0,0,0,0]},"lc":3,"lj":1,"ml":1},{"ty":"fl","o":{"a":0,"k":100},"r":1,"c":{"a":0,"k":[0.4823529411764706,0,0.28627450980392155,1]}},{"ty":"tr","o":{"a":0,"k":100},"a":{"a":0,"k":[0,0]},"s":{"a":0,"k":[100,100]},"p":{"a":0,"k":[507.168,-2920.21]},"r":{"a":0,"k":0}}]},{"ty":"gr","nm":"kuping kiri shape group","it":[{"ty":"sh","ks":{"a":0,"k":{"c":true,"v":[[-469.981,2950.67],[-475.502,2935.48],[-474.04,2926.44],[-479.65,2926.98],[-480.65,2921.2],[-490.293,2929.88],[-501.87,2960.85]],"i":[[-0.9209999999999923,3.3099999999999454],[3.4840000000000373,6.130000000000109],[1.0850000000000364,1.400000000000091],[0.07899999999995089,1.4400000000000546],[1.308999999999969,-0.07999999999992724],[2.0230000000000246,-2.130000000000109],[-4.147999999999968,-6.309999999999945]],"o":[[0.5029999999999859,-1.8099999999999454],[-0.9830000000000041,-1.7300000000000182],[-0.7059999999999604,-0.9099999999998545],[-0.1570000000000391,-2.8299999999999272],[-1.4590000000000032,0.1000000000003638],[-7.123999999999967,7.489999999999782],[5.326999999999998,8.099999999999909]]}}},{"ty":"st","o":{"a":0,"k":0},"w":{"a":0,"k":0},"c":{"a":0,"k":[0,0,0,0]},"lc":3,"lj":1,"ml":1},{"ty":"fl","o":{"a":0,"k":100},"r":1,"c":{"a":0,"k":[1,0.5764705882352941,0.11372549019607843,1]}},{"ty":"tr","o":{"a":0,"k":100},"a":{"a":0,"k":[0,0]},"s":{"a":0,"k":[100,100]},"p":{"a":0,"k":[507.168,-2920.21]},"r":{"a":0,"k":0}}]}],"op":77},{"ty":4,"nm":"Group","ip":0,"st":0,"ind":7,"hix":13,"ks":{"o":{"a":0,"k":100},"or":{"a":0,"k":[0,0,0]},"a":{"a":0,"k":[15.797500610351562,35.9599609375,0]},"p":{"s":true,"x":{"a":1,"k":[{"t":0,"s":[109.51309797499326],"e":[128.66615295410156],"i":{"x":[0.515],"y":[0.955]},"o":{"x":[0.455],"y":[0.03]}},{"t":60,"s":[128.66615295410156],"e":[128.666],"i":{"x":[0.515],"y":[0.955]},"o":{"x":[0.455],"y":[0.03]}},{"t":77}]},"y":{"a":1,"k":[{"t":0,"s":[184.50943936559503],"e":[179.35324096679688],"i":{"x":[0.515],"y":[0.955]},"o":{"x":[0.455],"y":[0.03]}},{"t":60}]}},"rx":{"a":0,"k":0},"ry":{"a":0,"k":0},"rz":{"a":0,"k":0},"s":{"a":0,"k":[100,100,100]}},"shapes":[{"ty":"gr","nm":"Group shape group","it":[{"ty":"sh","ks":{"a":0,"k":{"c":true,"v":[[-433.173,3022.97],[-435.592,3026.64],[-439.381,3032.89],[-446.799,3057.67],[-454.437,3063.72],[-456.271,3063.35],[-455.292,3057.86],[-455.225,3057.42],[-459.266,3015.39],[-461.213,3015.84],[-457.219,3057.56],[-457.152,3057.13],[-458.107,3064.14],[-453.94,3065.66],[-445.074,3058.68],[-437.41,3033.23],[-433.932,3027.76],[-430.162,3021.46],[-431.199,3019.95],[-432.424,3020.22],[-434.651,3021.58],[-436.069,3022.49],[-436.781,2999.54],[-438.742,2999.94],[-438.103,3023.4],[-437.047,3024.87],[-435.801,3024.61],[-433.548,3023.25],[-433.208,3023.03]],"i":[[0,0],[0.8700000000000045,-1.2699999999999818],[0.30999999999994543,-1.2100000000000364],[2.5299999999999727,-4.300000000000182],[2.401999999999987,-0.569999999999709],[0.22200000000003683,0.45000000000027285],[-1.2360000000000468,3.069999999999709],[0.012000000000000455,0.15999999999985448],[2.0470000000000255,8.740000000000236],[-0.35599999999999454,-1.2400000000002365],[-1.0810000000000173,-14.960000000000036],[-0.023000000000024556,0.13999999999987267],[-0.6419999999999959,-1.6099999999996726],[-1.5079999999999814,0.44000000000005457],[-1.849999999999966,3.080000000000382],[-1.9009999999999536,11.050000000000182],[-1.738999999999976,2.5299999999997453],[-0.29400000000003956,1.2599999999997635],[0.7820000000000391,-0.01999999999998181],[0.35899999999998045,-0.1499999999996362],[0.7769999999999868,-0.5099999999997635],[0.4130000000000109,-0.25],[1.393000000000029,6.900000000000091],[-0.3159999999999741,-1.2600000000002183],[0.7980000000000018,-8.210000000000036],[-0.7319999999999709,0.010000000000218279],[-0.36599999999998545,0.15000000000009095],[-0.7799999999999727,0.5199999999999818],[-0.11299999999999955,0.06999999999970896]],"o":[[-0.6589999999999918,1.0400000000004184],[-1.7830000000000155,2.700000000000273],[-1.8550000000000182,10.870000000000346],[-1.4350000000000023,2.519999999999982],[-1.2789999999999964,0.2800000000002001],[-0.30299999999999727,-0.5899999999996908],[0.055999999999983174,-0.14000000000032742],[-1.086999999999989,-14.970000000000255],[-0.23799999999999955,-1.2799999999997453],[1.975999999999999,8.36999999999989],[0.02199999999999136,-0.13999999999987267],[-1.266999999999996,3.269999999999982],[0.7240000000000464,1.7400000000002365],[3.1720000000000255,-0.8599999999996726],[2.758000000000038,-4.730000000000018],[-0.09499999999997044,-0.0500000000001819],[1.7830000000000155,-2.7100000000000364],[0.18799999999998818,-0.3400000000001455],[-0.5849999999999795,-0.03999999999996362],[-0.6760000000000446,0.330000000000382],[-0.5009999999999764,0.3400000000001455],[0.7599999999999909,-8.009999999999764],[-0.19799999999997908,-1.2799999999997453],[1.4050000000000296,6.929999999999836],[-0.16499999999996362,0.38000000000010914],[0.5790000000000077,0.0500000000001819],[0.6929999999999836,-0.3200000000001637],[0.1139999999999759,-0.07000000000016371],[0,0]]}}},{"ty":"st","o":{"a":0,"k":0},"w":{"a":0,"k":0},"c":{"a":0,"k":[0,0,0,0]},"lc":3,"lj":1,"ml":1},{"ty":"fl","o":{"a":0,"k":100},"r":1,"c":{"a":0,"k":[0.4823529411764706,0,0.28627450980392155,1]}},{"ty":"tr","o":{"a":0,"k":100},"a":{"a":0,"k":[0,0]},"s":{"a":0,"k":[100,100]},"p":{"a":0,"k":[461.569,-2998.26]},"r":{"a":0,"k":0}}]},{"ty":"gr","nm":"Group shape group","it":[{"ty":"sh","ks":{"a":0,"k":{"c":false,"v":[[-460.24,3015.61],[-456.222,3057.49],[-445.936,3058.17],[-438.396,3033.06],[-431.152,3021.32],[-437.108,3023.49],[-437.761,2999.74]],"i":[[0,0],[-1.0840000000000032,-14.9699999999998],[-3.285000000000025,5.610000000000127],[-1.8770000000000095,10.960000000000036],[-0.18299999999999272,1.2799999999997453],[-0.18700000000001182,1.930000000000291],[1.4320000000000164,7.070000000000164]],"o":[[2.0120000000000005,8.559999999999945],[-5.006000000000029,12.690000000000055],[2.6429999999999723,-4.510000000000218],[0.21600000000000819,-1.2599999999997635],[0.26900000000000546,-1.900000000000091],[0.8029999999999973,-8.269999999999982],[0,0]]}}},{"ty":"st","o":{"a":0,"k":0},"w":{"a":0,"k":0},"c":{"a":0,"k":[0,0,0,0]},"lc":3,"lj":1,"ml":1},{"ty":"fl","o":{"a":0,"k":100},"r":1,"c":{"a":0,"k":[1,1,1,1]}},{"ty":"tr","o":{"a":0,"k":100},"a":{"a":0,"k":[0,0]},"s":{"a":0,"k":[100,100]},"p":{"a":0,"k":[461.569,-2998.26]},"r":{"a":0,"k":0}}]}],"op":77},{"ty":4,"nm":"kaki kanan","ip":0,"st":0,"ind":6,"hix":14,"ks":{"o":{"a":0,"k":100},"or":{"a":0,"k":[0,0,0]},"a":{"a":0,"k":[52.06950378417969,71.52001953125,0]},"p":{"s":true,"x":{"a":1,"k":[{"t":0,"s":[139.03109797499326],"e":[135.73826431676443],"i":{"x":[0.515],"y":[0.955]},"o":{"x":[0.455],"y":[0.03]}},{"t":60,"s":[135.73826431676443],"e":[135.738],"i":{"x":[0.515],"y":[0.955]},"o":{"x":[0.455],"y":[0.03]}},{"t":77}]},"y":{"a":1,"k":[{"t":0,"s":[143.45943936559502],"e":[136.65997314453125],"i":{"x":[0.515],"y":[0.955]},"o":{"x":[0.455],"y":[0.03]}},{"t":60}]}},"rx":{"a":0,"k":0},"ry":{"a":0,"k":0},"rz":{"a":1,"k":[{"t":0,"s":[0],"e":[26.35605857601787],"i":{"x":[0.515],"y":[0.955]},"o":{"x":[0.455],"y":[0.03]}},{"t":60}]},"s":{"a":0,"k":[100,100,100]}},"shapes":[{"ty":"gr","nm":"kaki kanan shape group","it":[{"ty":"sh","ks":{"a":0,"k":{"c":true,"v":[[-425.108,2938.78],[-419.402,2928.91],[-420.109,2941.6],[-411.871,2931.28],[-405.297,2925],[-414.159,2932.16],[-416.736,2932.9],[-419.235,2927.91]],"i":[[0.45699999999999363,-0.25],[-0.45699999999999363,0.21000000000003638],[3.350999999999999,-6.25],[-4.867999999999995,4.709999999999582],[0,0],[2.0389999999999873,-2.4099999999998545],[0,0],[1.622000000000014,-1.2399999999997817]],"o":[[-0.45799999999997,0.25],[0.45799999999997,-0.1999999999998181],[-2.3840000000000146,4.450000000000273],[4.867999999999995,-4.700000000000273],[0,0],[-2.0389999999999873,2.4100000000003092],[0,0],[-1.6229999999999905,1.25]]}}},{"ty":"st","o":{"a":0,"k":0},"w":{"a":0,"k":0},"c":{"a":0,"k":[0,0,0,0]},"lc":3,"lj":1,"ml":1},{"ty":"fl","o":{"a":0,"k":100},"r":1,"c":{"a":0,"k":[0.4823529411764706,0,0.2901960784313726,1]}},{"ty":"tr","o":{"a":0,"k":100},"a":{"a":0,"k":[0,0]},"s":{"a":0,"k":[100,100]},"p":{"a":0,"k":[468.323,-2921.65]},"r":{"a":0,"k":0}}]},{"ty":"gr","nm":"kaki kanan shape group","it":[{"ty":"sh","ks":{"a":0,"k":{"c":true,"v":[[-375.519,3004.7],[-369.834,2976.77],[-372.228,2974.31],[-373.462,2968.79],[-371.938,2961.61],[-376.727,2956.17],[-387.973,2934.76],[-406.111,2927.73],[-416.632,2936.58],[-415.471,2960.81]],"i":[[0,0],[-3.0469999999999686,5.440000000000055],[6.675000000000011,-4.940000000000055],[-5.441000000000031,7.550000000000182],[7.399999999999977,-5.5900000000001455],[1.0159999999999627,9.429999999999836],[7.209000000000003,0.7999999999997272],[-2.3220000000000027,5.800000000000182],[3.9909999999999854,-5.230000000000018],[0,0]],"o":[[0,0],[3.0470000000000255,-5.440000000000055],[-6.675000000000011,4.929999999999836],[5.442000000000007,-7.539999999999964],[-7.4010000000000105,5.579999999999927],[-1.0160000000000196,-9.440000000000055],[-22.36500000000001,-2.4700000000002547],[2.3209999999999695,-5.809999999999945],[-3.990000000000009,5.220000000000255],[0,0]]}}},{"ty":"st","o":{"a":0,"k":0},"w":{"a":0,"k":0},"c":{"a":0,"k":[0,0,0,0]},"lc":3,"lj":1,"ml":1},{"ty":"fl","o":{"a":0,"k":100},"r":1,"c":{"a":0,"k":[1,1,1,1]}},{"ty":"tr","o":{"a":0,"k":100},"a":{"a":0,"k":[0,0]},"s":{"a":0,"k":[100,100]},"p":{"a":0,"k":[468.323,-2921.65]},"r":{"a":0,"k":0}}]},{"ty":"gr","nm":"kaki kanan shape group","it":[{"ty":"sh","ks":{"a":1,"k":[{"t":0,"s":[{"c":true,"v":[[-374.055,3004.6],[-419.271,2928.95],[-420.105,2930.21],[-422.307,2934.06],[-424.552,2937.98],[-426.576,2940.34],[-466.148,2957.1],[-467.183,2955.38],[-427.266,2938.47],[-427.35,2938.49],[-427.091,2938.19],[-426.257,2936.93],[-424.054,2933.08],[-421.81,2929.16],[-419.789,2926.8],[-417.434,2928.17],[-417.057,2930.75],[-416.763,2932.92],[-416.878,2933.07],[-411.288,2927.7],[-404.698,2921.89],[-403.056,2922.74],[-402.931,2924.15],[-403.587,2927.35],[-404.202,2930.29],[-404.208,2930.46],[-380.3,2936.3],[-374.236,2960.31],[-373.95,2960.19],[-370.693,2958.4],[-367.253,2956.53],[-365.789,2956.11],[-364.291,2957.38],[-369.054,2965.48],[-373.269,2971.83],[-370.892,2970.91],[-368.023,2969.85],[-365.557,2971.27],[-369.577,2979.06],[-373.322,2985.83]],"i":[[0.4440000000000168,-6.289999999999964],[0,0],[0.3210000000000264,-0.5199999999999818],[0.7800000000000296,-1.400000000000091],[0.6800000000000068,-1.1100000000001273],[0.9620000000000459,-0.5100000000002183],[16.866000000000042,-10.199999999999818],[-1.1399999999999864,0.6199999999998909],[-12.281000000000006,4.519999999999982],[0.04800000000000182,-0.04999999999972715],[-0.11000000000001364,0.13999999999987267],[-0.32099999999996953,0.5199999999999818],[-0.7800000000000296,1.400000000000091],[-0.6800000000000068,1.1100000000001273],[-0.9610000000000127,0.5099999999997635],[-0.06399999999996453,-0.6900000000000546],[-0.07599999999996498,-0.8899999999998727],[-0.14400000000000546,-0.44000000000005457],[0.12000000000000455,-0.14000000000032742],[-2.365000000000009,2.519999999999982],[-1.7000000000000455,0.5399999999999636],[-0.10099999999999909,-0.5599999999999454],[0.03699999999997772,-0.47000000000025466],[0.2769999999999868,-1.1300000000001091],[0.06799999999998363,-0.7100000000000364],[-0.008999999999957708,-0.010000000000218279],[-6.781000000000006,-5.350000000000364],[-1.0860000000000127,-12.36999999999989],[-0.10099999999999909,0.03999999999996362],[-1.2110000000000127,0.6999999999998181],[-1.002999999999986,0.4399999999995998],[-0.5190000000000055,0.02999999999974534],[0.1069999999999709,-0.8000000000001819],[2.328999999999951,-3.4200000000000728],[0.6680000000000064,-1.1900000000000546],[-0.8860000000000241,0.38000000000010914],[-0.8819999999999482,0.21000000000003638],[-0.01599999999996271,-1.6399999999998727],[1.9449999999999932,-3.150000000000091],[-0.1290000000000191,-0.4499999999998181]],"o":[[0,0],[-0.2230000000000132,0.3000000000001819],[-0.6449999999999818,1.050000000000182],[-0.7810000000000059,1.400000000000091],[-0.7579999999999814,1.1300000000001091],[-12.488999999999976,4.589999999999691],[-1.0769999999999982,0.7200000000002547],[17.07499999999999,-10.329999999999927],[-0.16399999999998727,0.07000000000016371],[0.05400000000003047,-0.04999999999972715],[0.2230000000000132,-0.3000000000001819],[0.6449999999999818,-1.0499999999997272],[0.7799999999999727,-1.400000000000091],[0.757000000000005,-1.1299999999996544],[1.169999999999959,-0.580000000000382],[0.24300000000005184,0.7899999999999636],[0.06700000000000728,0.8699999999998909],[0.002999999999985903,0.009999999999763531],[0.5389999999999873,-0.20000000000027285],[2.6539999999999964,-2.699999999999818],[0.5480000000000018,-0.23999999999978172],[0.18999999999999773,0.5200000000004366],[-0.09300000000001774,0.9400000000000546],[-0.27800000000002,1.1199999999998909],[-0.009999999999990905,0.07999999999992724],[8.75200000000001,-0.8800000000001091],[3.240000000000009,2.799999999999727],[0.08899999999999864,-0.03999999999996362],[0.839999999999975,-0.38999999999987267],[1.2169999999999845,-0.7100000000000364],[0.5120000000000005,-0.22000000000025466],[0.4259999999999877,-0.18000000000029104],[-0.13999999999998636,1.8299999999999272],[-1.7630000000000337,2.4299999999998363],[0.6100000000000136,-0.17000000000007276],[0.9909999999999854,-0.42000000000007276],[0.6090000000000373,-0.23999999999978172],[-0.125,1.8600000000001273],[-1.9379999999999882,2.980000000000018],[-0.05700000000001637,6.139999999999873]]}],"e":[{"c":true,"v":[[-374.055,3004.6],[-419.271,2928.95],[-420.105,2930.21],[-422.307,2934.06],[-424.552,2937.98],[-426.576,2940.34],[-450.1663481765059,2973.842726359816],[-450.6987549624665,2975.076420596252],[-427.266,2938.47],[-427.35,2938.49],[-427.091,2938.19],[-426.257,2936.93],[-424.054,2933.08],[-421.81,2929.16],[-419.789,2926.8],[-417.434,2928.17],[-417.057,2930.75],[-416.763,2932.92],[-416.878,2933.07],[-411.288,2927.7],[-404.698,2921.89],[-403.056,2922.74],[-402.931,2924.15],[-403.587,2927.35],[-404.202,2930.29],[-404.208,2930.46],[-380.3,2936.3],[-374.236,2960.31],[-373.95,2960.19],[-370.693,2958.4],[-367.253,2956.53],[-365.789,2956.11],[-364.291,2957.38],[-369.054,2965.48],[-373.269,2971.83],[-370.892,2970.91],[-368.023,2969.85],[-365.557,2971.27],[-369.577,2979.06],[-373.322,2985.83]],"i":[[0.4440000000000168,-6.289999999999964],[0,0],[0.3210000000000264,-0.5199999999999818],[0.7800000000000296,-1.400000000000091],[0.6800000000000068,-1.1100000000001273],[0.9620000000000459,-0.5100000000002183],[16.866000000000042,-10.199999999999818],[-1.1399999999999864,0.6199999999998909],[-12.281000000000006,4.519999999999982],[0.04800000000000182,-0.04999999999972715],[-0.11000000000001364,0.13999999999987267],[-0.32099999999996953,0.5199999999999818],[-0.7800000000000296,1.400000000000091],[-0.6800000000000068,1.1100000000001273],[-0.9610000000000127,0.5099999999997635],[-0.06399999999996453,-0.6900000000000546],[-0.07599999999996498,-0.8899999999998727],[-0.14400000000000546,-0.44000000000005457],[0.12000000000000455,-0.14000000000032742],[-2.365000000000009,2.519999999999982],[-1.7000000000000455,0.5399999999999636],[-0.10099999999999909,-0.5599999999999454],[0.03699999999997772,-0.47000000000025466],[0.2769999999999868,-1.1300000000001091],[0.06799999999998363,-0.7100000000000364],[-0.008999999999957708,-0.010000000000218279],[-6.781000000000006,-5.350000000000364],[-1.0860000000000127,-12.36999999999989],[-0.10099999999999909,0.03999999999996362],[-1.2110000000000127,0.6999999999998181],[-1.002999999999986,0.4399999999995998],[-0.5190000000000055,0.02999999999974534],[0.1069999999999709,-0.8000000000001819],[2.328999999999951,-3.4200000000000728],[0.6680000000000064,-1.1900000000000546],[-0.8860000000000241,0.38000000000010914],[-0.8819999999999482,0.21000000000003638],[-0.01599999999996271,-1.6399999999998727],[1.9449999999999932,-3.150000000000091],[-0.1290000000000191,-0.4499999999998181]],"o":[[0,0],[-0.2230000000000132,0.3000000000001819],[-0.6449999999999818,1.050000000000182],[-0.7810000000000059,1.400000000000091],[-0.7579999999999814,1.1300000000001091],[-12.488999999999976,4.589999999999691],[-1.0769999999999982,0.7200000000002547],[17.07499999999999,-10.329999999999927],[-0.16399999999998727,0.07000000000016371],[0.05400000000003047,-0.04999999999972715],[0.2230000000000132,-0.3000000000001819],[0.6449999999999818,-1.0499999999997272],[0.7799999999999727,-1.400000000000091],[0.757000000000005,-1.1299999999996544],[1.169999999999959,-0.580000000000382],[0.24300000000005184,0.7899999999999636],[0.06700000000000728,0.8699999999998909],[0.002999999999985903,0.009999999999763531],[0.5389999999999873,-0.20000000000027285],[2.6539999999999964,-2.699999999999818],[0.5480000000000018,-0.23999999999978172],[0.18999999999999773,0.5200000000004366],[-0.09300000000001774,0.9400000000000546],[-0.27800000000002,1.1199999999998909],[-0.009999999999990905,0.07999999999992724],[8.75200000000001,-0.8800000000001091],[3.240000000000009,2.799999999999727],[0.08899999999999864,-0.03999999999996362],[0.839999999999975,-0.38999999999987267],[1.2169999999999845,-0.7100000000000364],[0.5120000000000005,-0.22000000000025466],[0.4259999999999877,-0.18000000000029104],[-0.13999999999998636,1.8299999999999272],[-1.7630000000000337,2.4299999999998363],[0.6100000000000136,-0.17000000000007276],[0.9909999999999854,-0.42000000000007276],[0.6090000000000373,-0.23999999999978172],[-0.125,1.8600000000001273],[-1.9379999999999882,2.980000000000018],[-0.05700000000001637,6.139999999999873]]}],"i":{"x":[0.515],"y":[0.955]},"o":{"x":[0.455],"y":[0.03]}},{"t":60}]}},{"ty":"st","o":{"a":0,"k":0},"w":{"a":0,"k":0},"c":{"a":0,"k":[0,0,0,0]},"lc":3,"lj":1,"ml":1},{"ty":"fl","o":{"a":0,"k":100},"r":1,"c":{"a":0,"k":[0.4823529411764706,0,0.28627450980392155,1]}},{"ty":"tr","o":{"a":0,"k":100},"a":{"a":0,"k":[0,0]},"s":{"a":0,"k":[100,100]},"p":{"a":0,"k":[468.323,-2921.65]},"r":{"a":0,"k":0}}]},{"ty":"gr","nm":"kaki kanan shape group","it":[{"ty":"sh","ks":{"a":0,"k":{"c":true,"v":[[-367.203,2971.78],[-370.686,2977.92],[-374.741,2985.73],[-375.496,3005.15],[-374.334,3006.64],[-372.916,3006.45],[-369.863,3005.07],[-367.73,3004.05],[-371.742,3009.72],[-376.608,3017.49],[-381.611,3050.45],[-394.359,3060.04],[-394.346,3058.13],[-390.695,3052.57],[-390.519,3051.85],[-403.533,2992.56],[-405.162,2993.72],[-392.563,3051.67],[-396.15,3057.27],[-394.948,3061.95],[-379.76,3051.21],[-374.608,3017.5],[-370.145,3010.92],[-365.156,3003.21],[-366.309,3001.7],[-367.715,3001.9],[-370.754,3003.28],[-373.544,3004.55]],"i":[[0,0],[1.6989999999999554,-2.6100000000001273],[0.15100000000001046,-1.849999999999909],[0.4479999999999791,-6.4900000000002365],[-0.5960000000000036,0.0500000000001819],[-0.46699999999998454,0.14000000000032742],[-1.0699999999999932,0.5299999999997453],[-0.6159999999999854,0.2699999999999818],[1.7870000000000346,-2.319999999999709],[0.21399999999999864,-1.819999999999709],[3.1719999999999686,-7.739999999999782],[5.274000000000001,1.6100000000001273],[-0.6770000000000209,1.7399999999997817],[-1.4630000000000223,2.049999999999727],[0.03500000000002501,0.2600000000002183],[8.987000000000023,12.700000000000273],[-0.8000000000000114,-1.0199999999999818],[-4.483000000000004,-33.059999999999945],[0.8100000000000023,-1.6799999999998363],[-2.319000000000017,-0.6099999999996726],[-3.237000000000023,8.050000000000182],[-0.06999999999999318,13.679999999999836],[-2.326000000000022,2.9899999999997817],[-0.3140000000000214,1.7199999999998],[0.6020000000000323,-0.06999999999970896],[0.46299999999996544,-0.13999999999987267],[1.0690000000000168,-0.5300000000002001],[0.6739999999999782,-0.22000000000025466]],"o":[[-0.09900000000004638,0.6499999999996362],[-1.9449999999999932,3.150000000000091],[-0.060000000000002274,6.360000000000127],[-0.18200000000001637,0.5599999999999454],[0.5509999999999877,0.07000000000016371],[0.9080000000000155,-0.30999999999994543],[0.7599999999999909,-0.38000000000010914],[-0.38900000000001,0.7899999999999636],[-2.3559999999999945,3.2200000000002547],[-0.06099999999997863,13.510000000000218],[-3.257000000000005,7.820000000000164],[-0.5440000000000396,-0.2699999999999818],[0.7040000000000077,-1.4800000000000182],[0.1490000000000009,-0.21000000000003638],[-4.576000000000022,-33.23000000000002],[-0.700999999999965,-1.0900000000001455],[8.46999999999997,11.840000000000146],[-1.372000000000014,2],[-0.882000000000005,1.5199999999999818],[6.710999999999956,2.0900000000001455],[3.3220000000000027,-8.139999999999873],[-0.20600000000001728,-0.11000000000012733],[2.356999999999971,-3.200000000000273],[0.20499999999998408,-0.5500000000001819],[-0.5499999999999545,-0.06999999999970896],[-0.8990000000000009,0.30999999999994543],[-1.058999999999969,0.5299999999997453],[0,0]]}}},{"ty":"st","o":{"a":0,"k":0},"w":{"a":0,"k":0},"c":{"a":0,"k":[0,0,0,0]},"lc":3,"lj":1,"ml":1},{"ty":"fl","o":{"a":0,"k":100},"r":1,"c":{"a":0,"k":[0.4823529411764706,0,0.28627450980392155,1]}},{"ty":"tr","o":{"a":0,"k":100},"a":{"a":0,"k":[0,0]},"s":{"a":0,"k":[100,100]},"p":{"a":0,"k":[468.323,-2921.65]},"r":{"a":0,"k":0}}]},{"ty":"gr","nm":"kaki kanan shape group","it":[{"ty":"sh","ks":{"a":1,"k":[{"t":0,"s":[{"c":false,"v":[[-404.348,2993.14],[-426.341,2939.33],[-418.863,2927.66],[-416.076,2933.97],[-403.907,2922.79],[-404.08,2931.44],[-380.34,2937.01],[-374.54,2961.11],[-364.709,2957.36],[-373.9,2972.38],[-365.977,2971.21],[-373.741,2985.74],[-374.499,3005.21],[-366.152,3003.12],[-375.608,3017.5],[-394.654,3061],[-391.51,3051.99]],"i":[[8.749000000000024,12.289999999999964],[-12.384999999999991,4.559999999999945],[-1.233000000000004,0.4600000000000364],[-2.22199999999998,0.650000000000091],[-1.9390000000000214,0.42000000000007276],[-2.0270000000000437,0.2300000000000182],[-6.659000000000049,-5.25],[-1.0389999999999873,-12.63000000000011],[-0.11000000000001364,-1.9700000000002547],[-0.06499999999999773,-1.8900000000003274],[-0.027000000000043656,-2.2200000000002547],[0.020999999999958163,-2.299999999999727],[0.4500000000000455,-6.510000000000218],[0.19399999999995998,-2.130000000000109],[0.009000000000014552,-1.9400000000000546],[11.98599999999999,3.6900000000000546],[-2.9150000000000205,4.100000000000364]],"o":[[-44.76599999999996,-47.23999999999978],[1.2370000000000232,-0.4499999999998181],[2.211999999999989,-0.8099999999999454],[1.9540000000000077,-0.5799999999999272],[2.069999999999993,-0.4499999999998181],[8.803999999999974,-0.9800000000000182],[2.762999999999977,2.1799999999998363],[0.15100000000001046,1.8399999999996908],[0.10000000000002274,1.7999999999997272],[0.07299999999997908,2.130000000000109],[0.026999999999986812,2.2399999999997817],[-0.060000000000002274,6.380000000000109],[-0.1490000000000009,2.1599999999998545],[-0.17900000000003047,1.9600000000000364],[-0.1309999999999718,27.179999999999836],[-2.862000000000023,-0.8899999999998727],[-4.562000000000012,-33.31999999999971]]}],"e":[{"c":false,"v":[[-404.348,2993.14],[-426.341,2939.33],[-418.863,2927.66],[-416.076,2933.97],[-403.907,2922.79],[-404.08,2931.44],[-380.34,2937.01],[-374.54,2961.11],[-364.709,2957.36],[-373.9,2972.38],[-365.977,2971.21],[-373.741,2985.74],[-374.499,3005.21],[-366.152,3003.12],[-375.608,3017.5],[-394.654,3061],[-391.51,3051.99]],"i":[[8.749000000000024,12.289999999999964],[-12.384999999999991,4.559999999999945],[-1.233000000000004,0.4600000000000364],[-2.22199999999998,0.650000000000091],[-1.9390000000000214,0.42000000000007276],[-2.0270000000000437,0.2300000000000182],[-6.659000000000049,-5.25],[-1.0389999999999873,-12.63000000000011],[-0.11000000000001364,-1.9700000000002547],[-0.06499999999999773,-1.8900000000003274],[-0.027000000000043656,-2.2200000000002547],[0.020999999999958163,-2.299999999999727],[0.4500000000000455,-6.510000000000218],[0.19399999999995998,-2.130000000000109],[0.009000000000014552,-1.9400000000000546],[11.98599999999999,3.6900000000000546],[-2.9150000000000205,4.100000000000364]],"o":[[-25.60440862312214,-48.60359445582344],[1.2370000000000232,-0.4499999999998181],[2.211999999999989,-0.8099999999999454],[1.9540000000000077,-0.5799999999999272],[2.069999999999993,-0.4499999999998181],[8.803999999999974,-0.9800000000000182],[2.762999999999977,2.1799999999998363],[0.15100000000001046,1.8399999999996908],[0.10000000000002274,1.7999999999997272],[0.07299999999997908,2.130000000000109],[0.026999999999986812,2.2399999999997817],[-0.060000000000002274,6.380000000000109],[-0.1490000000000009,2.1599999999998545],[-0.17900000000003047,1.9600000000000364],[-0.1309999999999718,27.179999999999836],[-2.862000000000023,-0.8899999999998727],[-4.562000000000012,-33.31999999999971]]}],"i":{"x":[0.515],"y":[0.955]},"o":{"x":[0.455],"y":[0.03]}},{"t":60}]}},{"ty":"st","o":{"a":0,"k":0},"w":{"a":0,"k":0},"c":{"a":0,"k":[0,0,0,0]},"lc":3,"lj":1,"ml":1},{"ty":"fl","o":{"a":0,"k":100},"r":1,"c":{"a":0,"k":[1,1,1,1]}},{"ty":"tr","o":{"a":0,"k":100},"a":{"a":0,"k":[0,0]},"s":{"a":0,"k":[100,100]},"p":{"a":0,"k":[468.323,-2921.65]},"r":{"a":0,"k":0}}]}],"op":77},{"ty":4,"nm":"body","ip":0,"st":0,"ind":5,"hix":15,"ks":{"o":{"a":0,"k":100},"or":{"a":0,"k":[0,0,0]},"a":{"a":0,"k":[55.98150634765625,51.27490234375,0]},"p":{"s":true,"x":{"a":1,"k":[{"t":0,"s":[127.81709797499326],"e":[127.70111083984375],"i":{"x":[0.515],"y":[0.955]},"o":{"x":[0.455],"y":[0.03]}},{"t":60,"s":[127.70111083984375],"e":[127.701],"i":{"x":[0.515],"y":[0.955]},"o":{"x":[0.455],"y":[0.03]}},{"t":77}]},"y":{"a":1,"k":[{"t":0,"s":[132.68443936559498],"e":[131.96438598632812],"i":{"x":[0.515],"y":[0.955]},"o":{"x":[0.455],"y":[0.03]}},{"t":60}]}},"rx":{"a":0,"k":0},"ry":{"a":0,"k":0},"rz":{"a":0,"k":0},"s":{"a":0,"k":[100,100,100]}},"shapes":[{"ty":"gr","nm":"body shape group","it":[{"ty":"sh","ks":{"a":0,"k":{"c":true,"v":[[-389.274,2933.53],[-381.988,2944.66],[-381.656,2962.65],[-386.36,2986.32],[-481.434,3006.48],[-480.851,2973.33],[-482.851,2973.3],[-483.443,3006.99],[-483.001,3007.84],[-384.915,2987.74],[-384.53,2987.2],[-379.667,2962.86],[-380.026,2944.27],[-388.46,2931.7]],"i":[[-1.2069999999999936,-0.47000000000025466],[-0.90300000000002,-4.579999999999927],[0.6380000000000337,-6.019999999999982],[2.194000000000017,-7.760000000000218],[36.686000000000035,24.309999999999945],[-0.19400000000001683,11.039999999999964],[-0.038000000000010914,-1.300000000000182],[0.19700000000000273,-11.229999999999563],[-0.28000000000002956,-0.19000000000005457],[-18.454999999999984,12.950000000000273],[-0.06300000000004502,0.22000000000025466],[-0.8720000000000141,8.25],[1.2300000000000182,6.170000000000073],[5.132000000000005,2.3100000000004]],"o":[[4.185000000000002,1.8399999999996908],[1.1720000000000255,5.870000000000346],[-0.8460000000000036,8],[-18.584000000000003,13.190000000000055],[0.19500000000005002,-11.059999999999945],[0.08300000000002683,-1.2899999999999636],[-0.19700000000000273,11.230000000000018],[-0.006000000000028649,0.3400000000001455],[38.664999999999964,25.829999999999927],[0.18900000000002137,-0.1299999999996544],[2.2649999999999864,-7.949999999999818],[0.6459999999999582,-6.120000000000346],[-0.9780000000000086,-4.860000000000127],[-1.1580000000000155,-0.5799999999999272]]}}},{"ty":"st","o":{"a":0,"k":0},"w":{"a":0,"k":0},"c":{"a":0,"k":[0,0,0,0]},"lc":3,"lj":1,"ml":1},{"ty":"fl","o":{"a":0,"k":100},"r":1,"c":{"a":0,"k":[0.4823529411764706,0,0.28627450980392155,1]}},{"ty":"tr","o":{"a":0,"k":100},"a":{"a":0,"k":[0,0]},"s":{"a":0,"k":[100,100]},"p":{"a":0,"k":[483.449,-2931.12]},"r":{"a":0,"k":0}}]},{"ty":"gr","nm":"body shape group","it":[{"ty":"sh","ks":{"a":0,"k":{"c":false,"v":[[-388.867,2932.61],[-385.491,2986.93],[-482.443,3007.01],[-481.851,2973.31]],"i":[[0,0],[0,0],[37.823999999999955,25.409999999999854],[0,0]],"o":[[17.38100000000003,7.9699999999998],[-18.514999999999986,13.039999999999964],[0,0],[0,0]]}}},{"ty":"st","o":{"a":0,"k":0},"w":{"a":0,"k":0},"c":{"a":0,"k":[0,0,0,0]},"lc":3,"lj":1,"ml":1},{"ty":"fl","o":{"a":0,"k":100},"r":1,"c":{"a":0,"k":[1,1,1,1]}},{"ty":"tr","o":{"a":0,"k":100},"a":{"a":0,"k":[0,0]},"s":{"a":0,"k":[100,100]},"p":{"a":0,"k":[483.449,-2931.12]},"r":{"a":0,"k":0}}]}],"op":77},{"ty":4,"nm":"kaki kanan","ip":0,"st":0,"ind":4,"hix":16,"ks":{"o":{"a":0,"k":100},"or":{"a":0,"k":[0,0,0]},"a":{"a":0,"k":[30.531997680664062,57.2049560546875,0]},"p":{"s":true,"x":{"a":1,"k":[{"t":0,"s":[149.37609797499323],"e":[143.45863342285156],"i":{"x":[0.515],"y":[0.955]},"o":{"x":[0.455],"y":[0.03]}},{"t":60,"s":[143.45863342285156],"e":[143.459],"i":{"x":[0.515],"y":[0.955]},"o":{"x":[0.455],"y":[0.03]}},{"t":77}]},"y":{"a":1,"k":[{"t":0,"s":[156.25443936559498],"e":[155.1743927001953],"i":{"x":[0.515],"y":[0.955]},"o":{"x":[0.455],"y":[0.03]}},{"t":60}]}},"rx":{"a":0,"k":0},"ry":{"a":0,"k":0},"rz":{"a":0,"k":0},"s":{"a":0,"k":[100,100,100]}},"shapes":[{"ty":"gr","nm":"kaki kanan shape group","it":[{"ty":"sh","ks":{"a":0,"k":{"c":true,"v":[[-433.997,3058.69],[-433.628,3058.15],[-431.623,3055.93],[-428.27,3052.85],[-427.973,3052.4],[-411.447,2966.74],[-413.432,2966.49],[-429.876,3051.78],[-429.579,3051.33],[-433.033,3054.51],[-435.26,3056.99],[-435.809,3059.52],[-435.585,3059.79],[-422.299,3060.19],[-404.619,3035.68],[-398.102,3030.05],[-390.956,3023.65],[-391.856,3021.87],[-393.198,3021.98],[-396.488,3022.99],[-399.112,3023.82],[-382.136,2949.84],[-383.754,2951.01],[-401.399,3024.19],[-400.521,3025.97],[-399.155,3025.89],[-395.853,3024.89],[-394.142,3024.33]],"i":[[0,0],[-0.2270000000000323,0.23999999999978172],[-0.7520000000000095,0.75],[-1.1550000000000296,0.9900000000002365],[-0.05699999999995953,0.17000000000007276],[-3.5779999999999745,28.800000000000182],[0.09899999999998954,-1.2899999999999636],[8.908999999999992,-27.590000000000146],[-0.09899999999998954,0.15000000000009095],[1.1160000000000423,-1.1100000000001273],[0.6809999999999832,-0.9599999999995816],[-0.6309999999999718,-1.4699999999998],[-0.11000000000001364,-0.07999999999992724],[-2.9540000000000077,0.7799999999997453],[-6.59499999999997,14.670000000000073],[-3.1690000000000396,2.4899999999997817],[-0.7939999999999827,1.4299999999998363],[0.6000000000000227,-0.25],[0.4759999999999991,-0.09999999999990905],[1.1829999999999927,-0.38999999999987267],[0.7210000000000036,-0.19000000000005457],[6.760000000000048,9.980000000000018],[-0.8100000000000023,-1.0100000000002183],[12.817999999999984,-28.289999999999964],[-0.6289999999999623,0.18000000000029104],[-0.4800000000000182,0.09000000000014552],[-1.1859999999999786,0.3900000000003274],[-0.5339999999999918,0.15999999999985448]],"o":[[0.04599999999999227,-0.09000000000014552],[0.5389999999999873,-0.7699999999999818],[1.0720000000000027,-1.0599999999999454],[0.1419999999999959,-0.13000000000010914],[8.980000000000018,-27.820000000000164],[0.22000000000002728,-1.2799999999997453],[-3.5739999999999554,28.79000000000042],[0.09899999999998954,-0.15000000000009095],[-1.1779999999999973,1.0199999999999818],[-0.7419999999999618,0.7399999999997817],[-0.132000000000005,0.330000000000382],[0.025000000000034106,0.05999999999994543],[4.170999999999992,3.380000000000109],[4.774000000000001,-1.5100000000002183],[0.014000000000010004,-0.32999999999992724],[3.252999999999986,-2.630000000000109],[0.54200000000003,-0.32999999999992724],[-0.5,-0.06999999999970896],[-0.9210000000000491,0.21000000000003638],[-0.9519999999999982,0.3200000000001637],[12.594000000000051,-28.550000000000182],[-0.7119999999999891,-1.0799999999999272],[6.1270000000000095,7.75],[-0.492999999999995,0.34999999999990905],[0.51400000000001,0.09000000000014552],[0.9289999999999736,-0.21000000000003638],[0.5889999999999986,-0.1999999999998181],[0,0]]}}},{"ty":"sh","ks":{"a":0,"k":{"c":true,"v":[[-394.427,3024.42],[-399.35,3028.49],[-406.446,3034.87],[-422.848,3058.27],[-433.919,3058.57]],"i":[[0,0],[1.900000000000034,-1.4899999999997817],[0.7700000000000387,-1.4400000000000546],[3.3530000000000086,-0.8000000000001819],[2.8290000000000077,2.049999999999727]],"o":[[-1.0600000000000023,0.9699999999997999],[-3.2549999999999955,2.6400000000003274],[-6.366999999999962,14.450000000000273],[-2.8309999999999604,0.8699999999998909],[0,0]]}}},{"ty":"st","o":{"a":0,"k":0},"w":{"a":0,"k":0},"c":{"a":0,"k":[0,0,0,0]},"lc":3,"lj":1,"ml":1},{"ty":"fl","o":{"a":0,"k":100},"r":1,"c":{"a":0,"k":[0.4823529411764706,0,0.28627450980392155,1]}},{"ty":"tr","o":{"a":0,"k":100},"a":{"a":0,"k":[0,0]},"s":{"a":0,"k":[100,100]},"p":{"a":0,"k":[436.44,-2948.76]},"r":{"a":0,"k":0}}]},{"ty":"gr","nm":"kaki kanan shape group","it":[{"ty":"sh","ks":{"a":0,"k":{"c":false,"v":[[-412.797,2967.15],[-429.281,3052.62],[-435.293,3059.57],[-422.93,3059.77],[-405.889,3035.81],[-392.218,3023.76],[-400.843,3025.14],[-383.302,2950.96]],"i":[[0,0],[10.51400000000001,-29.960000000000036],[-1.0600000000000023,-0.900000000000091],[-2.9569999999999936,0.8400000000001455],[-6.4809999999999945,14.559999999999945],[-0.8619999999999663,1.819999999999709],[-0.8139999999999645,1.8200000000001637],[6.491000000000042,8.940000000000055]],"o":[[0,0],[0,0],[3.4359999999999786,2.9299999999998363],[4.062999999999988,-1.1599999999998545],[0.7830000000000155,-1.7599999999997635],[0.8230000000000359,-1.75],[12.77800000000002,-28.519999999999982],[0,0]]}}},{"ty":"st","o":{"a":0,"k":0},"w":{"a":0,"k":0},"c":{"a":0,"k":[0,0,0,0]},"lc":3,"lj":1,"ml":1},{"ty":"fl","o":{"a":0,"k":100},"r":1,"c":{"a":0,"k":[1,1,1,1]}},{"ty":"tr","o":{"a":0,"k":100},"a":{"a":0,"k":[0,0]},"s":{"a":0,"k":[100,100]},"p":{"a":0,"k":[436.44,-2948.76]},"r":{"a":0,"k":0}}]}],"op":77},{"ty":4,"nm":"tangan kiri","ip":0,"st":0,"ind":3,"hix":17,"ks":{"o":{"a":0,"k":100},"or":{"a":0,"k":[0,0,0]},"a":{"a":0,"k":[24.550994873046875,37.2149658203125,0]},"p":{"s":true,"x":{"a":1,"k":[{"t":0,"s":[69.40709797499326],"e":[97.2620849609375],"i":{"x":[0.515],"y":[0.955]},"o":{"x":[0.455],"y":[0.03]}},{"t":60,"s":[97.2620849609375],"e":[97.262],"i":{"x":[0.515],"y":[0.955]},"o":{"x":[0.455],"y":[0.03]}},{"t":77}]},"y":{"a":1,"k":[{"t":0,"s":[175.75443936559498],"e":[177.40447998046875],"i":{"x":[0.515],"y":[0.955]},"o":{"x":[0.455],"y":[0.03]}},{"t":60}]}},"rx":{"a":0,"k":0},"ry":{"a":0,"k":0},"rz":{"a":0,"k":0},"s":{"a":0,"k":[100,100,100]}},"shapes":[{"ty":"gr","nm":"tangan kiri shape group","it":[{"ty":"sh","ks":{"a":0,"k":{"c":true,"v":[[-508.068,3056.78],[-507.95,3056.42],[-506.739,3054.41],[-502.92,3048.81],[-502.866,3048.7],[-495.915,2989.54],[-497.878,2989.92],[-504.704,3047.91],[-504.649,3047.8],[-508.388,3053.27],[-509.789,3055.64],[-509.438,3058.09],[-479.401,3032.83],[-479.379,3032.83],[-479.035,3032.58],[-477.762,3031.82],[-473.98,3029.82],[-467.752,3026],[-468.463,3024.25],[-469.626,3024.12],[-472.51,3024.38],[-474.795,3024.59],[-461.864,2996.88],[-463.721,2996.14],[-477.055,3024.72],[-476.361,3026.46],[-475.182,3026.61],[-472.287,3026.36],[-471.575,3026.29],[-474.898,3028.04],[-481.114,3031.8],[-508.039,3056.65]],"i":[[0,0],[-0.09899999999998954,0.21000000000003638],[-0.563000000000045,0.8099999999999454],[-1.108000000000004,1.900000000000091],[-0.018000000000029104,0.03999999999996362],[2.358000000000004,12.11999999999989],[-0.3079999999999927,-1.2600000000002183],[8.810000000000002,-20.480000000000018],[-0.019000000000005457,0.03999999999996362],[1.1779999999999973,-1.7100000000000364],[0.3120000000000118,-0.7199999999997999],[-0.9909999999999854,-0.8200000000001637],[-11.699000000000012,19.059999999999945],[-0.06999999999999318,0.05999999999994543],[-0.15399999999999636,0.09999999999990905],[-0.5219999999999914,0.2899999999999636],[-1.370999999999981,0.7100000000000364],[-0.8870000000000005,1.1900000000000546],[0.37700000000000955,-0.15999999999985448],[0.41699999999997317,0],[1.0330000000000155,-0.11999999999989086],[0.625,-0.03000000000020009],[-4.100000000000023,10.25],[0.42399999999997817,-1.2300000000000182],[4.548000000000002,-8.329999999999927],[-0.4089999999999918,0.11000000000012733],[-0.4199999999999591,-0.010000000000218279],[-1.0360000000000014,0.11999999999989086],[-0.2340000000000373,0.01999999999998181],[1.1860000000000355,-0.6100000000001273],[0.8829999999999814,-1.1400000000003274],[4.592999999999961,3.3600000000001273]],"o":[[0.002999999999985903,-0.04000000000041837],[0.19799999999997908,-0.47000000000025466],[1.1309999999999718,-1.6599999999998545],[0.023000000000024556,-0.03999999999996362],[9.005999999999972,-21.039999999999964],[-0.18899999999996453,-1.2899999999999636],[2.3000000000000114,11.650000000000091],[0.018000000000029104,-0.03999999999996362],[-1.0059999999999718,1.7399999999997817],[-0.5910000000000082,0.8699999999998909],[-0.2470000000000141,0.6400000000003274],[7.646000000000015,4.589999999999691],[-0.06700000000000728,0.09999999999990905],[0.06999999999999318,-0.05999999999994543],[0.30800000000004957,-0.21000000000003638],[1.0459999999999923,-0.5900000000001455],[2.809000000000026,-1.5100000000002183],[0.5989999999999895,-0.5100000000002183],[-0.41100000000000136,-0.13000000000010914],[-0.813000000000045,0.01999999999998181],[-0.8310000000000173,0.08999999999969077],[4.456999999999994,-8.110000000000127],[0.5369999999999777,-1.180000000000291],[-4.245999999999981,10.610000000000127],[-0.5520000000000209,0.5],[0.4189999999999827,0.13999999999987267],[0.8190000000000168,-0.010000000000218279],[0.2389999999999759,-0.01999999999998181],[-0.9540000000000077,0.5199999999999818],[-2.808999999999969,1.5],[-11.118000000000052,18.799999999999727],[0,0]]}}},{"ty":"st","o":{"a":0,"k":0},"w":{"a":0,"k":0},"c":{"a":0,"k":[0,0,0,0]},"lc":3,"lj":1,"ml":1},{"ty":"fl","o":{"a":0,"k":100},"r":1,"c":{"a":0,"k":[0.4823529411764706,0,0.28627450980392155,1]}},{"ty":"tr","o":{"a":0,"k":100},"a":{"a":0,"k":[0,0]},"s":{"a":0,"k":[100,100]},"p":{"a":0,"k":[510.429,-2988.25]},"r":{"a":0,"k":0}}]},{"ty":"gr","nm":"tangan kiri shape group","it":[{"ty":"sh","ks":{"a":0,"k":{"c":false,"v":[[-496.896,2989.73],[-503.785,3048.3],[-508.863,3057.27],[-480.257,3032.31],[-468.62,3025.5],[-476.177,3025.2],[-462.792,2996.51]],"i":[[0,0],[8.908000000000015,-20.76000000000022],[-1.190999999999974,-0.8299999999999272],[-11.512,19.110000000000127],[-0.6739999999999782,1.1799999999998363],[-0.686999999999955,1.25],[-4.261000000000024,10.649999999999636]],"o":[[2.3290000000000077,11.88000000000011],[-2.113999999999976,3.6399999999998727],[6.036000000000001,4.2400000000002365],[0.6709999999999923,-1.1100000000001273],[0.6870000000000118,-1.199999999999818],[4.569000000000017,-8.36999999999989],[0,0]]}}},{"ty":"st","o":{"a":0,"k":0},"w":{"a":0,"k":0},"c":{"a":0,"k":[0,0,0,0]},"lc":3,"lj":1,"ml":1},{"ty":"fl","o":{"a":0,"k":100},"r":1,"c":{"a":0,"k":[1,1,1,1]}},{"ty":"tr","o":{"a":0,"k":100},"a":{"a":0,"k":[0,0]},"s":{"a":0,"k":[100,100]},"p":{"a":0,"k":[510.429,-2988.25]},"r":{"a":0,"k":0}}]}],"op":77},{"ty":4,"nm":"shadow","ip":0,"st":0,"ind":2,"hix":18,"ks":{"o":{"a":0,"k":100},"or":{"a":0,"k":[0,0,0]},"a":{"a":0,"k":[101.13099670410156,7.9449462890625,0]},"p":{"s":true,"x":{"a":1,"k":[{"t":0,"s":[114.55909797499326],"e":[114.559],"i":{"x":[0.515],"y":[0.955]},"o":{"x":[0.455],"y":[0.03]}},{"t":77}]},"y":{"a":0,"k":212.51443936559497}},"rx":{"a":0,"k":0},"ry":{"a":0,"k":0},"rz":{"a":0,"k":0},"s":{"a":0,"k":[100,100,100]}},"shapes":[{"ty":"gr","nm":"shadow shape group","it":[{"ty":"sh","ks":{"a":0,"k":{"c":true,"v":[[-440.726,3054.28],[-339.595,3062.23],[-440.726,3070.17],[-541.857,3062.23]],"i":[[-55.85300000000001,0],[0,-4.389999999999873],[55.85300000000001,0],[0,4.380000000000109]],"o":[[55.85300000000001,0],[0,4.380000000000109],[-55.85300000000001,0],[0,-4.389999999999873]]}}},{"ty":"st","o":{"a":0,"k":100},"c":{"a":0,"k":[0.4823529411764706,0,0.28627450980392155,1]},"lc":2,"lj":2,"ml":10,"w":{"a":0,"k":0}},{"ty":"fl","o":{"a":0,"k":0},"c":{"a":0,"k":[0,0,0,0]},"r":1},{"ty":"tr","o":{"a":0,"k":100},"a":{"a":0,"k":[0,0]},"s":{"a":0,"k":[100,100]},"p":{"a":0,"k":[541.857,-3054.28]},"r":{"a":0,"k":0}}]},{"ty":"gr","nm":"shadow shape group","it":[{"ty":"sh","ks":{"a":0,"k":{"c":true,"v":[[-440.726,3054.28],[-339.595,3062.23],[-440.726,3070.17],[-541.857,3062.23]],"i":[[-55.85300000000001,0],[0,-4.389999999999873],[55.85300000000001,0],[0,4.380000000000109]],"o":[[55.85300000000001,0],[0,4.380000000000109],[-55.85300000000001,0],[0,-4.389999999999873]]}}},{"ty":"st","o":{"a":0,"k":0},"w":{"a":0,"k":0},"c":{"a":0,"k":[0,0,0,0]},"lc":3,"lj":1,"ml":1},{"ty":"fl","o":{"a":0,"k":100},"r":2,"c":{"a":0,"k":[0.48627450980392156,0.48627450980392156,0.48627450980392156,1]}},{"ty":"tr","o":{"a":0,"k":49.6795},"a":{"a":0,"k":[0,0]},"s":{"a":0,"k":[100,100]},"p":{"a":0,"k":[541.857,-3054.28]},"r":{"a":0,"k":0}}]}],"op":77},{"ty":4,"nm":"ekor","ip":0,"st":0,"ind":1,"hix":19,"ks":{"o":{"a":0,"k":100},"or":{"a":0,"k":[0,0,0]},"a":{"a":0,"k":[23.188003540039062,41.2149658203125,0]},"p":{"s":true,"x":{"a":1,"k":[{"t":0,"s":[184.45809797499328],"e":[160.2895922169431],"i":{"x":[0.515],"y":[0.955]},"o":{"x":[0.455],"y":[0.03]}},{"t":60,"s":[160.2895922169431],"e":[160.29],"i":{"x":[0.515],"y":[0.955]},"o":{"x":[0.455],"y":[0.03]}},{"t":77}]},"y":{"a":1,"k":[{"t":0,"s":[59.464439365595],"e":[55.49831194135058],"i":{"x":[0.515],"y":[0.955]},"o":{"x":[0.455],"y":[0.03]}},{"t":60}]}},"rx":{"a":0,"k":0},"ry":{"a":0,"k":0},"rz":{"a":1,"k":[{"t":0,"s":[0],"e":[-30.939720937064454],"i":{"x":[0.515],"y":[0.955]},"o":{"x":[0.455],"y":[0.03]}},{"t":60}]},"s":{"a":0,"k":[100,100,100]}},"shapes":[{"ty":"gr","nm":"ekor shape group","it":[{"ty":"sh","ks":{"a":0,"k":{"c":true,"v":[[-391.936,2933.89],[-390.39,2921.09],[-382.148,2925.16],[-380.746,2923.98],[-385.192,2908.91],[-376.761,2910.92],[-375.662,2909.45],[-385.54,2892.24],[-379.498,2894.28],[-378.236,2893],[-382.581,2880.87],[-376.235,2883.97],[-374.804,2883.19],[-373.503,2872.46],[-364.68,2888.49],[-363.008,2888.61],[-358.637,2882.86],[-359.34,2900.76],[-357.922,2901.7],[-351.34,2898.66],[-360.147,2914.43],[-359.113,2915.91],[-352.48,2914.82],[-363.561,2925.39],[-362.919,2927.11],[-356.463,2927.42],[-369.871,2937.57],[-369.265,2939.37],[-362.121,2939.36],[-378.396,2948.06]],"i":[[4.512999999999977,4.720000000000255],[-0.5149999999999864,4.269999999999982],[-2.7469999999999573,-1.349999999999909],[0.23799999999999955,0.8099999999999454],[1.4820000000000277,5.019999999999982],[-2.8100000000000023,-0.6700000000000728],[0.42099999999999227,0.7300000000000182],[3.29200000000003,5.730000000000018],[-2.01400000000001,-0.680000000000291],[0.27199999999999136,0.7600000000002183],[1.448000000000036,4.039999999999964],[-2.1159999999999854,-1.0299999999997453],[-0.08000000000004093,0.6599999999998545],[-0.4329999999999927,3.5799999999999272],[-2.940999999999974,-5.349999999999909],[-0.424000000000035,0.5499999999997272],[-1.4569999999999936,1.9200000000000728],[0.23399999999998045,-5.970000000000255],[-0.6549999999999727,0.3000000000001819],[-2.194000000000017,1.0199999999999818],[2.9359999999999786,-5.2599999999997635],[-0.7959999999999923,0.13000000000010914],[-2.210999999999956,0.3599999999996726],[3.6929999999999836,-3.519999999999982],[-0.8480000000000132,-0.03999999999996362],[-2.151999999999987,-0.09999999999990905],[4.46999999999997,-3.380000000000109],[-0.9270000000000209,0],[-2.382000000000005,0],[5.425000000000011,-2.900000000000091]],"o":[[0.5159999999999627,-4.269999999999982],[2.7479999999999905,1.3599999999996726],[0.7550000000000523,0.38000000000010914],[-1.4820000000000277,-5.019999999999982],[2.8100000000000023,0.6700000000000728],[0.8220000000000027,0.19000000000005457],[-3.2930000000000064,-5.739999999999782],[2.01400000000001,0.680000000000291],[0.7649999999999864,0.25999999999976353],[-1.4490000000000123,-4.050000000000182],[2.115000000000009,1.0300000000002],[0.5980000000000132,0.29000000000041837],[0.4339999999999691,-3.5700000000001637],[2.940999999999974,5.3400000000001455],[0.3369999999999891,0.6100000000001273],[1.4569999999999936,-1.9200000000000728],[-0.23399999999998045,5.9699999999998],[-0.029000000000053205,0.7199999999997999],[2.194000000000017,-1.0099999999997635],[-2.9360000000000355,5.260000000000218],[-0.39400000000000546,0.7100000000000364],[2.2110000000000127,-0.36999999999989086],[-3.69399999999996,3.519999999999982],[-0.6150000000000091,0.5799999999999272],[2.151999999999987,0.09999999999990905],[-4.468999999999994,3.380000000000109],[-0.7390000000000327,0.5599999999999454],[2.380999999999972,0],[-5.425000000000011,2.900000000000091],[-4.512999999999977,-4.730000000000018]]}}},{"ty":"sh","ks":{"a":0,"k":{"c":true,"v":[[-393.708,2934.93],[-379.317,2949.99],[-378.123,2950.18],[-357.643,2939.23],[-358.117,2937.35],[-366.282,2937.36],[-353.058,2927.35],[-353.613,2925.55],[-360.492,2925.22],[-348.759,2914.04],[-349.61,2912.33],[-357.391,2913.6],[-348.094,2896.95],[-349.387,2895.56],[-357.278,2899.2],[-356.514,2879.77],[-358.309,2879.13],[-363.669,2886.17],[-373.246,2868.78],[-375.115,2869.14],[-376.62,2881.56],[-383.914,2877.99],[-385.294,2879.23],[-380.816,2891.72],[-387.403,2889.5],[-388.59,2890.94],[-378.549,2908.43],[-386.408,2906.56],[-387.599,2907.82],[-383.31,2922.36],[-390.771,2918.68],[-392.206,2919.45],[-393.978,2934.12]],"i":[[-0.20799999999997,-0.2199999999997999],[-4.796999999999969,-5.019999999999982],[-0.38999999999998636,0.21000000000003638],[-6.827000000000055,3.650000000000091],[1.0080000000000382,0],[2.72199999999998,0],[-4.4080000000000155,3.3400000000001455],[0.9010000000000105,0.04999999999972715],[2.2930000000000064,0.11000000000012733],[-3.9110000000000014,3.730000000000018],[0.9370000000000118,-0.15999999999985448],[2.593999999999994,-0.4299999999998363],[-3.0989999999999895,5.550000000000182],[0.8489999999999895,-0.40000000000009095],[2.6310000000000286,-1.2100000000000364],[-0.25399999999996226,6.480000000000018],[0.5720000000000027,-0.75],[1.7860000000000014,-2.3400000000001455],[3.1920000000000073,5.799999999999727],[0.11299999999999955,-0.9299999999998363],[0.5020000000000095,-4.139999999999873],[2.4319999999999595,1.1900000000000546],[-0.29200000000003,-0.8200000000001637],[-1.4930000000000518,-4.1599999999998545],[2.1960000000000264,0.7399999999997817],[-0.4430000000000405,-0.7699999999999818],[-3.347000000000037,-5.829999999999927],[2.6200000000000045,0.6300000000001091],[-0.21000000000003638,-0.7100000000000364],[-1.4300000000000068,-4.849999999999909],[2.487000000000023,1.2200000000002547],[0.08000000000004093,-0.6599999999998545],[0.5910000000000082,-4.889999999999873]],"o":[[4.7970000000000255,5.019999999999982],[0.3050000000000068,0.3200000000001637],[6.826999999999998,-3.649999999999636],[0.8879999999999768,-0.4800000000000182],[-2.72199999999998,0],[4.407999999999959,-3.3299999999999272],[0.7199999999999704,-0.5399999999999636],[-2.2930000000000064,-0.11000000000012733],[3.9110000000000014,-3.7199999999998],[0.6879999999999882,-0.6599999999998545],[-2.593999999999994,0.42000000000007276],[3.0990000000000464,-5.549999999999727],[0.4560000000000173,-0.819999999999709],[-2.6299999999999955,1.2100000000000364],[0.25499999999999545,-6.4699999999998],[0.038000000000010914,-0.9400000000000546],[-1.7869999999999777,2.349999999999909],[-3.1930000000000405,-5.789999999999964],[-0.4519999999999982,-0.8200000000001637],[-0.5020000000000095,4.140000000000327],[-2.430999999999983,-1.1900000000000546],[-0.77800000000002,-0.3799999999996544],[1.4919999999999618,4.1599999999998545],[-2.1960000000000264,-0.7399999999997817],[-0.8419999999999845,-0.2899999999999636],[3.34699999999998,5.829999999999927],[-2.619000000000028,-0.6199999999998909],[-0.72199999999998,-0.17000000000007276],[1.4300000000000068,4.849999999999909],[-2.487000000000023,-1.2300000000000182],[-0.5980000000000132,-0.29999999999972715],[-0.5910000000000082,4.890000000000327],[-0.036000000000001364,0.3000000000001819]]}}},{"ty":"st","o":{"a":0,"k":0},"w":{"a":0,"k":0},"c":{"a":0,"k":[0,0,0,0]},"lc":3,"lj":1,"ml":1},{"ty":"fl","o":{"a":0,"k":100},"r":1,"c":{"a":0,"k":[0.4823529411764706,0,0.28627450980392155,1]}},{"ty":"tr","o":{"a":0,"k":100},"a":{"a":0,"k":[0,0]},"s":{"a":0,"k":[100,100]},"p":{"a":0,"k":[394.014,-2867.96]},"r":{"a":0,"k":0}}]},{"ty":"gr","nm":"ekor shape group","it":[{"ty":"sh","ks":{"a":0,"k":{"c":true,"v":[[-392.985,2934.24],[-391.213,2919.57],[-381.705,2924.27],[-386.64,2907.54],[-376.529,2909.94],[-387.723,2890.45],[-379.177,2893.33],[-384.353,2878.89],[-375.796,2883.07],[-374.122,2869.26],[-363.804,2888],[-357.513,2879.73],[-358.341,2900.79],[-348.967,2896.46],[-359.274,2914.92],[-349.449,2913.31],[-362.871,2926.11],[-353.661,2926.55],[-369.267,2938.37],[-358.115,2938.35],[-378.594,2949.3]],"i":[[0,0],[0,0],[0,0],[0,0],[0,0],[0,0],[0,0],[0,0],[0,0],[0,0],[0,0],[0,0],[0,0],[0,0],[0,0],[0,0],[0,0],[0,0],[0,0],[0,0],[0,0]],"o":[[0,0],[0,0],[0,0],[0,0],[0,0],[0,0],[0,0],[0,0],[0,0],[0,0],[0,0],[0,0],[0,0],[0,0],[0,0],[0,0],[0,0],[0,0],[0,0],[0,0],[0,0]]}}},{"ty":"st","o":{"a":0,"k":0},"w":{"a":0,"k":0},"c":{"a":0,"k":[0,0,0,0]},"lc":3,"lj":1,"ml":1},{"ty":"fl","o":{"a":0,"k":100},"r":1,"c":{"a":0,"k":[1,0.5764705882352941,0.11372549019607843,1]}},{"ty":"tr","o":{"a":0,"k":100},"a":{"a":0,"k":[0,0]},"s":{"a":0,"k":[100,100]},"p":{"a":0,"k":[394.014,-2867.96]},"r":{"a":0,"k":0}}]}],"op":77}]}],"layers":[{"ty":0,"nm":"instance:precomp_1","refId":"precomp_1","ind":1,"ip":0,"st":0,"hix":1,"ks":{"o":{"a":0,"k":100},"or":{"a":0,"k":[0,0,0]},"a":{"a":0,"k":[115,119.5,0]},"p":{"s":true,"x":{"a":0,"k":123.092},"y":{"a":0,"k":121.8925}},"rx":{"a":0,"k":0},"ry":{"a":0,"k":0},"rz":{"a":0,"k":0},"s":{"a":0,"k":[100,100,100]}},"w":230,"h":239,"op":77}],"op":77,"w":247,"h":244}