{"ip":0,"fr":60,"v":"5.1.20","assets":[{"id":"precomp_1","layers":[{"ty":4,"nm":"Group","ip":0,"st":0,"ind":21,"hix":1,"ks":{"o":{"a":0,"k":100},"or":{"a":0,"k":[0,0,0]},"a":{"a":0,"k":[11.678497314453125,11.4014892578125,0]},"p":{"s":true,"x":{"a":0,"k":49.443},"y":{"a":0,"k":112.75724890136719}},"rx":{"a":0,"k":0},"ry":{"a":0,"k":0},"rz":{"a":0,"k":0},"s":{"a":0,"k":[100,100,100]}},"shapes":[{"ty":"gr","nm":"Group shape group","it":[{"ty":"sh","ks":{"a":0,"k":{"c":true,"v":[[-190.777,359.812],[-181.411,357.99],[-178.682,349.848],[-186.531,341.692],[-195.156,344.947],[-197.864,355.015]],"i":[[-4.010000000000019,-0.39699999999999136],[-3.0490000000000066,1.4869999999999663],[2.7339999999999804,3.5469999999999686],[2.913000000000011,1.6850000000000023],[1.9329999999999927,-4.447999999999979],[-0.4660000000000082,-2.7110000000000127]],"o":[[2.3859999999999957,0.2419999999999618],[2.984000000000009,-1.268000000000029],[-2.2280000000000086,-3.1030000000000086],[-2.835000000000008,-1.8670000000000186],[-1.995999999999981,4.1340000000000146],[0.4960000000000093,2.834000000000003]]}}},{"ty":"sh","ks":{"a":0,"k":{"c":true,"v":[[-190.559,357.824],[-195.898,354.647],[-193.359,345.824],[-187.523,343.429],[-180.309,351.01],[-182.298,356.197]],"i":[[1.8460000000000036,0.22100000000000364],[0.33899999999999864,1.634999999999991],[-1.975999999999999,4.000999999999976],[-2.460000000000008,-1.1569999999999823],[-2.1450000000000102,-3.019999999999982],[2.6380000000000052,-1.511000000000024]],"o":[[-3.8000000000000114,-0.4590000000000032],[-0.3689999999999998,-1.757000000000005],[2.0400000000000205,-3.6860000000000355],[2.382000000000005,1.3400000000000318],[1.6399999999999864,2.576999999999998],[-2.5720000000000027,1.2930000000000064]]}}},{"ty":"st","o":{"a":0,"k":0},"w":{"a":0,"k":0},"c":{"a":0,"k":[0,0,0,0]},"lc":3,"lj":1,"ml":1},{"ty":"fl","o":{"a":0,"k":100},"r":1,"c":{"a":0,"k":[0.4823529411764706,0,0.28627450980392155,1]}},{"ty":"tr","o":{"a":0,"k":100},"a":{"a":0,"k":[0,0]},"s":{"a":0,"k":[100,100]},"p":{"a":0,"k":[198.478,-337.251]},"r":{"a":0,"k":0}}]},{"ty":"gr","nm":"Group shape group","it":[{"ty":"sh","ks":{"a":0,"k":{"c":true,"v":[[-190.668,358.818],[-179.495,350.429],[-194.257,345.386]],"i":[[-7.810000000000002,-0.8559999999999945],[4.373999999999995,6.123000000000047],[3.9720000000000084,-8.135000000000048]],"o":[[4.231999999999999,0.4630000000000223],[-4.373999999999995,-6.123999999999967],[-3.9729999999999848,8.133999999999958]]}}},{"ty":"st","o":{"a":0,"k":0},"w":{"a":0,"k":0},"c":{"a":0,"k":[0,0,0,0]},"lc":3,"lj":1,"ml":1},{"ty":"fl","o":{"a":0,"k":100},"r":1,"c":{"a":0,"k":[1,1,1,1]}},{"ty":"tr","o":{"a":0,"k":100},"a":{"a":0,"k":[0,0]},"s":{"a":0,"k":[100,100]},"p":{"a":0,"k":[198.478,-337.251]},"r":{"a":0,"k":0}}]}],"op":96},{"ty":4,"nm":"Group","ip":0,"st":0,"ind":20,"hix":2,"ks":{"o":{"a":0,"k":100},"or":{"a":0,"k":[0,0,0]},"a":{"a":0,"k":[12.269702911376953,10.391998291015625,0]},"p":{"s":true,"x":{"a":0,"k":158.11},"y":{"a":0,"k":94.15224890136717}},"rx":{"a":0,"k":0},"ry":{"a":0,"k":0},"rz":{"a":0,"k":0},"s":{"a":0,"k":[100,100,100]}},"shapes":[{"ty":"gr","nm":"Group shape group","it":[{"ty":"sh","ks":{"a":0,"k":{"c":true,"v":[[-83.6092,324.704],[-87.7757,333.287],[-82.9034,340.359],[-71.6687,338.979],[-69.0926,330.127],[-75.5179,321.917]],"i":[[2.724800000000002,-2.968999999999994],[0.6419000000000068,-3.3309999999999604],[-4.477699999999999,0.05600000000004002],[-3.095799999999997,1.3180000000000405],[2.3963000000000108,4.216000000000008],[2.4475999999999942,1.2550000000000523]],"o":[[-1.6260000000000048,1.7629999999999768],[-0.7775000000000034,3.1480000000000246],[3.8194000000000017,0.08100000000001728],[3.1950000000000074,-1.1459999999999582],[-2.107699999999994,-4.078000000000031],[-2.5641999999999996,-1.30499999999995]]}}},{"ty":"sh","ks":{"a":0,"k":{"c":true,"v":[[-82.1501,326.072],[-76.4044,323.709],[-70.8735,331.037],[-72.4619,337.143],[-82.8558,338.359],[-85.8097,333.655]],"i":[[-1.2857000000000056,1.3430000000000177],[-1.5108000000000033,-0.7099999999999795],[-2.0119999999999862,-3.981999999999971],[2.4025000000000034,-1.2729999999999677],[3.7035000000000053,0.09800000000001319],[-0.37529999999999575,3.0170000000000528]],"o":[[2.6487999999999943,-2.762999999999977],[1.6273999999999944,0.7599999999999909],[1.7235000000000014,3.8450000000000273],[-2.5015999999999963,1.1000000000000227],[-3.0454000000000008,-0.2349999999999568],[0.5109000000000066,-2.83299999999997]]}}},{"ty":"st","o":{"a":0,"k":0},"w":{"a":0,"k":0},"c":{"a":0,"k":[0,0,0,0]},"lc":3,"lj":1,"ml":1},{"ty":"fl","o":{"a":0,"k":100},"r":1,"c":{"a":0,"k":[0.4823529411764706,0,0.28627450980392155,1]}},{"ty":"tr","o":{"a":0,"k":100},"a":{"a":0,"k":[0,0]},"s":{"a":0,"k":[100,100]},"p":{"a":0,"k":[90.403,-319.656]},"r":{"a":0,"k":0}}]},{"ty":"gr","nm":"Group shape group","it":[{"ty":"sh","ks":{"a":0,"k":{"c":true,"v":[[-82.8796,325.388],[-82.8796,339.359],[-69.983,330.582]],"i":[[5.373499999999993,-5.731999999999971],[-7.5230999999999995,-0.17899999999997362],[4.119700000000009,8.060999999999979]],"o":[[-2.9117999999999995,3.1060000000000514],[7.522999999999996,0.17900000000003047],[-4.119799999999998,-8.060000000000002]]}}},{"ty":"st","o":{"a":0,"k":0},"w":{"a":0,"k":0},"c":{"a":0,"k":[0,0,0,0]},"lc":3,"lj":1,"ml":1},{"ty":"fl","o":{"a":0,"k":100},"r":1,"c":{"a":0,"k":[1,1,1,1]}},{"ty":"tr","o":{"a":0,"k":100},"a":{"a":0,"k":[0,0]},"s":{"a":0,"k":[100,100]},"p":{"a":0,"k":[90.403,-319.656]},"r":{"a":0,"k":0}}]}],"op":96},{"ty":4,"nm":"Group","ip":0,"st":0,"ind":19,"hix":3,"ks":{"o":{"a":0,"k":100},"or":{"a":0,"k":[0,0,0]},"a":{"a":0,"k":[57.54949951171875,56.88999938964844,0]},"p":{"s":true,"x":{"a":0,"k":111.212},"y":{"a":0,"k":156.42224890136714}},"rx":{"a":0,"k":0},"ry":{"a":0,"k":0},"rz":{"a":1,"k":[{"t":0,"s":[0],"e":[366.15683164689665],"i":{"x":[0.515],"y":[0.955]},"o":{"x":[0.455],"y":[0.03]}},{"t":90,"s":[366.15683164689665],"e":[366.15683164689665],"i":{"x":[1],"y":[1]},"o":{"x":[0],"y":[0]}},{"t":96}]},"s":{"a":0,"k":[100,100,100]}},"shapes":[{"ty":"gr","nm":"Group shape group","it":[{"ty":"sh","ks":{"a":0,"k":{"c":true,"v":[[-124.994,440.041],[-128.064,439.944],[-128.684,439.924],[-128.977,440.471],[-131.566,445.3],[-134.634,446.918],[-137.094,444.303],[-137.874,438.903],[-137.961,438.3],[-138.536,438.101],[-144.286,436.106],[-144.84,435.914],[-145.278,436.304],[-149.287,439.867],[-152.806,440.338],[-154.208,437.061],[-153.087,431.71],[-152.964,431.121],[-153.426,430.736],[-158.104,426.844],[-158.571,426.455],[-159.132,426.691],[-164.107,428.785],[-167.602,427.923],[-167.832,424.439],[-164.957,419.769],[-164.645,419.262],[-164.942,418.746],[-167.963,413.492],[-168.266,412.964],[-168.875,412.991],[-174.294,413.235],[-177.197,411.216],[-176.204,407.87],[-171.916,404.513],[-171.405,404.112],[-171.563,403.482],[-172.609,397.646],[-172.671,396.996],[-173.292,396.791],[-178.478,395.082],[-180.547,392.292],[-178.465,389.45],[-173.3,387.796],[-172.672,387.594],[-172.609,386.938],[-171.561,381.096],[-171.41,380.474],[-171.911,380.076],[-176.221,376.653],[-177.18,373.368],[-174.274,371.399],[-168.866,371.593],[-168.261,371.615],[-167.961,371.089],[-164.94,365.786],[-164.645,365.268],[-164.96,364.763],[-167.848,360.12],[-167.647,356.764],[-164.132,355.857],[-159.113,357.852],[-158.565,358.07],[-158.109,357.696],[-153.431,353.852],[-152.961,353.466],[-153.088,352.871],[-154.208,347.619],[-152.927,344.336],[-149.229,344.774],[-145.282,348.325],[-144.84,348.724],[-144.279,348.524],[-138.529,346.481],[-137.961,346.279],[-137.874,345.683],[-137.094,340.325],[-134.708,337.768],[-131.561,339.245],[-128.979,344.11],[-128.687,344.66],[-128.064,344.641],[-125.058,344.543],[-122.037,344.641],[-121.414,344.661],[-121.122,344.11],[-118.535,339.236],[-115.471,337.714],[-113.006,340.331],[-112.226,345.683],[-112.14,346.277],[-111.574,346.48],[-105.873,348.523],[-105.315,348.723],[-104.871,348.329],[-100.861,344.765],[-97.2667,344.312],[-95.8919,347.57],[-97.0127,352.873],[-97.1375,353.463],[-96.6731,353.849],[-92.0441,357.692],[-91.5875,358.071],[-91.036,357.852],[-85.9931,355.848],[-82.498,356.71],[-82.3146,360.141],[-85.1893,364.763],[-85.5038,365.268],[-85.209,365.786],[-82.1881,371.089],[-81.8885,371.615],[-81.2836,371.593],[-75.8334,371.399],[-72.9036,373.417],[-73.9491,376.67],[-78.1882,380.027],[-78.6881,380.422],[-78.5402,381.043],[-77.4908,386.938],[-77.4284,387.592],[-76.803,387.795],[-71.7185,389.438],[-69.5045,392.292],[-71.6951,395.089],[-76.8111,396.792],[-77.429,396.998],[-77.4908,397.646],[-78.5375,403.482],[-78.6953,404.112],[-78.1839,404.513],[-73.9106,407.858],[-72.9201,411.265],[-75.8174,413.235],[-81.2746,412.991],[-81.8827,412.964],[-82.1861,413.492],[-85.2071,418.746],[-85.5052,419.265],[-85.1893,419.773],[-82.3131,424.397],[-82.4532,427.869],[-85.9986,428.783],[-90.9687,426.691],[-91.529,426.455],[-91.9963,426.844],[-96.6739,430.736],[-97.1373,431.122],[-97.0127,431.712],[-95.8897,437.025],[-97.1928,440.259],[-100.876,439.855],[-104.871,436.304],[-105.311,435.913],[-105.866,436.107],[-111.567,438.102],[-112.14,438.302],[-112.226,438.903],[-113.007,444.308],[-115.388,446.864],[-118.586,445.294],[-121.12,440.478],[-121.411,439.924],[-122.037,439.944]],"i":[[0.9429999999999978,-0.031999999999982265],[1.0229999999999961,0.031999999999982265],[0.20699999999999363,0.007000000000005002],[0.09800000000001319,-0.18200000000001637],[0.867999999999995,-1.617999999999995],[1.2909999999999968,0.17099999999999227],[0.20900000000000318,1.3740000000000236],[0.2599999999999909,1.7999999999999545],[0.029000000000024784,0.20099999999996498],[0.19200000000000728,0.06599999999997408],[1.9170000000000016,0.6650000000000205],[0.18500000000000227,0.06400000000002137],[0.14599999999998658,-0.12999999999999545],[1.3460000000000036,-1.1949999999999932],[1.1839999999999975,0.6349999999999909],[-0.2470000000000141,1.3450000000000273],[-0.37400000000002365,1.7840000000000487],[-0.04099999999999682,0.19600000000002638],[0.15399999999999636,0.1290000000000191],[1.559000000000026,1.2980000000000018],[0.15500000000000114,0.12999999999999545],[0.18700000000001182,-0.07799999999997453],[1.6620000000000061,-0.6990000000000123],[1.0339999999999918,1.0960000000000036],[-0.6880000000000166,1.0779999999999745],[-0.9579999999999984,1.5570000000000164],[-0.103999999999985,0.16899999999998272],[0.09900000000001796,0.17200000000002547],[1.007000000000005,1.7509999999999764],[0.10099999999999909,0.17599999999998772],[0.20300000000000296,-0.008999999999957708],[1.8140000000000214,-0.08100000000001728],[0.4230000000000018,1.3480000000000132],[-1.0339999999999918,0.8109999999999786],[-1.4300000000000068,1.1190000000000282],[-0.17099999999999227,0.1339999999999577],[0.05299999999999727,0.20999999999997954],[0.1880000000000166,1.978999999999985],[0.01999999999998181,0.21700000000004138],[0.20699999999999363,0.06900000000001683],[1.742999999999995,0.5740000000000123],[0.03299999999998704,1.4160000000000537],[-1.382000000000005,0.4940000000000282],[-1.7209999999999752,0.5509999999999877],[-0.20900000000000318,0.06700000000000728],[-0.020999999999986585,0.2189999999999941],[-0.48099999999999454,1.968999999999994],[-0.05000000000001137,0.20800000000002683],[0.1670000000000016,0.13299999999998136],[1.4509999999999934,1.1529999999999632],[-0.44700000000000273,1.2440000000000282],[-1.3739999999999952,-0.023000000000024556],[-1.8029999999999973,-0.06499999999999773],[-0.2009999999999934,-0.007000000000005002],[-0.09999999999999432,0.17500000000001137],[-1.007000000000005,1.7679999999999723],[-0.09799999999998477,0.17300000000000182],[0.10500000000001819,0.16800000000000637],[0.9720000000000084,1.5609999999999786],[-0.7450000000000045,0.95799999999997],[-1.2909999999999968,-0.5380000000000109],[-1.6730000000000018,-0.6649999999999636],[-0.18299999999999272,-0.07200000000000273],[-0.1519999999999868,0.1239999999999668],[-1.5589999999999975,1.281000000000006],[-0.15699999999998226,0.1290000000000191],[0.04200000000000159,0.19800000000003593],[0.37299999999999045,1.7489999999999668],[-1.0370000000000061,0.6440000000000055],[-1.0479999999999734,-0.9379999999999882],[-1.3160000000000025,-1.183999999999969],[-0.14699999999999136,-0.13299999999998136],[-0.18700000000001182,0.06700000000000728],[-1.9159999999999968,0.6809999999999832],[-0.18899999999999295,0.06700000000000728],[-0.028999999999996362,0.19799999999997908],[-0.2609999999999957,1.7900000000000205],[-1.3060000000000116,0.2310000000000514],[-0.5900000000000034,-1.0819999999999936],[-0.86099999999999,-1.622000000000014],[-0.09699999999997999,-0.18300000000004957],[-0.20699999999999363,0.005999999999971806],[-0.958999999999989,0.03300000000001546],[-1.0069999999999908,-0.03300000000001546],[-0.2079999999999984,-0.007000000000005002],[-0.0969999999999942,0.18399999999996908],[-0.8650000000000091,1.6310000000000286],[-1.3469999999999942,-0.17599999999998772],[-0.1979999999999933,-1.3540000000000418],[-0.2600000000000051,-1.7839999999999918],[-0.028000000000005798,-0.19799999999997908],[-0.1880000000000024,-0.06800000000004047],[-1.8999999999999915,-0.68100000000004],[-0.18600000000000705,-0.06600000000003092],[-0.14800000000001035,0.132000000000005],[-1.3469999999999942,1.1970000000000027],[-1.295500000000004,-0.660000000000025],[0.28880000000000905,-1.4289999999999736],[0.37359999999999616,-1.7679999999999723],[0.041600000000002524,-0.19600000000002638],[-0.1547999999999945,-0.12899999999996226],[-1.5430000000000064,-1.281000000000006],[-0.15219999999999345,-0.1260000000000332],[-0.18380000000000507,0.07300000000003593],[-1.6970000000000027,0.6739999999999782],[-1.0341999999999985,-1.0960000000000036],[0.6894999999999953,-1.0409999999999968],[0.958200000000005,-1.5409999999999968],[0.10479999999999734,-0.16799999999994952],[-0.09829999999999472,-0.17300000000000182],[-1.0069999999999908,-1.7679999999999723],[-0.09980000000000189,-0.17599999999998772],[-0.2015999999999991,0.007000000000005002],[-1.8119999999999976,0.06499999999999773],[-0.40340000000000487,-1.3179999999999836],[1.0320999999999998,-0.8500000000000227],[1.4129999999999967,-1.1189999999999714],[0.16660000000000252,-0.132000000000005],[-0.04930000000000234,-0.20699999999999363],[-0.18870000000001141,-1.9769999999999754],[-0.020800000000008367,-0.2179999999999609],[-0.2085000000000008,-0.06800000000004047],[-1.6738,-0.5399999999999636],[-0.023500000000012733,-1.353999999999985],[1.4187999999999903,-0.49399999999997135],[1.705299999999994,-0.5669999999999504],[0.20600000000000307,-0.06900000000001683],[0.020599999999987517,-0.21600000000000819],[0.47879999999999256,-1.9110000000000014],[0.052599999999998204,-0.21000000000003638],[-0.1705000000000041,-0.1339999999999577],[-1.4146999999999963,-1.1070000000000277],[0.4474000000000018,-1.2099999999999795],[1.29140000000001,0.06999999999999318],[1.819100000000006,0.08199999999999363],[0.202699999999993,0.009000000000014552],[0.10110000000000241,-0.17600000000004457],[1.0069999999999908,-1.7509999999999764],[0.0992999999999995,-0.17300000000000182],[-0.10529999999999973,-0.16900000000003956],[-0.959699999999998,-1.5430000000000064],[0.7370999999999981,-0.9720000000000368],[1.2665999999999968,0.5349999999999682],[1.6567000000000007,0.6980000000000359],[0.18679999999999097,0.07900000000000773],[0.15579999999999927,-0.1290000000000191],[1.5592000000000041,-1.2969999999999686],[0.15439999999999543,-0.1290000000000191],[-0.041499999999999204,-0.19700000000000273],[-0.37579999999999814,-1.7779999999999632],[1.0666000000000082,-0.6940000000000168],[1.0534999999999997,0.8689999999999714],[1.3319999999999936,1.184000000000026],[0.14700000000000557,0.12999999999999545],[0.18500000000000227,-0.06400000000002137],[1.9009999999999962,-0.6649999999999636],[0.1910000000000025,-0.06700000000000728],[0.028999999999996362,-0.20000000000004547],[0.2610000000000099,-1.8050000000000068],[1.25,-0.2189999999999941],[0.563999999999993,1.1720000000000255],[0.8449999999999989,1.6050000000000182],[0.09700000000000841,0.18400000000002592],[0.20900000000000318,-0.007000000000005002]],"o":[[-1.0229999999999961,-0.031999999999982265],[-0.20600000000001728,-0.007000000000005002],[-0.09700000000000841,0.18200000000001637],[-0.86099999999999,1.6050000000000182],[-0.6009999999999991,1.146000000000015],[-1.38900000000001,-0.28000000000002956],[-0.2600000000000193,-1.8000000000000114],[-0.028999999999996362,-0.20100000000002183],[-0.19199999999997885,-0.06600000000003092],[-1.9170000000000016,-0.6650000000000205],[-0.1839999999999975,-0.06400000000002137],[-0.14599999999998658,0.12999999999999545],[-1.332000000000022,1.184000000000026],[-0.9770000000000039,0.8889999999999532],[-1.2069999999999936,-0.7770000000000437],[0.3739999999999952,-1.7829999999999586],[0.04099999999999682,-0.19599999999996953],[-0.15399999999999636,-0.1279999999999859],[-1.5600000000000023,-1.2969999999999686],[-0.1559999999999775,-0.1290000000000191],[-0.18700000000001182,0.07900000000000773],[-1.656000000000006,0.6980000000000359],[-1.3240000000000123,0.5329999999999586],[-0.7870000000000061,-1.011000000000024],[0.9579999999999984,-1.55600000000004],[0.103999999999985,-0.16899999999998272],[-0.09899999999998954,-0.17200000000002547],[-1.007000000000005,-1.7509999999999764],[-0.10099999999999909,-0.17600000000004457],[-0.20300000000000296,0.009000000000014552],[-1.8029999999999973,0.08199999999999363],[-1.3379999999999939,0.06200000000001182],[-0.4329999999999927,-1.1870000000000118],[1.429000000000002,-1.1190000000000282],[0.1699999999999875,-0.1339999999999577],[-0.05299999999999727,-0.21000000000003638],[-0.4790000000000134,-1.9120000000000346],[-0.020999999999986585,-0.21700000000004138],[-0.20699999999999363,-0.06799999999998363],[-1.7210000000000036,-0.5670000000000073],[-1.370999999999981,-0.45299999999997453],[0.03100000000000591,-1.4119999999999777],[1.7220000000000084,-0.5519999999999641],[0.20900000000000318,-0.06700000000000728],[0.020999999999986585,-0.21800000000001774],[0.1880000000000166,-1.9769999999999754],[0.05000000000001137,-0.20699999999999363],[-0.1670000000000016,-0.132000000000005],[-1.429000000000002,-1.1350000000000477],[-1.0200000000000102,-0.7700000000000387],[0.40200000000001523,-1.2839999999999918],[1.8029999999999973,0.06499999999999773],[0.2020000000000266,0.007000000000005002],[0.09999999999999432,-0.17500000000001137],[1.007000000000005,-1.7679999999999723],[0.09799999999998477,-0.17300000000000182],[-0.10499999999998977,-0.16799999999994952],[-0.9579999999999984,-1.5409999999999968],[-0.664999999999992,-0.9990000000000236],[1.0789999999999793,-1.1539999999999964],[1.6730000000000018,0.6649999999999636],[0.18299999999999272,0.07300000000003593],[0.1519999999999868,-0.125],[1.5589999999999975,-1.282000000000039],[0.1560000000000059,-0.12899999999996226],[-0.04199999999997317,-0.19800000000003593],[-0.3739999999999952,-1.7509999999999764],[-0.29400000000001114,-1.4860000000000468],[1.3930000000000007,-0.6879999999999882],[1.3160000000000025,1.184000000000026],[0.14700000000001978,0.1330000000000382],[0.18700000000001182,-0.06700000000000728],[1.9170000000000016,-0.6809999999999832],[0.18899999999999295,-0.06700000000000728],[0.029000000000024784,-0.19900000000001228],[0.2599999999999909,-1.7839999999999918],[0.2079999999999984,-1.3739999999999668],[1.4110000000000014,-0.21599999999995134],[0.8610000000000184,1.622000000000014],[0.09800000000001319,0.18399999999996908],[0.2079999999999984,-0.006000000000028649],[1.0229999999999961,-0.03300000000001546],[1.007000000000005,0.03300000000001546],[0.20800000000001262,0.005999999999971806],[0.09799999999999898,-0.18400000000002592],[0.8610000000000042,-1.622000000000014],[0.5339999999999918,-1.0249999999999773],[1.3430000000000035,0.271000000000015],[0.2600000000000051,1.7839999999999918],[0.028999999999996362,0.19799999999997908],[0.18900000000000716,0.06800000000004047],[1.8999999999999915,0.6809999999999832],[0.18600000000000705,0.06699999999995043],[0.14799999999999613,-0.13100000000002865],[1.3319999999999936,-1.1829999999999927],[1.038499999999999,-0.9319999999999595],[1.1410999999999945,0.6829999999999927],[-0.37359999999999616,1.766999999999996],[-0.041600000000002524,0.19700000000000273],[0.1548000000000087,0.12899999999996226],[1.5430000000000064,1.281000000000006],[0.15219999999999345,0.12700000000000955],[0.1839000000000084,-0.07300000000003593],[1.6730000000000018,-0.6649999999999636],[1.3237000000000023,-0.5330000000000155],[0.776600000000002,0.9950000000000045],[-0.958200000000005,1.5399999999999636],[-0.10479999999999734,0.16800000000000637],[0.0981999999999914,0.17300000000000182],[1.0069000000000017,1.7679999999999723],[0.0999000000000052,0.17500000000001137],[0.20169999999998822,-0.007000000000005002],[1.819100000000006,-0.06499999999999773],[1.3241999999999905,-0.029999999999972715],[0.41790000000000305,1.1450000000000387],[-1.4131,1.1189999999999714],[-0.16670000000000584,0.132000000000005],[0.04930000000000234,0.20699999999999363],[0.48219999999999175,2.021000000000015],[0.020799999999994156,0.21800000000001774],[0.2085000000000008,0.06800000000004047],[1.705299999999994,0.5509999999999877],[1.4569000000000045,0.55600000000004],[-0.01670000000000016,1.302000000000021],[-1.7053999999999974,0.5679999999999836],[-0.20600000000000307,0.06900000000001683],[-0.020600000000001728,0.21600000000000819],[-0.18880000000000052,1.978999999999985],[-0.052600000000012415,0.20999999999997954],[0.1705000000000041,0.1339999999999577],[1.4292999999999978,1.1190000000000282],[1.0093999999999994,0.8179999999999836],[-0.3913000000000011,1.2839999999999918],[-1.8190999999999917,-0.08100000000001728],[-0.202699999999993,-0.008999999999957708],[-0.10110000000000241,0.17599999999998772],[-1.007000000000005,1.7509999999999764],[-0.09940000000000282,0.17300000000000182],[0.10529999999999973,0.16900000000003956],[0.958200000000005,1.5409999999999968],[0.7405000000000115,1.2040000000000077],[-1.0641999999999996,1.1459999999999582],[-1.6567000000000007,-0.6970000000000027],[-0.18680000000000518,-0.07799999999997453],[-0.15570000000001016,0.12999999999999545],[-1.55919999999999,1.2980000000000018],[-0.15449999999999875,0.1290000000000191],[0.041499999999999204,0.19599999999996953],[0.37359999999999616,1.766999999999996],[0.28820000000000334,1.3550000000000182],[-1.3442000000000007,0.7090000000000032],[-1.3319999999999936,-1.1829999999999927],[-0.14700000000000557,-0.12999999999999545],[-0.18499999999998806,0.06499999999999773],[-1.9000000000000057,0.6649999999999636],[-0.1910000000000025,0.06700000000000728],[-0.028000000000005798,0.19999999999998863],[-0.2600000000000051,1.7999999999999545],[-0.19599999999999795,1.3520000000000323],[-1.4799999999999898,0.21600000000000819],[-0.8449999999999989,-1.6049999999999613],[-0.0969999999999942,-0.18500000000000227],[-0.20900000000000318,0.006000000000028649],[-1.0069999999999908,0.031999999999982265]]}}},{"ty":"sh","ks":{"a":0,"k":{"c":true,"v":[[-124.994,442.04],[-122.598,441.963],[-120.376,446.185],[-115.063,448.837],[-111.026,444.589],[-110.334,439.789],[-105.76,438.189],[-102.188,441.364],[-96.1819,441.983],[-93.9352,436.601],[-94.9312,431.888],[-91.1843,428.77],[-86.7897,430.62],[-80.9202,429.152],[-80.6163,423.339],[-83.175,419.225],[-80.7556,415.017],[-75.9189,415.232],[-71.0243,411.9],[-72.6631,406.295],[-76.4568,403.325],[-75.5703,398.502],[-71.0636,396.987],[-67.5045,392.292],[-71.0717,387.546],[-75.5938,386.084],[-76.446,381.213],[-72.6972,378.229],[-71.0077,372.782],[-75.8975,369.4],[-80.7499,369.573],[-83.1765,365.313],[-80.6294,361.218],[-80.965,355.428],[-86.7559,353.999],[-91.2231,355.774],[-94.9311,352.696],[-93.9362,347.988],[-96.2978,342.562],[-102.205,343.283],[-105.757,346.44],[-110.334,344.8],[-111.026,340.049],[-115.147,335.742],[-120.306,338.307],[-122.596,342.622],[-125.057,342.544],[-127.504,342.622],[-129.796,338.305],[-135.032,335.795],[-139.074,340.043],[-139.766,344.798],[-144.387,346.44],[-147.881,343.296],[-153.898,342.589],[-156.165,348.034],[-155.171,352.693],[-158.923,355.776],[-163.359,354.013],[-169.18,355.481],[-169.533,361.197],[-166.973,365.313],[-169.399,369.573],[-174.211,369.4],[-179.076,372.733],[-177.443,378.237],[-173.642,381.255],[-174.529,386.071],[-179.086,387.549],[-182.547,392.292],[-179.083,396.988],[-174.507,398.496],[-173.658,403.333],[-177.438,406.295],[-179.093,411.851],[-174.193,415.233],[-169.393,415.017],[-166.972,419.227],[-169.528,423.38],[-169.135,429.205],[-163.326,430.627],[-158.916,428.77],[-155.168,431.889],[-156.167,436.66],[-153.814,442.065],[-147.944,441.35],[-144.387,438.188],[-139.767,439.791],[-139.075,444.584],[-134.957,448.891],[-129.797,446.232],[-127.507,441.962]],"i":[[-0.867999999999995,-0.02600000000001046],[-0.7990000000000066,0.025999999999953616],[-0.7299999999999898,-1.384999999999991],[-2.236000000000004,0.37000000000000455],[-0.2909999999999968,2.146000000000015],[-0.23099999999999454,1.6000000000000227],[-1.5249999999999915,0.5339999999999918],[-1.2000000000000028,-1.065999999999974],[-2.1248000000000076,1.1739999999999782],[0.4889999999999901,2.1370000000000005],[0.33200000000000784,1.5710000000000264],[-1.2490000000000094,1.0400000000000205],[-1.4562999999999988,-0.6129999999999995],[-1.5140999999999991,1.728999999999985],[1.2069999999999936,1.9069999999999823],[0.8528999999999911,1.370999999999981],[-0.8064999999999998,1.4019999999999868],[-1.6052000000000106,-0.07100000000002638],[-0.6640000000000015,2.170000000000016],[1.636499999999998,1.3340000000000032],[1.2644999999999982,0.9900000000000091],[-0.19069999999999254,1.6499999999999773],[-1.509600000000006,0.5029999999999859],[0.01670000000000016,2.202000000000055],[2.0829000000000093,0.7200000000000273],[1.507400000000004,0.4870000000000232],[0.37340000000000373,1.6219999999999573],[-1.2600000000000051,0.9979999999999905],[0.7347999999999928,2.016999999999996],[2.0934999999999917,-0.06699999999995043],[1.6174999999999926,-0.057999999999992724],[0.8089000000000084,1.420000000000016],[-0.8415999999999997,1.3530000000000086],[1.3148000000000053,1.6859999999999786],[2.0627999999999957,-0.91700000000003],[1.4890000000000043,-0.5910000000000082],[1.2360000000000042,1.0259999999999536],[-0.3311000000000064,1.5670000000000073],[1.9140999999999906,1.0879999999999654],[1.578000000000003,-1.4879999999999995],[1.1840000000000117,-1.052000000000021],[1.5259999999999962,0.5469999999999686],[0.22999999999998977,1.580000000000041],[2.2220000000000084,0.4199999999999591],[0.9249999999999972,-1.7870000000000346],[0.7630000000000052,-1.4379999999999882],[0.8509999999999991,0.02600000000001046],[0.8150000000000119,-0.02600000000001046],[0.7649999999999864,1.4399999999999977],[2.1980000000000075,-0.367999999999995],[0.2790000000000248,-2.1229999999999905],[0.22999999999998977,-1.5849999999999795],[1.539999999999992,-0.5470000000000255],[1.1589999999999918,1.0430000000000064],[2.0749999999999886,-1.0949999999999704],[-0.4860000000000184,-2.214999999999975],[-0.3310000000000173,-1.5529999999999973],[1.2510000000000048,-1.02800000000002],[1.4590000000000032,0.5800000000000409],[1.4989999999999952,-1.7210000000000036],[-1.1730000000000018,-1.802000000000021],[-0.8529999999999802,-1.372000000000014],[0.8089999999999975,-1.419999999999959],[1.6090000000000089,0.05800000000004957],[0.6539999999999964,-2.170000000000016],[-1.6859999999999786,-1.2560000000000286],[-1.266999999999996,-1.0059999999999718],[0.19200000000000728,-1.6440000000000055],[1.5330000000000155,-0.49099999999998545],[-0.03100000000000591,-2.187999999999988],[-2.116000000000014,-0.61099999999999],[-1.525999999999982,-0.5019999999999527],[-0.37400000000002365,-1.57000000000005],[1.2649999999999864,-0.9900000000000091],[-0.7190000000000225,-1.9750000000000227],[-2.1599999999999966,0.132000000000005],[-1.5999999999999943,0.07200000000000273],[-0.806999999999988,-1.4029999999999632],[0.8479999999999848,-1.377999999999986],[-1.3050000000000068,-1.6689999999999827],[-2.0810000000000173,0.9239999999999782],[-1.4699999999999989,0.6190000000000282],[-1.2489999999999952,-1.0400000000000205],[0.3340000000000032,-1.5950000000000273],[-1.9610000000000127,-1.1990000000000123],[-1.5430000000000064,1.433999999999969],[-1.186000000000007,1.0540000000000305],[-1.539999999999992,-0.5339999999999918],[-0.2300000000000182,-1.5950000000000273],[-2.265000000000015,-0.410000000000025],[-0.9509999999999934,1.8579999999999472],[-0.7630000000000052,1.424000000000035]],"o":[[0.7990000000000066,-0.02600000000001046],[0.7469999999999999,1.4209999999999923],[0.9170000000000016,1.981999999999971],[2.1470000000000056,-0.36199999999996635],[0.23099999999999454,-1.6000000000000227],[1.5250000000000057,-0.5330000000000155],[1.1850000000000023,1.0539999999999736],[1.561000000000007,1.3550000000000182],[1.7986999999999966,-1.120999999999981],[-0.33200000000000784,-1.5710000000000264],[1.2489000000000061,-1.0389999999999873],[1.4699999999999989,0.6190000000000282],[2.061700000000002,0.9309999999999832],[1.2646999999999906,-1.6019999999999754],[-0.8529000000000053,-1.372000000000014],[0.8063999999999965,-1.40300000000002],[1.6163999999999987,0.07200000000000273],[2.131699999999995,0.125],[0.7382999999999953,-2.0499999999999545],[-1.2646000000000015,-0.9900000000000091],[0.38819999999999766,-1.5629999999999882],[1.487400000000008,-0.5099999999999909],[2.089499999999987,-0.6720000000000255],[0.023499999999998522,-2.245999999999981],[-1.5072999999999865,-0.48699999999996635],[-0.169399999999996,-1.6589999999999918],[1.2368999999999915,-0.9940000000000282],[1.588799999999992,-1.2819999999999823],[-0.6850000000000023,-2.2339999999999804],[-1.6175000000000068,0.05800000000004957],[-0.8089000000000084,-1.419999999999959],[0.853500000000011,-1.372000000000014],[1.1754000000000104,-1.802000000000021],[-1.4545999999999992,-1.6720000000000255],[-1.4891000000000076,0.5919999999999845],[-1.2360000000000042,-1.0260000000000105],[0.33199999999999363,-1.5710000000000264],[0.49160000000000537,-2.1759999999999877],[-1.9836000000000098,-1.073000000000036],[-1.1839999999999975,1.051999999999964],[-1.5249999999999915,-0.5459999999999923],[-0.23099999999999454,-1.5860000000000127],[-0.2890000000000015,-2.1549999999999727],[-2.201999999999998,-0.30100000000004457],[-0.7630000000000052,1.4379999999999882],[-0.7999999999999972,-0.02600000000001046],[-0.8160000000000025,0.02600000000001046],[-0.7639999999999958,-1.4379999999999882],[-0.9680000000000177,-1.8349999999999795],[-2.198999999999984,0.35300000000000864],[-0.23099999999999454,1.5849999999999795],[-1.5409999999999968,0.5470000000000255],[-1.1680000000000064,-1.0509999999999877],[-1.593999999999994,-1.504000000000019],[-1.8290000000000077,1.0760000000000218],[0.33099999999998886,1.5529999999999973],[-1.2510000000000048,1.02800000000002],[-1.490000000000009,-0.5930000000000177],[-2.0549999999999784,-0.9350000000000023],[-1.257000000000005,1.6159999999999854],[0.853999999999985,1.372000000000014],[-0.8079999999999927,1.420000000000016],[-1.600999999999999,-0.057999999999992724],[-2.1259999999999764,-0.07499999999998863],[-0.7390000000000043,2.0160000000000196],[1.2670000000000243,1.0059999999999718],[-0.38700000000000045,1.5889999999999986],[-1.5,0.4989999999999668],[-2.1149999999999807,0.6700000000000159],[-0.03300000000001546,2.1850000000000023],[1.5250000000000057,0.5029999999999859],[0.16800000000000637,1.657000000000039],[-1.25,0.9819999999999709],[-1.6950000000000216,1.3290000000000077],[0.6659999999999968,2.2040000000000077],[1.6000000000000227,-0.07200000000000273],[0.806999999999988,1.40300000000002],[-0.8549999999999898,1.3880000000000337],[-1.1710000000000207,1.8530000000000086],[1.4539999999999793,1.6720000000000255],[1.4699999999999989,-0.6190000000000282],[1.2489999999999952,1.0400000000000205],[-0.3329999999999984,1.586999999999989],[-0.4329999999999927,2.051999999999964],[1.9819999999999993,1.086999999999989],[1.1850000000000023,-1.0540000000000305],[1.539999999999992,0.5339999999999918],[0.23099999999999454,1.5989999999999895],[0.27899999999999636,2.1340000000000146],[2.1689999999999827,0.3069999999999595],[0.76400000000001,-1.4230000000000018],[0.8170000000000073,0.02600000000001046]]}}},{"ty":"sh","ks":{"a":0,"k":{"c":true,"v":[[-125.123,378.308],[-111.932,387.478],[-111.693,388.135],[-110.993,388.135],[-88.4332,388.135],[-87.2902,388.135],[-87.4421,387.002],[-125.026,354.123],[-139.731,357.019],[-140.791,357.455],[-140.216,358.446],[-128.814,378.101],[-128.49,378.661],[-127.847,378.594],[-125.02,378.302]],"i":[[0.034000000000006025,-0.0020000000000095497],[-1.9519999999999982,-5.350999999999999],[-0.07900000000000773,-0.2189999999999941],[-0.2330000000000041,0],[-7.519900000000007,0],[-0.3810000000000002,0],[0.050699999999991974,0.3779999999999859],[19.411,-0.0020000000000095497],[4.5,-1.84699999999998],[0.35300000000000864,-0.1449999999999818],[-0.19199999999997885,-0.3300000000000409],[-3.801000000000016,-6.550999999999988],[-0.10800000000000409,-0.18700000000001182],[-0.21400000000001285,0.02199999999999136],[-0.9420000000000073,0.09799999999995634]],"o":[[6.051000000000002,-0.0020000000000095497],[0.0799999999999983,0.2189999999999941],[0.23399999999999466,0],[7.519999999999996,0],[0.3810000000000002,0],[-0.050600000000002865,-0.3779999999999859],[-2.497399999999999,-18.63100000000003],[-5.249000000000009,0],[-0.35300000000000864,0.146000000000015],[0.19200000000000728,0.3300000000000409],[3.801000000000016,6.551999999999964],[0.10800000000000409,0.18700000000001182],[0.2150000000000034,-0.02199999999999136],[0.9419999999999931,-0.09699999999997999],[-0.0350000000000108,0.0019999999999527063]]}}},{"ty":"sh","ks":{"a":0,"k":{"c":true,"v":[[-125.226,376.313],[-127.409,376.538],[-137.885,358.478],[-125.026,356.123],[-89.5963,386.125],[-110.353,386.135],[-125.123,376.308],[-125.175,376.308]],"i":[[0.016999999999995907,-0.0020000000000095497],[0.7280000000000086,-0.07499999999998863],[3.4919999999999902,6.019999999999982],[-4.569000000000003,0],[-2.8478000000000065,-17.098000000000013],[6.908999999999992,0],[6.653000000000006,0.0020000000000095497],[0.018000000000000682,0]],"o":[[-0.7279999999999944,0.07499999999998863],[-3.4920000000000044,-6.020000000000039],[3.9639999999999986,-1.5190000000000055],[18.00099999999999,0.0020000000000095497],[-6.937899999999999,0.009999999999990905],[-2.3810000000000002,-5.790999999999997],[-0.016999999999995907,0],[-0.016999999999995907,0.0010000000000331966]]}}},{"ty":"sh","ks":{"a":0,"k":{"c":true,"v":[[-162.96,392.292],[-148.998,422.014],[-148.109,422.74],[-147.511,421.76],[-135.768,402.494],[-135.396,401.883],[-135.855,401.333],[-139.131,392.341],[-135.806,383.251],[-135.357,382.713],[-135.71,382.107],[-147.112,362.549],[-147.691,361.555],[-148.595,362.268]],"i":[[-0.0010000000000047748,-12.224999999999966],[-8.558999999999997,-6.9950000000000045],[-0.29599999999999227,-0.24200000000001864],[-0.19900000000001228,0.3269999999999982],[-3.914999999999992,6.421999999999969],[-0.12400000000002365,0.20400000000000773],[0.1529999999999916,0.18299999999999272],[0.0010000000000047748,3.406000000000006],[-2.0519999999999925,2.4600000000000364],[-0.1490000000000009,0.17899999999997362],[0.117999999999995,0.20199999999999818],[3.8009999999999877,6.520000000000039],[0.19300000000001205,0.33199999999999363],[0.3019999999999925,-0.23799999999999955]],"o":[[-0.0010000000000047748,12.02800000000002],[0.29599999999999227,0.2419999999999618],[0.19900000000001228,-0.32600000000002183],[3.9139999999999873,-6.421999999999969],[0.12399999999999523,-0.20400000000000773],[-0.15300000000002,-0.18299999999999272],[-2.0500000000000114,-2.458000000000027],[0,-3.4490000000000123],[0.15000000000000568,-0.17899999999997362],[-0.11699999999999022,-0.20199999999999818],[-3.799999999999983,-6.5190000000000055],[-0.19300000000001205,-0.33099999999996044],[-0.3009999999999877,0.23799999999999955],[-8.812000000000012,6.947000000000003]]}}},{"ty":"sh","ks":{"a":0,"k":{"c":true,"v":[[-160.96,392.292],[-148.257,364.573],[-137.759,382.564],[-141.131,392.341],[-137.851,402.036],[-148.591,419.688]],"i":[[0.0020000000000095497,11.001000000000033],[-7.814999999999998,6.593000000000018],[-3.490000000000009,-5.987000000000023],[0.0010000000000047748,-3.6850000000000023],[-2.0579999999999927,-2.7040000000000077],[3.592000000000013,-5.892999999999972]],"o":[[0.0020000000000095497,-11.189999999999998],[3.5180000000000007,6.016999999999996],[-2.102000000000004,2.6829999999999927],[0,3.627999999999986],[-3.5560000000000116,5.8659999999999854],[-7.617999999999995,-6.5989999999999895]]}}},{"ty":"sh","ks":{"a":0,"k":{"c":true,"v":[[-125.123,398.936],[-118.471,392.341],[-125.123,385.697],[-131.727,392.341]],"i":[[-3.652000000000001,0.011000000000024102],[0.020000000000010232,3.6959999999999695],[3.7510000000000048,-0.016000000000019554],[-0.007000000000005002,-3.7030000000000314]],"o":[[3.737000000000009,0.021000000000015007],[0.017000000000010118,-3.691000000000031],[-3.6659999999999826,-0.006000000000028649],[-0.009999999999990905,3.7069999999999936]]}}},{"ty":"sh","ks":{"a":0,"k":{"c":true,"v":[[-125.123,396.936],[-129.727,392.341],[-125.123,387.697],[-120.471,392.341]],"i":[[2.6940000000000026,-0.020999999999958163],[0.009999999999990905,2.6170000000000186],[-2.570999999999998,0.007000000000005002],[-0.016999999999995907,-2.6340000000000146]],"o":[[-2.5849999999999937,-0.010999999999967258],[0.007000000000005002,-2.622000000000014],[2.680000000000007,0.016999999999995907],[-0.01999999999999602,2.627999999999986]]}}},{"ty":"sh","ks":{"a":0,"k":{"c":true,"v":[[-125.026,430.462],[-87.3925,397.382],[-87.2482,396.255],[-88.3844,396.255],[-110.895,396.255],[-111.612,396.255],[-111.842,396.933],[-125.024,406.33],[-127.947,406.038],[-128.574,405.976],[-128.901,406.513],[-140.692,425.876],[-141.292,426.861],[-140.233,427.315]],"i":[[-5.452000000000012,0],[-2.397500000000008,18.73199999999997],[-0.04810000000000514,0.375],[0.37879999999999825,0],[7.503,0],[0.2389999999999901,0],[0.0759999999999934,-0.2259999999999991],[6.097999999999999,-0.0049999999999954525],[0.9740000000000038,0.09800000000001319],[0.20900000000000318,0.021000000000015007],[0.10900000000000887,-0.17899999999997362],[3.930000000000007,-6.453999999999951],[0.19999999999998863,-0.32900000000000773],[-0.35300000000000864,-0.15100000000001046]],"o":[[19.509,0.0020000000000095497],[0.04810000000000514,-0.3760000000000332],[-0.37870000000000914,0],[-7.503699999999995,0],[-0.23900000000000432,0],[-0.07699999999999818,0.2259999999999991],[-1.8619999999999948,5.483000000000004],[-0.9740000000000038,-0.09699999999997999],[-0.20900000000000318,-0.020000000000038654],[-0.10899999999998045,0.17899999999997362],[-3.9299999999999784,6.455000000000041],[-0.19999999999998863,0.3280000000000314],[0.35300000000000864,0.15100000000001046],[4.646999999999991,1.995999999999981]]}}},{"ty":"sh","ks":{"a":0,"k":{"c":true,"v":[[-125.026,428.462],[-138.373,425.918],[-127.52,408.091],[-125.123,408.325],[-110.204,398.274],[-89.5693,398.255]],"i":[[18.099999999999994,-0.002999999999985903],[4.1229999999999905,1.6229999999999905],[-3.6130000000000138,5.932000000000016],[-0.8459999999999894,-0.07999999999998408],[-2.328000000000003,5.920000000000016],[-6.8904,0]],"o":[[-4.75500000000001,-0.0009999999999763531],[3.627999999999986,-5.961999999999989],[0.7669999999999959,0.07599999999996498],[6.792000000000002,0],[6.853999999999999,-0.019000000000005457],[-2.727400000000003,17.204999999999984]]}}},{"ty":"st","o":{"a":0,"k":0},"w":{"a":0,"k":0},"c":{"a":0,"k":[0,0,0,0]},"lc":3,"lj":1,"ml":1},{"ty":"fl","o":{"a":0,"k":100},"r":1,"c":{"a":0,"k":[0.4823529411764706,0,0.28627450980392155,1]}},{"ty":"tr","o":{"a":0,"k":100},"a":{"a":0,"k":[0,0]},"s":{"a":0,"k":[100,100]},"p":{"a":0,"k":[182.58,-335.427]},"r":{"a":0,"k":0}}]},{"ty":"gr","nm":"Group shape group","it":[{"ty":"sh","ks":{"a":0,"k":{"c":true,"v":[[-125.026,441.04],[-128.096,440.943],[-130.678,445.76],[-134.82,447.9],[-138.084,444.446],[-138.864,439.046],[-144.613,437.051],[-148.609,440.603],[-153.335,441.186],[-155.187,436.857],[-154.066,431.505],[-158.744,427.613],[-163.714,429.705],[-168.391,428.537],[-168.684,423.915],[-165.809,419.245],[-168.83,413.99],[-174.238,414.234],[-178.136,411.558],[-176.821,407.082],[-172.533,403.725],[-173.605,397.741],[-178.77,396.038],[-181.547,392.292],[-178.77,388.497],[-173.605,386.843],[-172.533,380.859],[-176.821,377.454],[-178.136,373.075],[-174.238,370.399],[-168.83,370.594],[-165.809,365.291],[-168.684,360.669],[-168.391,356.096],[-163.762,354.928],[-158.744,356.923],[-154.066,353.08],[-155.187,347.825],[-153.384,343.447],[-148.56,344.03],[-144.613,347.582],[-138.864,345.539],[-138.084,340.187],[-134.868,336.781],[-130.678,338.776],[-128.096,343.641],[-125.026,343.544],[-122.005,343.641],[-119.422,338.776],[-115.281,336.733],[-112.016,340.187],[-111.237,345.539],[-105.536,347.582],[-101.54,344.03],[-96.7651,343.447],[-94.9136,347.777],[-96.0343,353.08],[-91.4053,356.923],[-86.3865,354.928],[-81.7091,356.096],[-81.4654,360.669],[-84.3401,365.291],[-81.3192,370.594],[-75.8619,370.399],[-71.9639,373.075],[-73.3283,377.454],[-77.5674,380.811],[-76.4953,386.843],[-71.3793,388.497],[-68.5045,392.292],[-71.3793,396.038],[-76.4953,397.741],[-77.5674,403.725],[-73.2795,407.082],[-71.9639,411.558],[-75.8619,414.234],[-81.3192,413.99],[-84.3401,419.245],[-81.4654,423.867],[-81.7091,428.537],[-86.3865,429.705],[-91.3567,427.613],[-96.0343,431.505],[-94.9136,436.808],[-96.7163,441.138],[-101.54,440.603],[-105.536,437.051],[-111.237,439.046],[-112.016,444.446],[-115.232,447.852],[-119.471,445.76],[-122.005,440.943]],"i":[[0.9749999999999943,0],[1.024000000000001,0.049000000000035016],[0,0],[1.7549999999999955,0.2440000000000282],[0.242999999999995,1.7519999999999527],[0,0],[1.850999999999999,0.7300000000000182],[0,0],[1.608000000000004,0.8760000000000332],[-0.34099999999997976,1.7019999999999982],[0,0],[1.461999999999989,1.4110000000000014],[0,0],[1.266999999999996,1.4110000000000014],[-0.9250000000000114,1.4599999999999795],[0,0],[0.9750000000000227,1.8489999999999895],[0,0],[0.5360000000000014,1.7510000000000332],[-1.3640000000000043,1.0699999999999932],[0,0],[0.19499999999999318,2.0430000000000064],[0,0],[0,1.8000000000000114],[-1.7539999999999907,0.5840000000000032],[0,0],[-0.4870000000000232,1.9950000000000045],[0,0],[-0.585000000000008,1.6059999999999945],[-1.7539999999999907,-0.04800000000000182],[0,0],[-1.0720000000000027,1.7509999999999764],[0,0],[-1.024000000000001,1.3129999999999882],[-1.6570000000000107,-0.7300000000000182],[0,0],[-1.608000000000004,1.2160000000000082],[0,0],[-1.4620000000000175,0.875],[-1.3160000000000025,-1.2159999999999513],[0,0],[-1.9489999999999839,0.5830000000000268],[0,0],[-1.754000000000019,0.29199999999997317],[-0.7800000000000011,-1.4590000000000032],[0,0],[-1.0720000000000027,0],[-1.0230000000000103,-0.04800000000000182],[0,0],[-1.8029999999999973,-0.2440000000000282],[-0.24399999999999977,-1.7510000000000332],[0,0],[-1.850999999999999,-0.77800000000002],[0,0],[-1.6567000000000007,-0.8759999999999764],[0.38980000000000814,-1.8009999999999877],[0,0],[-1.4617999999999967,-1.3140000000000214],[0,0],[-1.2667999999999893,-1.4110000000000014],[0.9258000000000095,-1.4110000000000014],[0,0],[-0.9258999999999986,-1.8489999999999895],[0,0],[-0.5360000000000014,-1.7509999999999764],[1.3156000000000034,-1.0710000000000264],[0,0],[-0.1950999999999965,-2.0430000000000064],[0,0],[0,-1.7999999999999545],[1.754099999999994,-0.5830000000000268],[0,0],[0.48730000000000473,-1.9460000000000264],[0,0],[0.5845999999999947,-1.6050000000000182],[1.7053000000000083,0.09700000000003683],[0,0],[1.120500000000007,-1.6539999999999964],[0,0],[1.023300000000006,-1.3129999999999882],[1.656499999999994,0.7300000000000182],[0,0],[1.5593000000000075,-1.1680000000000064],[0,0],[1.4616000000000042,-0.9239999999999782],[1.315000000000012,1.1189999999999714],[0,0],[1.948999999999998,-0.5349999999999682],[0,0],[1.7049999999999983,-0.29199999999997317],[0.7310000000000088,1.5570000000000164],[0,0]],"o":[[-1.0720000000000027,0],[0,0],[-0.7800000000000011,1.5079999999999814],[-1.802000000000021,-0.339999999999975],[0,0],[-1.9969999999999857,-0.5349999999999682],[0,0],[-1.266999999999996,1.1669999999999732],[-1.5589999999999975,-0.97199999999998],[0,0],[-1.608000000000004,-1.1680000000000064],[0,0],[-1.7050000000000125,0.7300000000000182],[-1.024000000000001,-1.3129999999999882],[0,0],[-1.0720000000000027,-1.6539999999999964],[0,0],[-1.7539999999999907,0.09700000000003683],[-0.585000000000008,-1.6050000000000182],[0,0],[-0.4870000000000232,-1.9460000000000264],[0,0],[-1.7539999999999907,-0.535000000000025],[0,-1.7999999999999545],[0,0],[0.19499999999999318,-2.0430000000000064],[0,0],[-1.3640000000000043,-1.0219999999999914],[0.5360000000000014,-1.7509999999999764],[0,0],[0.9750000000000227,-1.8489999999999895],[0,0],[-0.9250000000000114,-1.4110000000000014],[1.266999999999996,-1.4110000000000014],[0,0],[1.461999999999989,-1.3140000000000214],[0,0],[-0.38999999999998636,-1.8489999999999895],[1.704999999999984,-0.8759999999999764],[0,0],[1.850999999999999,-0.77800000000002],[0,0],[0.242999999999995,-1.7510000000000332],[1.8029999999999973,-0.29200000000003],[0,0],[1.024000000000001,-0.04800000000000182],[0.9749999999999943,0],[0,0],[0.7309999999999945,-1.4110000000000014],[1.7540000000000049,0.339999999999975],[0,0],[1.948999999999998,0.5830000000000268],[0,0],[1.315000000000012,-1.2159999999999513],[1.5104000000000042,0.875],[0,0],[1.5593000000000075,1.2160000000000082],[0,0],[1.705299999999994,-0.7300000000000182],[1.023300000000006,1.3129999999999882],[0,0],[1.120500000000007,1.7509999999999764],[0,0],[1.7053000000000083,-0.04800000000000182],[0.5845999999999947,1.6059999999999945],[0,0],[0.48730000000000473,2.0430000000000064],[0,0],[1.754099999999994,0.6329999999999814],[0,1.7520000000000095],[0,0],[-0.1950999999999965,2.0430000000000064],[0,0],[1.3156000000000034,1.0699999999999932],[-0.5360000000000014,1.7510000000000332],[0,0],[-0.9258999999999986,1.8489999999999895],[0,0],[0.9745000000000061,1.5569999999999595],[-1.2667999999999893,1.4110000000000014],[0,0],[-1.51039999999999,1.4110000000000014],[0,0],[0.38980000000000814,1.7510000000000332],[-1.7055000000000007,0.924000000000035],[0,0],[-1.850999999999999,0.7300000000000182],[0,0],[-0.24399999999999977,1.7519999999999527],[-1.8520000000000039,0.29200000000003],[0,0],[-1.0230000000000103,0.049000000000035016]]}}},{"ty":"sh","ks":{"a":0,"k":{"c":true,"v":[[-125.123,377.308],[-110.993,387.135],[-88.4332,387.135],[-125.026,355.123],[-139.351,357.944],[-127.949,377.6]],"i":[[-0.9749999999999943,0],[-2.094999999999999,-5.7409999999999854],[0,0],[18.90599999999999,0],[4.384999999999991,-1.8000000000000114],[0,0]],"o":[[6.480000000000004,0],[0,0],[-2.436099999999996,-18.14699999999999],[-5.116,0],[0,0],[0.9249999999999972,-0.19500000000005002]]}}},{"ty":"sh","ks":{"a":0,"k":{"c":true,"v":[[-161.96,392.292],[-148.365,421.24],[-136.622,401.974],[-140.131,392.341],[-136.574,382.611],[-147.975,363.053]],"i":[[0,-11.918999999999983],[-8.331999999999994,-6.8110000000000355],[0,0],[0,3.649000000000001],[-2.191999999999979,2.6270000000000095],[0,0]],"o":[[0,11.725000000000023],[0,0],[-2.1929999999999836,-2.6270000000000095],[0,-3.698000000000036],[0,0],[-8.575999999999993,6.7620000000000005]]}}},{"ty":"sh","ks":{"a":0,"k":{"c":true,"v":[[-125.123,397.936],[-119.471,392.341],[-125.123,386.697],[-130.727,392.341]],"i":[[-3.1189999999999856,0],[0,3.1619999999999777],[3.216000000000008,0],[0,-3.1620000000000346]],"o":[[3.216000000000008,0],[0,-3.1620000000000346],[-3.1189999999999856,0],[0,3.1619999999999777]]}}},{"ty":"sh","ks":{"a":0,"k":{"c":true,"v":[[-125.026,429.462],[-88.3844,397.255],[-110.895,397.255],[-125.123,407.325],[-128.047,407.034],[-139.838,426.396]],"i":[[-5.310999999999993,0],[-2.3388999999999953,18.244000000000028],[0,0],[6.626000000000005,0],[0.9260000000000019,0.19400000000001683],[0,0]],"o":[[19.003,0],[0,0],[-1.9980000000000047,5.886000000000024],[-0.9749999999999943,0],[0,0],[4.531000000000006,1.9470000000000027]]}}},{"ty":"st","o":{"a":0,"k":0},"w":{"a":0,"k":0},"c":{"a":0,"k":[0,0,0,0]},"lc":3,"lj":1,"ml":1},{"ty":"fl","o":{"a":0,"k":100},"r":1,"c":{"a":0,"k":[0.9490196078431372,0.9490196078431372,0.9490196078431372,1]}},{"ty":"tr","o":{"a":0,"k":100},"a":{"a":0,"k":[0,0]},"s":{"a":0,"k":[100,100]},"p":{"a":0,"k":[182.58,-335.427]},"r":{"a":0,"k":0}}]}],"op":96},{"ty":4,"nm":"Path","ip":0,"st":0,"ind":18,"hix":4,"ks":{"o":{"a":0,"k":100},"or":{"a":0,"k":[0,0,0]},"a":{"a":0,"k":[10.939998626708984,10.94000244140625,0]},"p":{"s":true,"x":{"a":0,"k":111.00699999999999},"y":{"a":0,"k":156.47824890136718}},"rx":{"a":0,"k":0},"ry":{"a":0,"k":0},"rz":{"a":0,"k":0},"s":{"a":0,"k":[100,100,100]}},"shapes":[{"ty":"gr","nm":"Path shape group","it":[{"ty":"sh","ks":{"a":0,"k":{"c":true,"v":[[-125.236,381.434],[-114.296,392.374],[-125.236,403.314],[-136.176,392.374]],"i":[[-6.041999999999987,0],[0,-6.04200000000003],[6.042000000000002,0],[0,6.041999999999973]],"o":[[6.042000000000002,0],[0,6.041999999999973],[-6.041999999999987,0],[0,-6.04200000000003]]}}},{"ty":"st","o":{"a":0,"k":0},"w":{"a":0,"k":0},"c":{"a":0,"k":[0,0,0,0]},"lc":3,"lj":1,"ml":1},{"ty":"fl","o":{"a":0,"k":100},"r":2,"c":{"a":0,"k":[0,0.6941176470588235,0.6862745098039216,1]}},{"ty":"tr","o":{"a":0,"k":100},"a":{"a":0,"k":[0,0]},"s":{"a":0,"k":[100,100]},"p":{"a":0,"k":[136.176,-381.434]},"r":{"a":0,"k":0}}]}],"op":96},{"ty":4,"nm":"Path 113","ip":0,"st":0,"ind":17,"hix":5,"ks":{"o":{"a":0,"k":100},"or":{"a":0,"k":[0,0,0]},"a":{"a":0,"k":[33.19514465332031,32.29789733886719,0]},"p":{"s":true,"x":{"a":0,"k":111.217},"y":{"a":0,"k":156.42124890136716}},"rx":{"a":0,"k":0},"ry":{"a":0,"k":0},"rz":{"a":1,"k":[{"t":0,"s":[0],"e":[-366.15683164689665],"i":{"x":[0.515],"y":[0.955]},"o":{"x":[0.455],"y":[0.03]}},{"t":90,"s":[-366.15683164689665],"e":[-366.15683164689665],"i":{"x":[1],"y":[1]},"o":{"x":[0],"y":[0]}},{"t":94}]},"s":{"a":0,"k":[100,100,100]}},"shapes":[{"ty":"gr","nm":"Path 113 shape group","it":[{"ty":"sh","ks":{"a":0,"k":{"c":true,"v":[[-125.026,420.608],[-126.829,420.551],[-128.345,423.348],[-130.778,424.591],[-132.695,422.585],[-133.153,419.45],[-136.53,418.292],[-138.876,420.354],[-141.652,420.693],[-142.739,418.178],[-142.081,415.071],[-144.828,412.811],[-147.747,414.026],[-150.494,413.348],[-150.666,410.664],[-148.978,407.952],[-150.752,404.901],[-153.928,405.043],[-156.218,403.489],[-155.445,400.89],[-152.927,398.941],[-153.556,395.466],[-156.59,394.478],[-158.221,392.302],[-156.59,390.099],[-153.556,389.139],[-152.927,385.664],[-155.445,383.686],[-156.218,381.144],[-153.928,379.59],[-150.752,379.703],[-148.978,376.624],[-150.666,373.941],[-150.494,371.285],[-147.776,370.607],[-144.828,371.765],[-142.081,369.534],[-142.739,366.483],[-141.681,363.94],[-138.847,364.279],[-136.53,366.342],[-133.153,365.155],[-132.695,362.048],[-130.806,360.07],[-128.345,361.228],[-126.829,364.053],[-125.026,363.997],[-123.252,364.053],[-121.735,361.228],[-119.302,360.042],[-117.385,362.048],[-116.927,365.155],[-113.579,366.342],[-111.233,364.279],[-108.428,363.94],[-107.341,366.455],[-107.999,369.534],[-105.28,371.765],[-102.333,370.607],[-99.5858,371.285],[-99.4426,373.941],[-101.131,376.624],[-99.3568,379.703],[-96.1518,379.59],[-93.8624,381.144],[-94.6638,383.686],[-97.1534,385.636],[-96.5238,389.139],[-93.519,390.099],[-91.8307,392.302],[-93.519,394.478],[-96.5238,395.466],[-97.1534,398.941],[-94.6351,400.89],[-93.8624,403.489],[-96.1518,405.043],[-99.3568,404.901],[-101.131,407.952],[-99.4426,410.636],[-99.5858,413.348],[-102.333,414.026],[-105.252,412.811],[-107.999,415.071],[-107.341,418.15],[-108.4,420.664],[-111.233,420.354],[-113.579,418.292],[-116.927,419.45],[-117.385,422.585],[-119.274,424.563],[-121.764,423.348],[-123.252,420.551]],"i":[[0.5729999999999933,0],[0.6009999999999991,0.028999999999996362],[0,0],[1.0300000000000011,0.14100000000001955],[0.14300000000000068,1.016999999999996],[0,0],[1.0879999999999939,0.4230000000000018],[0,0],[0.9439999999999884,0.5080000000000382],[-0.2009999999999934,0.9889999999999759],[0,0],[0.8580000000000041,0.8190000000000168],[0,0],[0.7439999999999998,0.81899999999996],[-0.5440000000000111,0.8480000000000132],[0,0],[0.5720000000000027,1.0740000000000123],[0,0],[0.3149999999999977,1.016999999999996],[-0.8010000000000161,0.6220000000000141],[0,0],[0.11400000000000432,1.1870000000000118],[0,0],[0,1.0459999999999923],[-1.0300000000000011,0.33899999999999864],[0,0],[-0.28600000000000136,1.1580000000000155],[0,0],[-0.34300000000001774,0.9320000000000164],[-1.031000000000006,-0.027999999999963165],[0,0],[-0.6289999999999907,1.016999999999996],[0,0],[-0.6009999999999991,0.7629999999999768],[-0.9729999999999848,-0.424000000000035],[0,0],[-0.9450000000000216,0.7060000000000173],[0,0],[-0.8579999999999757,0.5090000000000146],[-0.7729999999999961,-0.7060000000000173],[0,0],[-1.1440000000000055,0.3390000000000555],[0,0],[-1.0309999999999775,0.17000000000001592],[-0.4579999999999984,-0.8470000000000368],[0,0],[-0.6290000000000049,0],[-0.6000000000000085,-0.02800000000002001],[0,0],[-1.0589999999999975,-0.1409999999999627],[-0.14300000000000068,-1.016999999999996],[0,0],[-1.088000000000008,-0.4519999999999982],[0,0],[-0.972999999999999,-0.5079999999999814],[0.2289999999999992,-1.0459999999999923],[0,0],[-0.8589999999999947,-0.7620000000000005],[0,0],[-0.7441999999999922,-0.8190000000000168],[0.5437000000000012,-0.8199999999999932],[0,0],[-0.543699999999987,-1.072999999999979],[0,0],[-0.3149000000000086,-1.016999999999996],[0.7725999999999971,-0.6209999999999809],[0,0],[-0.11450000000000671,-1.1870000000000118],[0,0],[0,-1.045000000000016],[1.0301000000000045,-0.33899999999999864],[0,0],[0.286200000000008,-1.1299999999999955],[0,0],[0.3433999999999884,-0.9319999999999595],[1.0015999999999963,0.055999999999983174],[0,0],[0.6580000000000013,-0.9599999999999795],[0,0],[0.60090000000001,-0.7630000000000337],[0.972999999999999,0.4230000000000018],[0,0],[0.9159999999999968,-0.6780000000000541],[0,0],[0.8590000000000089,-0.5360000000000014],[0.7730000000000103,0.6490000000000009],[0,0],[1.1440000000000055,-0.3109999999999786],[0,0],[1.0019999999999953,-0.17000000000001592],[0.4299999999999926,0.9039999999999964],[0,0]],"o":[[-0.6290000000000049,0],[0,0],[-0.4579999999999984,0.8759999999999764],[-1.0589999999999975,-0.19800000000003593],[0,0],[-1.1730000000000018,-0.3109999999999786],[0,0],[-0.7439999999999998,0.6779999999999973],[-0.9160000000000252,-0.5649999999999977],[0,0],[-0.9450000000000216,-0.6780000000000541],[0,0],[-1.0019999999999811,0.4230000000000018],[-0.6009999999999991,-0.7630000000000337],[0,0],[-0.6289999999999907,-0.9599999999999795],[0,0],[-1.031000000000006,0.055999999999983174],[-0.34300000000001774,-0.9319999999999595],[0,0],[-0.28600000000000136,-1.1299999999999955],[0,0],[-1.0300000000000011,-0.31100000000003547],[0,-1.045000000000016],[0,0],[0.11400000000000432,-1.1870000000000118],[0,0],[-0.8010000000000161,-0.5929999999999609],[0.3149999999999977,-1.016999999999996],[0,0],[0.5720000000000027,-1.072999999999979],[0,0],[-0.5440000000000111,-0.8199999999999932],[0.7439999999999998,-0.8190000000000168],[0,0],[0.8580000000000041,-0.7620000000000005],[0,0],[-0.228999999999985,-1.0740000000000123],[1.0020000000000095,-0.5079999999999814],[0,0],[1.0879999999999939,-0.4519999999999982],[0,0],[0.14300000000000068,-1.016999999999996],[1.0580000000000211,-0.16899999999998272],[0,0],[0.6009999999999991,-0.02800000000002001],[0.5729999999999933,0],[0,0],[0.42900000000000205,-0.8190000000000168],[1.0300000000000011,0.19800000000003593],[0,0],[1.1440000000000055,0.3390000000000555],[0,0],[0.7730000000000103,-0.7060000000000173],[0.8870000000000005,0.5090000000000146],[0,0],[0.9159999999999968,0.7060000000000173],[0,0],[1.0019999999999953,-0.424000000000035],[0.60090000000001,0.7629999999999768],[0,0],[0.6580000000000013,1.016999999999996],[0,0],[1.0015999999999963,-0.027999999999963165],[0.3433999999999884,0.9320000000000164],[0,0],[0.286200000000008,1.1859999999999786],[0,0],[1.0301000000000045,0.36700000000001864],[0,1.016999999999996],[0,0],[-0.11450000000000671,1.1870000000000118],[0,0],[0.7727000000000004,0.6220000000000141],[-0.3149000000000086,1.016999999999996],[0,0],[-0.543699999999987,1.0740000000000123],[0,0],[0.5721999999999952,0.9039999999999964],[-0.7441999999999922,0.81899999999996],[0,0],[-0.8870000000000005,0.8190000000000168],[0,0],[0.2289999999999992,1.016999999999996],[-1.0009999999999906,0.5370000000000346],[0,0],[-1.088000000000008,0.4230000000000018],[0,0],[-0.14300000000000068,1.016999999999996],[-1.0870000000000033,0.16900000000003956],[0,0],[-0.6000000000000085,0.028999999999996362]]}}},{"ty":"sh","ks":{"a":0,"k":{"c":true,"v":[[-125.083,383.602],[-116.784,389.308],[-103.535,389.308],[-125.026,370.72],[-133.439,372.359],[-126.743,383.771]],"i":[[-0.5720000000000027,0],[-1.2309999999999945,-3.33299999999997],[0,0],[11.102999999999994,0],[2.5759999999999934,-1.0459999999999923],[0,0]],"o":[[3.8059999999999974,0],[0,0],[-1.4309999999999974,-10.536999999999978],[-3.0050000000000097,0],[0,0],[0.5439999999999969,-0.11299999999999955]]}}},{"ty":"sh","ks":{"a":0,"k":{"c":true,"v":[[-146.717,392.302],[-138.733,409.11],[-131.837,397.924],[-133.897,392.331],[-131.808,386.681],[-138.504,375.325]],"i":[[0,-6.921000000000049],[-4.8940000000000055,-3.9540000000000077],[0,0],[0,2.117999999999995],[-1.288000000000011,1.525000000000034],[0,0]],"o":[[0,6.807999999999993],[0,0],[-1.2870000000000061,-1.5249999999999773],[0,-2.1469999999999914],[0,0],[-5.037000000000006,3.9259999999999877]]}}},{"ty":"sh","ks":{"a":0,"k":{"c":true,"v":[[-125.083,395.579],[-121.764,392.331],[-125.083,389.054],[-128.374,392.331]],"i":[[-1.8320000000000078,0],[0,1.835999999999956],[1.8889999999999958,0],[0,-1.8360000000000127]],"o":[[1.8889999999999958,0],[0,-1.8360000000000127],[-1.8320000000000078,0],[0,1.835999999999956]]}}},{"ty":"sh","ks":{"a":0,"k":{"c":true,"v":[[-125.026,413.885],[-103.506,395.184],[-116.727,395.184],[-125.083,401.031],[-126.8,400.862],[-133.725,412.105]],"i":[[-3.119000000000014,0],[-1.3739999999999952,10.592999999999961],[0,0],[3.891999999999996,0],[0.5439999999999969,0.11299999999999955],[0,0]],"o":[[11.161000000000001,0],[0,0],[-1.1730000000000018,3.4179999999999495],[-0.5720000000000027,0],[0,0],[2.6610000000000014,1.1299999999999955]]}}},{"ty":"st","o":{"a":0,"k":0},"w":{"a":0,"k":0},"c":{"a":0,"k":[0,0,0,0]},"lc":3,"lj":1,"ml":1},{"ty":"fl","o":{"a":0,"k":100},"r":1,"c":{"a":0,"k":[0,0.5019607843137255,0.49411764705882355,1]}},{"ty":"tr","o":{"a":0,"k":100},"a":{"a":0,"k":[0,0]},"s":{"a":0,"k":[100,100]},"p":{"a":0,"k":[158.221,-360.019]},"r":{"a":0,"k":0}}]}],"op":96},{"ty":4,"nm":"Group","ip":0,"st":0,"ind":16,"hix":6,"ks":{"o":{"a":0,"k":100},"or":{"a":0,"k":[0,0,0]},"a":{"a":0,"k":[68.2872543334961,67.3905029296875,0]},"p":{"s":true,"x":{"a":0,"k":111.217},"y":{"a":0,"k":156.42124890136716}},"rx":{"a":0,"k":0},"ry":{"a":0,"k":0},"rz":{"a":0,"k":0},"s":{"a":0,"k":[100,100,100]}},"shapes":[{"ty":"gr","nm":"Group shape group","it":[{"ty":"sh","ks":{"a":0,"k":{"c":true,"v":[[-149.249,324.926],[-193.313,368.99],[-193.313,415.643],[-149.249,459.707],[-100.802,459.707],[-56.7385,415.643],[-56.7385,368.99],[-100.802,324.926]],"i":[[16.149,0],[0.002999999999985903,-24.339],[0,-15.550999999999988],[-24.339,-0.002999999999985903],[-16.148999999999987,0],[-0.002899999999996794,24.339000000000055],[0,15.550999999999988],[24.338600000000014,0.002999999999985903]],"o":[[-24.339,0.002999999999985903],[0,15.550999999999988],[0.002999999999985903,24.339000000000055],[16.149,0],[24.338600000000014,-0.002999999999985903],[0,-15.550999999999988],[-0.002899999999996794,-24.339],[-16.148999999999987,0]]}}},{"ty":"sh","ks":{"a":0,"k":{"c":true,"v":[[-149.249,326.926],[-100.802,326.926],[-58.7385,368.99],[-58.7385,415.643],[-100.802,457.707],[-149.249,457.707],[-191.313,415.643],[-191.313,368.99]],"i":[[-23.22800000000001,-0.002999999999985903],[-16.148999999999987,0],[0.0030000000000001137,-23.22800000000001],[0,-15.550999999999988],[23.227800000000002,0.002999999999985903],[16.149,0],[-0.0030000000000143245,23.22800000000001],[0,15.550999999999988]],"o":[[16.149,0],[23.227800000000002,-0.002999999999985903],[0,15.550999999999988],[0.0030000000000001137,23.22800000000001],[-16.148999999999987,0],[-23.22800000000001,0.002999999999985903],[0,-15.550999999999988],[-0.0030000000000143245,-23.22800000000001]]}}},{"ty":"st","o":{"a":0,"k":0},"w":{"a":0,"k":0},"c":{"a":0,"k":[0,0,0,0]},"lc":3,"lj":1,"ml":1},{"ty":"fl","o":{"a":0,"k":100},"r":1,"c":{"a":0,"k":[0.4823529411764706,0,0.28627450980392155,1]}},{"ty":"tr","o":{"a":0,"k":100},"a":{"a":0,"k":[0,0]},"s":{"a":0,"k":[100,100]},"p":{"a":0,"k":[193.313,-324.926]},"r":{"a":0,"k":0}}]},{"ty":"gr","nm":"Group shape group","it":[{"ty":"sh","ks":{"a":0,"k":{"c":true,"v":[[-149.249,325.926],[-192.313,368.99],[-192.313,415.643],[-149.249,458.707],[-100.802,458.707],[-57.7385,415.643],[-57.7385,368.99],[-100.802,325.926]],"i":[[0,0],[0,-23.783000000000015],[0,0],[-23.783999999999992,0],[0,0],[0,23.783000000000015],[0,0],[23.783200000000008,0]],"o":[[-23.783999999999992,0],[0,0],[0,23.783000000000015],[0,0],[23.783200000000008,0],[0,0],[0,-23.783000000000015],[0,0]]}}},{"ty":"st","o":{"a":0,"k":0},"w":{"a":0,"k":0},"c":{"a":0,"k":[0,0,0,0]},"lc":3,"lj":1,"ml":1},{"ty":"fl","o":{"a":0,"k":100},"r":1,"c":{"a":0,"k":[0,0.6941176470588235,0.6862745098039216,1]}},{"ty":"tr","o":{"a":0,"k":100},"a":{"a":0,"k":[0,0]},"s":{"a":0,"k":[100,100]},"p":{"a":0,"k":[193.313,-324.926]},"r":{"a":0,"k":0}}]}],"op":96},{"ty":4,"nm":"Group","ip":0,"st":0,"ind":15,"hix":7,"ks":{"o":{"a":0,"k":100},"or":{"a":0,"k":[0,0,0]},"a":{"a":0,"k":[15.736045028686524,3.65279541015625,0]},"p":{"s":true,"x":{"a":1,"k":[{"t":0,"s":[55.835],"e":[48.20664504088168],"i":{"x":[0.515],"y":[0.955]},"o":{"x":[0.455],"y":[0.03]}},{"t":54}]},"y":{"a":1,"k":[{"t":0,"s":[88.653],"e":[99.653],"i":{"x":[0.515],"y":[0.955]},"o":{"x":[0.455],"y":[0.03]}},{"t":28,"s":[99.653],"e":[96.573],"i":{"x":[0.515],"y":[0.955]},"o":{"x":[0.455],"y":[0.03]}},{"t":54}]}},"rx":{"a":0,"k":0},"ry":{"a":0,"k":0},"rz":{"a":1,"k":[{"t":0,"s":[0],"e":[-30.939720937064454],"i":{"x":[0.515],"y":[0.955]},"o":{"x":[0.455],"y":[0.03]}},{"t":32,"s":[-30.939720937064454],"e":[14.896902673401405],"i":{"x":[0.515],"y":[0.955]},"o":{"x":[0.455],"y":[0.03]}},{"t":70}]},"s":{"a":0,"k":[100,100,100]}},"shapes":[{"ty":"gr","nm":"Group shape group","it":[{"ty":"sh","ks":{"a":0,"k":{"c":true,"v":[[-182.96,320.983],[-195.53,327.014],[-194.824,328.704],[-189.284,328.799],[-192.269,333.165],[-191.563,334.723],[-186.24,335.364],[-187.01,337.771],[-185.935,339.068],[-176.94,337.959],[-177.185,335.974],[-184.629,336.892],[-183.966,334.82],[-184.799,333.523],[-189.688,332.934],[-186.585,328.396],[-187.393,326.831],[-192.264,326.748],[-182.909,322.982]],"i":[[1.2930000000000064,-0.09300000000001774],[3.2299999999999898,-3.3810000000000286],[-0.8409999999999798,-0.014999999999986358],[-1.8460000000000036,-0.031999999999982265],[0.9950000000000045,-1.455000000000041],[-0.7199999999999989,-0.08699999999998909],[-1.774000000000001,-0.21399999999999864],[0.257000000000005,-0.8020000000000209],[-0.6999999999999886,0.08600000000001273],[-2.9979999999999905,0.37000000000000455],[1.2779999999999916,-0.2189999999999941],[2.4819999999999993,-0.3059999999999832],[-0.22100000000000364,0.6910000000000309],[0.6050000000000182,0.07299999999997908],[1.6299999999999955,0.19599999999996953],[-1.0339999999999918,1.5120000000000005],[0.7680000000000007,0.014000000000010004],[1.6240000000000236,0.02800000000002001],[-3.4020000000000152,0.08099999999996044]],"o":[[-4.888999999999982,0.12999999999999545],[-0.5809999999999889,0.6069999999999709],[1.8470000000000084,0.031999999999982265],[-0.9950000000000045,1.4560000000000173],[-0.4089999999999918,0.5989999999999895],[1.774000000000001,0.21299999999996544],[-0.2560000000000002,0.8020000000000209],[-0.21399999999999864,0.6719999999999686],[2.9989999999999952,-0.37000000000000455],[1.2920000000000016,-0.09800000000001319],[-2.4809999999999945,0.3059999999999832],[0.22100000000000364,-0.6909999999999741],[0.18500000000000227,-0.5799999999999841],[-1.6299999999999955,-0.19600000000002638],[1.0339999999999918,-1.5130000000000337],[0.4339999999999975,-0.6349999999999909],[-1.6239999999999952,-0.02800000000002001],[2.670000000000016,-2.214999999999975],[1.2959999999999923,0.028999999999996362]]}}},{"ty":"st","o":{"a":0,"k":0},"w":{"a":0,"k":0},"c":{"a":0,"k":[0,0,0,0]},"lc":3,"lj":1,"ml":1},{"ty":"fl","o":{"a":0,"k":100},"r":1,"c":{"a":0,"k":[0.4823529411764706,0,0.28627450980392155,1]}},{"ty":"tr","o":{"a":0,"k":100},"a":{"a":0,"k":[0,0]},"s":{"a":0,"k":[100,100]},"p":{"a":0,"k":[196.111,-320.89]},"r":{"a":0,"k":0}}]},{"ty":"gr","nm":"Group shape group","it":[{"ty":"sh","ks":{"a":0,"k":{"c":false,"v":[[-182.934,321.983],[-194.807,327.704],[-187.41,327.831],[-191.443,333.73],[-184.919,334.516],[-186.057,338.076],[-177.062,336.966]],"i":[[0,0],[0,0],[0,0],[0,0],[0,0],[0,0],[0,0]],"o":[[-7.055000000000007,0.17199999999996862],[0,0],[0,0],[0,0],[0,0],[0,0],[0,0]]}}},{"ty":"st","o":{"a":0,"k":0},"w":{"a":0,"k":0},"c":{"a":0,"k":[0,0,0,0]},"lc":3,"lj":1,"ml":1},{"ty":"fl","o":{"a":0,"k":100},"r":1,"c":{"a":0,"k":[1,1,1,1]}},{"ty":"tr","o":{"a":0,"k":100},"a":{"a":0,"k":[0,0]},"s":{"a":0,"k":[100,100]},"p":{"a":0,"k":[196.111,-320.89]},"r":{"a":0,"k":0}}]}],"op":96},{"ty":4,"nm":"Group","ip":0,"st":0,"ind":14,"hix":8,"ks":{"o":{"a":0,"k":100},"or":{"a":0,"k":[0,0,0]},"a":{"a":0,"k":[22.483951568603516,23.466995239257812,0]},"p":{"s":true,"x":{"a":0,"k":185.777},"y":{"a":0,"k":165.90024890136715}},"rx":{"a":0,"k":0},"ry":{"a":0,"k":0},"rz":{"a":0,"k":0},"s":{"a":0,"k":[100,100,100]}},"shapes":[{"ty":"gr","nm":"Group shape group","it":[{"ty":"sh","ks":{"a":0,"k":{"c":true,"v":[[-46.786,416.848],[-44.6406,422.239],[-36.6906,421.687],[-57.6663,379.311],[-59.1213,380.684],[-38.513,420.863],[-42.9534,421.165],[-45.0262,415.905],[-47.847,414.705],[-52.8329,414.147],[-70.7503,406.813],[-71.8264,408.499],[-53.1718,416.118],[-47.9955,416.699],[-46.7466,416.858]],"i":[[0,0],[-0.7738999999999976,-1.217999999999961],[-1.509299999999996,3.2760000000000105],[10.869,11.664000000000044],[-0.9325000000000045,-0.9010000000000105],[8.092599999999997,-17.577999999999975],[1.0474000000000032,1.6889999999999645],[0.6763000000000048,2.5430000000000064],[1.2131000000000043,0.25600000000002865],[2.1289000000000016,0.3650000000000091],[7.5678999999999945,4.829000000000008],[-1.1239999999999952,-0.646000000000015],[-4.476300000000002,-0.7679999999999723],[-1.1788000000000025,-0.08699999999998909],[-0.2126000000000019,-0.05000000000001137]],"o":[[0.638300000000001,2.4739999999999895],[1.9512999999999963,3.0230000000000246],[8.708100000000002,-19.581999999999994],[-0.8440000000000012,-0.9830000000000041],[11.4683,12.021999999999991],[-0.791400000000003,1.8129999999999882],[-0.669399999999996,-1.049000000000035],[-0.9486999999999952,-1.4779999999999518],[-1.194899999999997,-0.08899999999999864],[-4.251999999999995,-0.7330000000000041],[-1.0585999999999984,-0.7479999999999905],[7.7890000000000015,4.9739999999999895],[2.235199999999999,0.38400000000001455],[0.5801999999999978,-0.03899999999998727],[0,0]]}}},{"ty":"st","o":{"a":0,"k":0},"w":{"a":0,"k":0},"c":{"a":0,"k":[0,0,0,0]},"lc":3,"lj":1,"ml":1},{"ty":"fl","o":{"a":0,"k":100},"r":1,"c":{"a":0,"k":[0.4823529411764706,0,0.28627450980392155,1]}},{"ty":"tr","o":{"a":0,"k":100},"a":{"a":0,"k":[0,0]},"s":{"a":0,"k":[100,100]},"p":{"a":0,"k":[72.95,-378.328]},"r":{"a":0,"k":0}}]},{"ty":"gr","nm":"Group shape group","it":[{"ty":"sh","ks":{"a":0,"k":{"c":false,"v":[[-58.3938,379.997],[-37.6018,421.275],[-43.797,421.702],[-45.9925,416.163],[-71.2884,407.656]],"i":[[0,0],[8.400399999999998,-18.579999999999984],[1.4993999999999943,2.3559999999999945],[0.694899999999997,2.608000000000004],[15.357,9.802999999999997]],"o":[[11.168700000000001,11.843999999999994],[-1.1503000000000014,2.5440000000000396],[-0.7475000000000023,-1.1739999999999782],[-0.32209999999999894,-1.2090000000000032],[0,0]]}}},{"ty":"st","o":{"a":0,"k":0},"w":{"a":0,"k":0},"c":{"a":0,"k":[0,0,0,0]},"lc":3,"lj":1,"ml":1},{"ty":"fl","o":{"a":0,"k":100},"r":1,"c":{"a":0,"k":[1,1,1,1]}},{"ty":"tr","o":{"a":0,"k":100},"a":{"a":0,"k":[0,0]},"s":{"a":0,"k":[100,100]},"p":{"a":0,"k":[72.95,-378.328]},"r":{"a":0,"k":0}}]}],"op":96},{"ty":4,"nm":"Path Copy","ip":0,"st":0,"ind":13,"hix":9,"ks":{"o":{"a":0,"k":100},"or":{"a":0,"k":[0,0,0]},"a":{"a":0,"k":[6.030231475830078,3.5465850830078125,0]},"p":{"s":true,"x":{"a":1,"k":[{"t":0,"s":[110.586],"e":[111.01481246948242],"i":{"x":[0.515],"y":[0.955]},"o":{"x":[0.455],"y":[0.03]}},{"t":33,"s":[111.01481246948242],"e":[103.3864575103641],"i":{"x":[0.515],"y":[0.955]},"o":{"x":[0.455],"y":[0.03]}},{"t":54}]},"y":{"a":1,"k":[{"t":0,"s":[72.3242489013672],"e":[76.999],"i":{"x":[0.515],"y":[0.955]},"o":{"x":[0.455],"y":[0.03]}},{"t":28,"s":[76.999],"e":[65.69688952636722],"i":{"x":[0.515],"y":[0.955]},"o":{"x":[0.455],"y":[0.03]}},{"t":33,"s":[65.69688952636722],"e":[65.051],"i":{"x":[0.515],"y":[0.955]},"o":{"x":[0.455],"y":[0.03]}},{"t":54,"s":[65.051],"e":[70.13588488769534],"i":{"x":[0.515],"y":[0.955]},"o":{"x":[0.455],"y":[0.03]}},{"t":73}]}},"rx":{"a":0,"k":0},"ry":{"a":0,"k":0},"rz":{"a":0,"k":0},"s":{"a":0,"k":[100,100,100]}},"shapes":[{"ty":"gr","nm":"Path Copy shape group","it":[{"ty":"sh","ks":{"a":0,"k":{"c":true,"v":[[-129.832,311.317],[-120.814,306.817],[-120.392,304.862],[-131.497,310.209]],"i":[[-0.6659999999999968,1.1119999999999663],[-3.436000000000007,-0.7769999999999868],[1.2789999999999964,0.21399999999999864],[2.3070000000000164,-3.451999999999998]],"o":[[1.9849999999999994,-3.002999999999986],[1.2519999999999953,0.33299999999997],[-4.608000000000004,-0.9620000000000459],[-0.7679999999999723,1.045000000000016]]}}},{"ty":"st","o":{"a":0,"k":0},"w":{"a":0,"k":0},"c":{"a":0,"k":[0,0,0,0]},"lc":3,"lj":1,"ml":1},{"ty":"fl","o":{"a":0,"k":100},"r":1,"c":{"a":0,"k":[0.4823529411764706,0,0.28627450980392155,1]}},{"ty":"tr","o":{"a":0,"k":100},"a":{"a":0,"k":[0,0]},"s":{"a":0,"k":[100,100]},"p":{"a":0,"k":[131.687,-304.673]},"r":{"a":0,"k":0}}]}],"op":96},{"ty":4,"nm":"Path","ip":0,"st":0,"ind":12,"hix":10,"ks":{"o":{"a":0,"k":100},"or":{"a":0,"k":[0,0,0]},"a":{"a":0,"k":[6.591644287109375,2.0778656005859375,0]},"p":{"s":true,"x":{"a":1,"k":[{"t":0,"s":[82.753],"e":[83.18181246948242],"i":{"x":[0.515],"y":[0.955]},"o":{"x":[0.455],"y":[0.03]}},{"t":33,"s":[83.18181246948242],"e":[75.5534575103641],"i":{"x":[0.515],"y":[0.955]},"o":{"x":[0.455],"y":[0.03]}},{"t":54}]},"y":{"a":1,"k":[{"t":0,"s":[76.71724890136717],"e":[81.392],"i":{"x":[0.515],"y":[0.955]},"o":{"x":[0.455],"y":[0.03]}},{"t":28,"s":[81.392],"e":[70.08988952636719],"i":{"x":[0.515],"y":[0.955]},"o":{"x":[0.455],"y":[0.03]}},{"t":33,"s":[70.08988952636719],"e":[69.444],"i":{"x":[0.515],"y":[0.955]},"o":{"x":[0.455],"y":[0.03]}},{"t":54,"s":[69.444],"e":[74.52888488769531],"i":{"x":[0.515],"y":[0.955]},"o":{"x":[0.455],"y":[0.03]}},{"t":73}]}},"rx":{"a":0,"k":0},"ry":{"a":0,"k":0},"rz":{"a":0,"k":0},"s":{"a":0,"k":[100,100,100]}},"shapes":[{"ty":"gr","nm":"Path shape group","it":[{"ty":"sh","ks":{"a":0,"k":{"c":true,"v":[[-147.339,312.842],[-159.641,312.069],[-158.514,313.721],[-148.465,314.495]],"i":[[1.103999999999985,0.6790000000000305],[3.9069999999999823,-2.626000000000033],[-1.0349999999999966,0.7799999999999727],[-2.969999999999999,-2.033999999999992]],"o":[[-3.437999999999988,-2.3290000000000077],[-1.1040000000000134,0.6800000000000068],[2.891999999999996,-2.012999999999977],[1.0360000000000014,0.7789999999999964]]}}},{"ty":"st","o":{"a":0,"k":0},"w":{"a":0,"k":0},"c":{"a":0,"k":[0,0,0,0]},"lc":3,"lj":1,"ml":1},{"ty":"fl","o":{"a":0,"k":100},"r":1,"c":{"a":0,"k":[0.4823529411764706,0,0.28627450980392155,1]}},{"ty":"tr","o":{"a":0,"k":100},"a":{"a":0,"k":[0,0]},"s":{"a":0,"k":[100,100]},"p":{"a":0,"k":[160.081,-310.535]},"r":{"a":0,"k":0}}]}],"op":96},{"ty":4,"nm":"Group","ip":0,"st":0,"ind":11,"hix":11,"ks":{"o":{"a":0,"k":100},"or":{"a":0,"k":[0,0,0]},"a":{"a":0,"k":[10.686550521850586,19.420660400390627,0]},"p":{"s":true,"x":{"a":1,"k":[{"t":0,"s":[90.116],"e":[82.48764504088166],"i":{"x":[0.515],"y":[0.955]},"o":{"x":[0.455],"y":[0.03]}},{"t":54}]},"y":{"a":1,"k":[{"t":0,"s":[50.359],"e":[61.359],"i":{"x":[0.515],"y":[0.955]},"o":{"x":[0.455],"y":[0.03]}},{"t":28,"s":[61.359],"e":[58.279],"i":{"x":[0.515],"y":[0.955]},"o":{"x":[0.455],"y":[0.03]}},{"t":54}]}},"rx":{"a":0,"k":0},"ry":{"a":0,"k":0},"rz":{"a":1,"k":[{"t":0,"s":[0],"e":[37.81521447863434],"i":{"x":[0.515],"y":[0.955]},"o":{"x":[0.455],"y":[0.03]}},{"t":41,"s":[37.81521447863434],"e":[-19.48056503444799],"i":{"x":[0.515],"y":[0.955]},"o":{"x":[0.455],"y":[0.03]}},{"t":81}]},"s":{"a":0,"k":[100,100,100]}},"shapes":[{"ty":"gr","nm":"Group shape group","it":[{"ty":"sh","ks":{"a":0,"k":{"c":true,"v":[[-154.62,280.477],[-145.612,269.33],[-147.154,276.737],[-145.545,277.72],[-136.574,270.421],[-137.424,281.21],[-135.43,281.367],[-134.396,268.25],[-136.024,267.396],[-144.61,274.381],[-143.355,268.46],[-144.327,267.253],[-156.604,280.223]],"i":[[-0.10300000000000864,1.2909999999999968],[-4.983000000000004,0.7100000000000364],[0.5200000000000102,-2.451999999999998],[-0.7060000000000173,0.5739999999999554],[-2.9899999999999807,2.4329999999999927],[0.28400000000002024,-3.5960000000000036],[-0.04099999999999682,1.2959999999999923],[-0.3450000000000273,4.3729999999999905],[0.657999999999987,-0.535000000000025],[2.862000000000023,-2.3279999999999745],[-0.41900000000001114,1.9740000000000464],[0.6090000000000089,-0.0020000000000095497],[0.7870000000000061,-6.059000000000026]],"o":[[0.632000000000005,-5.052999999999997],[-0.5030000000000143,2.5030000000000427],[-0.18899999999999295,0.8899999999999864],[2.9909999999999854,-2.4330000000000496],[-0.28299999999998704,3.59699999999998],[-0.16200000000000614,1.2860000000000014],[0.34499999999999886,-4.372000000000014],[0.06599999999997408,-0.8460000000000036],[-2.8619999999999948,2.3279999999999745],[0.41800000000000637,-1.9739999999999895],[0.1279999999999859,-0.6049999999999613],[-7.229000000000013,0.023000000000024556],[-0.22399999999998954,1.2769999999999868]]}}},{"ty":"st","o":{"a":0,"k":0},"w":{"a":0,"k":0},"c":{"a":0,"k":[0,0,0,0]},"lc":3,"lj":1,"ml":1},{"ty":"fl","o":{"a":0,"k":100},"r":1,"c":{"a":0,"k":[0.4823529411764706,0,0.28627450980392155,1]}},{"ty":"tr","o":{"a":0,"k":100},"a":{"a":0,"k":[0,0]},"s":{"a":0,"k":[100,100]},"p":{"a":0,"k":[156.828,-266.861]},"r":{"a":0,"k":0}}]},{"ty":"gr","nm":"Group shape group","it":[{"ty":"sh","ks":{"a":0,"k":{"c":false,"v":[[-155.612,280.35],[-144.334,268.253],[-146.176,276.944],[-135.393,268.172],[-136.427,281.289]],"i":[[0,0],[0,0],[0,0],[0,0],[0,0]],"o":[[2.2210000000000036,-12.617999999999995],[0,0],[0,0],[0,0],[0,0]]}}},{"ty":"st","o":{"a":0,"k":0},"w":{"a":0,"k":0},"c":{"a":0,"k":[0,0,0,0]},"lc":3,"lj":1,"ml":1},{"ty":"fl","o":{"a":0,"k":100},"r":1,"c":{"a":0,"k":[1,1,1,1]}},{"ty":"tr","o":{"a":0,"k":100},"a":{"a":0,"k":[0,0]},"s":{"a":0,"k":[100,100]},"p":{"a":0,"k":[156.828,-266.861]},"r":{"a":0,"k":0}}]}],"op":96},{"ty":4,"nm":"Group","ip":0,"st":0,"ind":10,"hix":12,"ks":{"o":{"a":0,"k":100},"or":{"a":0,"k":[0,0,0]},"a":{"a":0,"k":[-2.289176773071289,14.078109985351562,0]},"p":{"s":true,"x":{"a":1,"k":[{"t":0,"s":[137.361],"e":[129.73264504088166],"i":{"x":[0.515],"y":[0.955]},"o":{"x":[0.455],"y":[0.03]}},{"t":54}]},"y":{"a":1,"k":[{"t":0,"s":[73.702],"e":[84.702],"i":{"x":[0.515],"y":[0.955]},"o":{"x":[0.455],"y":[0.03]}},{"t":28,"s":[84.702],"e":[81.622],"i":{"x":[0.515],"y":[0.955]},"o":{"x":[0.455],"y":[0.03]}},{"t":54}]}},"rx":{"a":0,"k":0},"ry":{"a":0,"k":0},"rz":{"a":1,"k":[{"t":0,"s":[0],"e":[43.54479242994257],"i":{"x":[0.515],"y":[0.955]},"o":{"x":[0.455],"y":[0.03]}},{"t":41,"s":[43.54479242994257],"e":[-2.291831180523293],"i":{"x":[0.515],"y":[0.955]},"o":{"x":[0.455],"y":[0.03]}},{"t":73}]},"s":{"a":0,"k":[100,100,100]}},"shapes":[{"ty":"gr","nm":"Group shape group","it":[{"ty":"sh","ks":{"a":0,"k":{"c":true,"v":[[-94.6031,299.612],[-80.9998,299.745],[-87.3182,302.479],[-87.4781,304.232],[-81.3171,308.314],[-87.1469,311.543],[-87.43,313.059],[-85.4022,315.489],[-94.962,318.066],[-94.4414,319.997],[-83.373,317.013],[-82.8655,315.407],[-85.1192,312.706],[-78.9066,309.265],[-78.8389,307.556],[-84.8261,303.59],[-77.9267,300.647],[-77.9087,298.815],[-95.3091,297.741]],"i":[[-1.1898000000000053,0.5139999999999532],[-4.41940000000001,-1.495999999999981],[2.1006,-0.8959999999999582],[-0.6407999999999987,-0.424000000000035],[-2.0537000000000063,-1.3610000000000468],[1.9433000000000078,-1.0760000000000218],[-0.3906999999999954,-0.46800000000001774],[-0.6759000000000128,-0.8100000000000023],[3.1865999999999985,-0.8589999999999804],[-1.2343000000000046,0.3949999999999818],[-3.6894999999999953,0.9950000000000045],[0.45189999999999486,0.5409999999999968],[0.7512000000000114,0.9010000000000105],[-2.070900000000009,1.1469999999999914],[0.6043999999999983,0.40100000000001046],[1.9956999999999994,1.3220000000000027],[-2.2998000000000047,0.9809999999999945],[0.7667000000000002,0.3450000000000273],[5.7059,-2.145999999999958]],"o":[[4.308799999999991,-1.6310000000000286],[-2.117200000000011,0.9420000000000073],[-0.7068999999999903,0.3009999999999877],[2.053600000000003,1.36099999999999],[-1.9432000000000045,1.075999999999965],[-0.533299999999997,0.29599999999999227],[0.6759000000000128,0.8100000000000023],[-3.1866000000000128,0.8590000000000373],[-1.2657999999999987,0.27800000000002],[3.6894000000000062,-0.9950000000000045],[0.6810000000000116,-0.18299999999999272],[-0.7511999999999972,-0.8999999999999773],[2.070900000000009,-1.1469999999999914],[0.6341999999999928,-0.35199999999997544],[-1.9958000000000027,-1.3220000000000027],[2.2997999999999905,-0.9809999999999945],[0.773699999999991,-0.3299999999999841],[-5.3452000000000055,-2.4010000000000105],[-1.2326999999999941,0.4000000000000341]]}}},{"ty":"st","o":{"a":0,"k":0},"w":{"a":0,"k":0},"c":{"a":0,"k":[0,0,0,0]},"lc":3,"lj":1,"ml":1},{"ty":"fl","o":{"a":0,"k":100},"r":1,"c":{"a":0,"k":[0.4823529411764706,0,0.28627450980392155,1]}},{"ty":"tr","o":{"a":0,"k":100},"a":{"a":0,"k":[0,0]},"s":{"a":0,"k":[100,100]},"p":{"a":0,"k":[96.542,-295.519]},"r":{"a":0,"k":0}}]},{"ty":"gr","nm":"Group shape group","it":[{"ty":"sh","ks":{"a":0,"k":{"c":false,"v":[[-94.9561,298.677],[-78.319,299.727],[-86.9259,303.398],[-79.3912,308.39],[-86.6623,312.418],[-83.6333,316.048],[-94.7017,319.031]],"i":[[0,0],[0,0],[0,0],[0,0],[0,0],[0,0],[0,0]],"o":[[8.348600000000005,-3.1580000000000155],[0,0],[0,0],[0,0],[0,0],[0,0],[0,0]]}}},{"ty":"st","o":{"a":0,"k":0},"w":{"a":0,"k":0},"c":{"a":0,"k":[0,0,0,0]},"lc":3,"lj":1,"ml":1},{"ty":"fl","o":{"a":0,"k":100},"r":1,"c":{"a":0,"k":[1,1,1,1]}},{"ty":"tr","o":{"a":0,"k":100},"a":{"a":0,"k":[0,0]},"s":{"a":0,"k":[100,100]},"p":{"a":0,"k":[96.542,-295.519]},"r":{"a":0,"k":0}}]}],"op":96},{"ty":4,"nm":"Group","ip":0,"st":0,"ind":9,"hix":13,"ks":{"o":{"a":0,"k":100},"or":{"a":0,"k":[0,0,0]},"a":{"a":0,"k":[6.219001770019531,5.032501220703125,0]},"p":{"s":true,"x":{"a":1,"k":[{"t":0,"s":[64.64],"e":[57.011645040881675],"i":{"x":[0.515],"y":[0.955]},"o":{"x":[0.455],"y":[0.03]}},{"t":54}]},"y":{"a":1,"k":[{"t":0,"s":[82.99324890136718],"e":[93.993],"i":{"x":[0.515],"y":[0.955]},"o":{"x":[0.455],"y":[0.03]}},{"t":28,"s":[93.993],"e":[90.913],"i":{"x":[0.515],"y":[0.955]},"o":{"x":[0.455],"y":[0.03]}},{"t":54}]}},"rx":{"a":0,"k":0},"ry":{"a":0,"k":0},"rz":{"a":0,"k":0},"s":{"a":0,"k":[100,100,100]}},"shapes":[{"ty":"gr","nm":"Group shape group","it":[{"ty":"sh","ks":{"a":0,"k":{"c":true,"v":[[-171.097,314.21],[-165.663,319.53],[-172.108,323.567],[-177.543,318.247]],"i":[[-3.2809999999999775,-0.353999999999985],[0.2790000000000248,-2.5839999999999463],[3.281000000000006,0.353999999999985],[-0.27899999999999636,2.584000000000003]],"o":[[3.280000000000001,0.3550000000000182],[-0.27899999999999636,2.584000000000003],[-3.280000000000001,-0.3550000000000182],[0.28000000000000114,-2.584000000000003]]}}},{"ty":"st","o":{"a":0,"k":100},"c":{"a":0,"k":[0,0,0,1]},"lc":2,"lj":2,"ml":10,"w":{"a":0,"k":0}},{"ty":"fl","o":{"a":0,"k":0},"c":{"a":0,"k":[0,0,0,0]},"r":1},{"ty":"tr","o":{"a":0,"k":100},"a":{"a":0,"k":[0,0]},"s":{"a":0,"k":[100,100]},"p":{"a":0,"k":[177.822,-313.856]},"r":{"a":0,"k":0}}]},{"ty":"gr","nm":"Group shape group","it":[{"ty":"sh","ks":{"a":0,"k":{"c":true,"v":[[-171.097,314.21],[-165.663,319.53],[-172.108,323.567],[-177.543,318.247]],"i":[[-3.2809999999999775,-0.353999999999985],[0.2790000000000248,-2.5839999999999463],[3.281000000000006,0.353999999999985],[-0.27899999999999636,2.584000000000003]],"o":[[3.280000000000001,0.3550000000000182],[-0.27899999999999636,2.584000000000003],[-3.280000000000001,-0.3550000000000182],[0.28000000000000114,-2.584000000000003]]}}},{"ty":"st","o":{"a":0,"k":0},"w":{"a":0,"k":0},"c":{"a":0,"k":[0,0,0,0]},"lc":3,"lj":1,"ml":1},{"ty":"fl","o":{"a":0,"k":100},"r":2,"c":{"a":0,"k":[1,0.5764705882352941,0.11372549019607843,1]}},{"ty":"tr","o":{"a":0,"k":98},"a":{"a":0,"k":[0,0]},"s":{"a":0,"k":[100,100]},"p":{"a":0,"k":[177.822,-313.856]},"r":{"a":0,"k":0}}]}],"op":96},{"ty":4,"nm":"Group","ip":0,"st":0,"ind":8,"hix":14,"ks":{"o":{"a":0,"k":100},"or":{"a":0,"k":[0,0,0]},"a":{"a":0,"k":[6.4524993896484375,5.735504150390625,0]},"p":{"s":true,"x":{"a":1,"k":[{"t":0,"s":[126.87999999999998],"e":[119.25164504088166],"i":{"x":[0.515],"y":[0.955]},"o":{"x":[0.455],"y":[0.03]}},{"t":54}]},"y":{"a":1,"k":[{"t":0,"s":[74.1272489013672],"e":[85.127],"i":{"x":[0.515],"y":[0.955]},"o":{"x":[0.455],"y":[0.03]}},{"t":28,"s":[85.127],"e":[82.047],"i":{"x":[0.515],"y":[0.955]},"o":{"x":[0.455],"y":[0.03]}},{"t":54}]}},"rx":{"a":0,"k":0},"ry":{"a":0,"k":0},"rz":{"a":0,"k":0},"s":{"a":0,"k":[100,100,100]}},"shapes":[{"ty":"gr","nm":"Group shape group","it":[{"ty":"sh","ks":{"a":0,"k":{"c":true,"v":[[-111.819,306.009],[-104.266,306.904],[-106.906,314.036],[-114.458,313.141]],"i":[[-2.813999999999993,1.7230000000000132],[-1.3569999999999993,-2.216000000000008],[2.814000000000007,-1.72199999999998],[1.3559999999999945,2.2169999999999845]],"o":[[2.8149999999999977,-1.7220000000000368],[1.3560000000000088,2.2169999999999845],[-2.8149999999999977,1.72199999999998],[-1.3569999999999993,-2.216000000000008]]}}},{"ty":"st","o":{"a":0,"k":100},"c":{"a":0,"k":[0,0,0,1]},"lc":2,"lj":2,"ml":10,"w":{"a":0,"k":0}},{"ty":"fl","o":{"a":0,"k":0},"c":{"a":0,"k":[0,0,0,0]},"r":1},{"ty":"tr","o":{"a":0,"k":100},"a":{"a":0,"k":[0,0]},"s":{"a":0,"k":[100,100]},"p":{"a":0,"k":[115.815,-304.287]},"r":{"a":0,"k":0}}]},{"ty":"gr","nm":"Group shape group","it":[{"ty":"sh","ks":{"a":0,"k":{"c":true,"v":[[-111.819,306.009],[-104.266,306.904],[-106.906,314.036],[-114.458,313.141]],"i":[[-2.813999999999993,1.7230000000000132],[-1.3569999999999993,-2.216000000000008],[2.814000000000007,-1.72199999999998],[1.3559999999999945,2.2169999999999845]],"o":[[2.8149999999999977,-1.7220000000000368],[1.3560000000000088,2.2169999999999845],[-2.8149999999999977,1.72199999999998],[-1.3569999999999993,-2.216000000000008]]}}},{"ty":"st","o":{"a":0,"k":0},"w":{"a":0,"k":0},"c":{"a":0,"k":[0,0,0,0]},"lc":3,"lj":1,"ml":1},{"ty":"fl","o":{"a":0,"k":100},"r":2,"c":{"a":0,"k":[1,0.5764705882352941,0.11372549019607843,1]}},{"ty":"tr","o":{"a":0,"k":98},"a":{"a":0,"k":[0,0]},"s":{"a":0,"k":[100,100]},"p":{"a":0,"k":[115.815,-304.287]},"r":{"a":0,"k":0}}]}],"op":96},{"ty":4,"nm":"Group","ip":0,"st":0,"ind":7,"hix":15,"ks":{"o":{"a":0,"k":100},"or":{"a":0,"k":[0,0,0]},"a":{"a":0,"k":[57.27824783325195,45.821502685546875,0]},"p":{"s":true,"x":{"a":1,"k":[{"t":0,"s":[104.306],"e":[96.67764504088167],"i":{"x":[0.515],"y":[0.955]},"o":{"x":[0.455],"y":[0.03]}},{"t":54}]},"y":{"a":1,"k":[{"t":0,"s":[79.06024890136719],"e":[90.06],"i":{"x":[0.515],"y":[0.955]},"o":{"x":[0.455],"y":[0.03]}},{"t":28,"s":[90.06],"e":[86.98],"i":{"x":[0.515],"y":[0.955]},"o":{"x":[0.455],"y":[0.03]}},{"t":54}]}},"rx":{"a":0,"k":0},"ry":{"a":0,"k":0},"rz":{"a":0,"k":0},"s":{"a":0,"k":[100,100,100]}},"shapes":[{"ty":"gr","nm":"Group shape group","it":[{"ty":"sh","ks":{"a":0,"k":{"c":true,"v":[[-148.554,275.468],[-187.418,322.625],[-133.405,341.687],[-89.8361,302.043]],"i":[[27.78,-6.334000000000003],[1.7650000000000148,-23.680000000000007],[-26.346000000000004,5.123999999999967],[8.249499999999998,19.86700000000002]],"o":[[-19.090000000000003,4.363999999999976],[-1.0559999999999832,20.505999999999972],[26.323000000000008,-5.290999999999997],[-8.652699999999996,-19.920000000000016]]}}},{"ty":"sh","ks":{"a":0,"k":{"c":true,"v":[[-148.111,277.419],[-91.6697,302.842],[-133.794,339.725],[-185.424,322.771]],"i":[[-18.15300000000002,4.093000000000018],[-8.317599999999999,-19.039999999999964],[26.233000000000004,-5.1200000000000045],[-1.7379999999999995,17.57299999999998]],"o":[[26.966999999999985,-6.097999999999956],[7.84490000000001,17.081999999999994],[-26.20999999999998,5.286000000000001],[1.6410000000000196,-22.727000000000032]]}}},{"ty":"st","o":{"a":0,"k":0},"w":{"a":0,"k":0},"c":{"a":0,"k":[0,0,0,0]},"lc":3,"lj":1,"ml":1},{"ty":"fl","o":{"a":0,"k":100},"r":1,"c":{"a":0,"k":[0.4823529411764706,0,0.28627450980392155,1]}},{"ty":"tr","o":{"a":0,"k":100},"a":{"a":0,"k":[0,0]},"s":{"a":0,"k":[100,100]},"p":{"a":0,"k":[189.215,-269.134]},"r":{"a":0,"k":0}}]},{"ty":"gr","nm":"Group shape group","it":[{"ty":"sh","ks":{"a":0,"k":{"c":true,"v":[[-148.333,276.443],[-186.421,322.698],[-90.7529,302.442]],"i":[[27.373999999999995,-6.216000000000008],[1.703000000000003,-23.20399999999995],[16.094399999999993,36.94999999999999]],"o":[[-18.62100000000001,4.229000000000042],[-2.794000000000011,38.07900000000001],[-8.485200000000006,-19.480000000000018]]}}},{"ty":"st","o":{"a":0,"k":0},"w":{"a":0,"k":0},"c":{"a":0,"k":[0,0,0,0]},"lc":3,"lj":1,"ml":1},{"ty":"fl","o":{"a":0,"k":100},"r":1,"c":{"a":0,"k":[1,1,1,1]}},{"ty":"tr","o":{"a":0,"k":100},"a":{"a":0,"k":[0,0]},"s":{"a":0,"k":[100,100]},"p":{"a":0,"k":[189.215,-269.134]},"r":{"a":0,"k":0}}]}],"op":96},{"ty":4,"nm":"Group","ip":0,"st":0,"ind":6,"hix":16,"ks":{"o":{"a":0,"k":100},"or":{"a":0,"k":[0,0,0]},"a":{"a":0,"k":[14.679000854492188,20.495498657226562,0]},"p":{"s":true,"x":{"a":1,"k":[{"t":0,"s":[118.991],"e":[111.36264504088167],"i":{"x":[0.515],"y":[0.955]},"o":{"x":[0.455],"y":[0.03]}},{"t":54}]},"y":{"a":1,"k":[{"t":0,"s":[44.28424890136718],"e":[55.284],"i":{"x":[0.515],"y":[0.955]},"o":{"x":[0.455],"y":[0.03]}},{"t":28,"s":[55.284],"e":[52.204],"i":{"x":[0.515],"y":[0.955]},"o":{"x":[0.455],"y":[0.03]}},{"t":54}]}},"rx":{"a":0,"k":0},"ry":{"a":0,"k":0},"rz":{"a":0,"k":0},"s":{"a":0,"k":[100,100,100]}},"shapes":[{"ty":"gr","nm":"Group shape group","it":[{"ty":"sh","ks":{"a":0,"k":{"c":true,"v":[[-128.986,278.434],[-128.183,277.133],[-123.509,270.766],[-112.654,261.705],[-112.935,261.645],[-109.618,267.226],[-106.861,280.335],[-104.851,296.999],[-115.649,288.026],[-124.756,280.957]],"i":[[1.715999999999994,0.5399999999999636],[-0.3269999999999982,0.5030000000000427],[-1.9120000000000061,2.356999999999971],[-2.0130000000000052,-0.37599999999997635],[0.0940000000000083,0.020000000000038654],[-0.7390000000000043,-2.415999999999997],[-0.6929999999999978,-4.4669999999999845],[-0.5079999999999956,-5.576999999999998],[3.635000000000005,2.944999999999993],[3.171999999999997,2.2210000000000036]],"o":[[0.20300000000000296,-0.35400000000004184],[1.0799999999999983,-1.6649999999999636],[3.7319999999999993,-4.737000000000023],[-0.0940000000000083,-0.01999999999998181],[1.835000000000008,0.5930000000000177],[1.3729999999999905,4.197999999999979],[0.8580000000000041,5.525000000000034],[-3.5730000000000075,-3.031000000000006],[-2.9639999999999986,-2.4010000000000105],[-1.2129999999999939,-0.8310000000000173]]}}},{"ty":"sh","ks":{"a":0,"k":{"c":true,"v":[[-129.678,279.907],[-130.378,280.044],[-125.903,282.595],[-116.908,289.58],[-104.292,300.114],[-102.645,299.271],[-104.885,280.028],[-107.717,266.605],[-112.239,259.77],[-112.52,259.71],[-125.062,269.506],[-129.861,276.045],[-131.091,278.127],[-131.358,278.971],[-130.557,280.073],[-129.951,280.043]],"i":[[0,0],[0.23299999999997567,-0.04499999999995907],[-1.5759999999999934,-1.1240000000000236],[-2.971999999999994,-2.4079999999999586],[-4.1640000000000015,-3.5639999999999645],[0.07200000000000273,0.8589999999999804],[0.9930000000000092,6.387999999999977],[1.438999999999993,4.406000000000006],[3.182000000000002,1.2690000000000055],[0.06999999999999318,0],[4.015999999999991,-4.808999999999969],[1.127999999999986,-1.7370000000000232],[0.24899999999999523,-0.5120000000000005],[0.046999999999997044,-0.4159999999999968],[-0.7550000000000239,-0.18099999999998317],[-0.12700000000000955,0.04399999999998272]],"o":[[-0.2330000000000041,0.04599999999999227],[1.4559999999999889,0.22900000000004184],[3.0870000000000033,2.1609999999999445],[4.2549999999999955,3.4470000000000027],[0.6550000000000011,0.5610000000000355],[-0.541000000000011,-6.430000000000007],[-0.6949999999999932,-4.465000000000032],[-0.7660000000000053,-2.1860000000000355],[-0.09899999999998954,-0.03999999999996362],[-3.9639999999999986,-0.025999999999953616],[-1.960000000000008,2.4160000000000537],[-0.5649999999999977,0.8719999999999573],[-0.12199999999998568,0.2799999999999727],[-0.03899999999998727,0.12599999999997635],[0.2980000000000018,0.040000000000020464],[0,0]]}}},{"ty":"st","o":{"a":0,"k":0},"w":{"a":0,"k":0},"c":{"a":0,"k":[0,0,0,0]},"lc":3,"lj":1,"ml":1},{"ty":"fl","o":{"a":0,"k":100},"r":1,"c":{"a":0,"k":[0.4823529411764706,0,0.28627450980392155,1]}},{"ty":"tr","o":{"a":0,"k":100},"a":{"a":0,"k":[0,0]},"s":{"a":0,"k":[100,100]},"p":{"a":0,"k":[131.931,-259.684]},"r":{"a":0,"k":0}}]},{"ty":"gr","nm":"Group shape group","it":[{"ty":"sh","ks":{"a":0,"k":{"c":true,"v":[[-130.208,279.059],[-112.587,260.707],[-103.642,299.354]],"i":[[1.7229999999999848,-1.0760000000000218],[-5.97699999999999,-0.40100000000001046],[0,0]],"o":[[-1.7230000000000132,1.075999999999965],[5.977000000000004,0.4019999999999868],[0,0]]}}},{"ty":"st","o":{"a":0,"k":0},"w":{"a":0,"k":0},"c":{"a":0,"k":[0,0,0,0]},"lc":3,"lj":1,"ml":1},{"ty":"fl","o":{"a":0,"k":100},"r":1,"c":{"a":0,"k":[0.8627450980392157,0.3215686274509804,0.09803921568627451,1]}},{"ty":"tr","o":{"a":0,"k":100},"a":{"a":0,"k":[0,0]},"s":{"a":0,"k":[100,100]},"p":{"a":0,"k":[131.931,-259.684]},"r":{"a":0,"k":0}}]}],"op":96},{"ty":4,"nm":"Group","ip":0,"st":0,"ind":5,"hix":17,"ks":{"o":{"a":0,"k":100},"or":{"a":0,"k":[0,0,0]},"a":{"a":0,"k":[23.949352264404297,31.408004760742188,0]},"p":{"s":true,"x":{"a":1,"k":[{"t":0,"s":[120.51899999999999],"e":[112.89064504088167],"i":{"x":[0.515],"y":[0.955]},"o":{"x":[0.455],"y":[0.03]}},{"t":54}]},"y":{"a":1,"k":[{"t":0,"s":[45.091248901367194],"e":[56.091],"i":{"x":[0.515],"y":[0.955]},"o":{"x":[0.455],"y":[0.03]}},{"t":28,"s":[56.091],"e":[53.011],"i":{"x":[0.515],"y":[0.955]},"o":{"x":[0.455],"y":[0.03]}},{"t":54}]}},"rx":{"a":0,"k":0},"ry":{"a":0,"k":0},"rz":{"a":0,"k":0},"s":{"a":0,"k":[100,100,100]}},"shapes":[{"ty":"gr","nm":"Group shape group","it":[{"ty":"sh","ks":{"a":0,"k":{"c":true,"v":[[-137.675,278.012],[-126.407,263.165],[-109.833,253.79],[-99.7688,276.866],[-102.581,303.416],[-123.538,295.144],[-133.663,284.552]],"i":[[-0.15399999999999636,0.42200000000002547],[-6.159000000000006,5.935999999999979],[-3.046999999999997,-1.5120000000000005],[-1.9902000000000015,-11.236999999999966],[4.501599999999996,-3.380999999999972],[7.807999999999993,7.038000000000011],[2.598000000000013,3.2649999999999864]],"o":[[-0.11899999999999977,-1.511000000000024],[6.090000000000003,-6.103000000000009],[3.334000000000003,1.0560000000000116],[2.164199999999994,11.249000000000024],[-3.9549999999999983,3.605000000000018],[-3.9170000000000016,-3.458000000000027],[-2.6049999999999898,-3.1899999999999977]]}}},{"ty":"sh","ks":{"a":0,"k":{"c":true,"v":[[-139.673,277.933],[-135.228,285.797],[-124.862,296.643],[-101.326,304.973],[-97.8023,276.501],[-109.096,251.931],[-127.806,261.736]],"i":[[0.30400000000000205,-3.1159999999999854],[-2.671999999999997,-3.441000000000031],[-4.01400000000001,-3.544999999999959],[-6.224000000000004,4.59499999999997],[2.0652000000000044,11.548000000000002],[4.950000000000003,2.2269999999999754],[6.399000000000001,-6.11699999999999]],"o":[[0.06100000000000705,1.8910000000000196],[2.679000000000002,3.3659999999999854],[8.052999999999997,6.966000000000008],[5.677499999999995,-4.819000000000017],[-2.2386999999999944,-11.560000000000002],[-5.23599999999999,-1.7700000000000102],[-6.3289999999999935,6.283999999999992]]}}},{"ty":"st","o":{"a":0,"k":0},"w":{"a":0,"k":0},"c":{"a":0,"k":[0,0,0,0]},"lc":3,"lj":1,"ml":1},{"ty":"fl","o":{"a":0,"k":100},"r":1,"c":{"a":0,"k":[0.4823529411764706,0,0.28627450980392155,1]}},{"ty":"tr","o":{"a":0,"k":100},"a":{"a":0,"k":[0,0]},"s":{"a":0,"k":[100,100]},"p":{"a":0,"k":[139.673,-249.578]},"r":{"a":0,"k":0}}]},{"ty":"gr","nm":"Group shape group","it":[{"ty":"sh","ks":{"a":0,"k":{"c":true,"v":[[-138.674,277.972],[-109.464,252.861],[-101.954,304.195]],"i":[[-0.1839999999999975,4.6270000000000095],[-8.284000000000006,-3.282999999999987],[10.179699999999997,-8.199999999999989]],"o":[[0.1839999999999975,-4.625999999999976],[8.283000000000001,3.2819999999999823],[-10.179000000000002,8.199000000000012]]}}},{"ty":"st","o":{"a":0,"k":0},"w":{"a":0,"k":0},"c":{"a":0,"k":[0,0,0,0]},"lc":3,"lj":1,"ml":1},{"ty":"fl","o":{"a":0,"k":100},"r":1,"c":{"a":0,"k":[1,0.5764705882352941,0.11372549019607843,1]}},{"ty":"tr","o":{"a":0,"k":100},"a":{"a":0,"k":[0,0]},"s":{"a":0,"k":[100,100]},"p":{"a":0,"k":[139.673,-249.578]},"r":{"a":0,"k":0}}]}],"op":96},{"ty":4,"nm":"Group","ip":0,"st":0,"ind":4,"hix":18,"ks":{"o":{"a":0,"k":100},"or":{"a":0,"k":[0,0,0]},"a":{"a":0,"k":[13.946502685546875,16.896499633789062,0]},"p":{"s":true,"x":{"a":1,"k":[{"t":0,"s":[63.49499999999999],"e":[55.866645040881664],"i":{"x":[0.515],"y":[0.955]},"o":{"x":[0.455],"y":[0.03]}},{"t":54}]},"y":{"a":1,"k":[{"t":0,"s":[53.47524890136715],"e":[64.475],"i":{"x":[0.515],"y":[0.955]},"o":{"x":[0.455],"y":[0.03]}},{"t":28,"s":[64.475],"e":[61.395],"i":{"x":[0.515],"y":[0.955]},"o":{"x":[0.455],"y":[0.03]}},{"t":54}]}},"rx":{"a":0,"k":0},"ry":{"a":0,"k":0},"rz":{"a":0,"k":0},"s":{"a":0,"k":[100,100,100]}},"shapes":[{"ty":"gr","nm":"Group shape group","it":[{"ty":"sh","ks":{"a":0,"k":{"c":true,"v":[[-159.385,282.842],[-168.703,277.675],[-176.26,274.935],[-182.56,275.708],[-181.869,292.446],[-178.119,301.52],[-174.222,306.232],[-173.846,306.235],[-169.727,302.749],[-164.95,295.198],[-159.027,284.136]],"i":[[0.42499999999998295,0.27000000000003865],[3.2249999999999943,1.5149999999999864],[2.681999999999988,0.5649999999999977],[2.055000000000007,-1.5460000000000491],[-2.1040000000000134,-6.77800000000002],[-1.2889999999999873,-2.475999999999999],[-1.6219999999999857,-0.5440000000000396],[-0.15399999999999636,0.031999999999982265],[-0.9099999999999966,1.127999999999986],[-1.4620000000000175,2.54200000000003],[-1.879000000000019,3.731999999999971]],"o":[[-2.9939999999999998,-1.8979999999999677],[-2.3810000000000002,-1.1170000000000186],[-1.8310000000000173,-0.36700000000001864],[-3.0500000000000114,3.040999999999997],[1.1090000000000089,3.356999999999971],[1.3839999999999861,2.48599999999999],[0.054000000000002046,0.01799999999997226],[2.225999999999999,-0.4660000000000082],[1.8379999999999939,-2.407000000000039],[2.086999999999989,-3.6299999999999955],[0.2259999999999991,-0.4490000000000123]]}}},{"ty":"sh","ks":{"a":0,"k":{"c":true,"v":[[-174.207,304.268],[-173.831,304.271],[-174.011,304.123],[-174.648,303.401],[-176.345,300.596],[-179.97,291.819],[-181.306,277.266],[-176.671,276.892],[-169.553,279.486],[-161.233,284.068],[-166.684,294.202],[-171.316,301.535],[-173.96,304.214]],"i":[[0,0],[-0.125,-0.0010000000000331966],[0.16100000000000136,0.15100000000001046],[0.24699999999998568,0.32799999999997453],[0.61099999999999,1.1750000000000114],[1.0759999999999934,3.259999999999991],[-1.695999999999998,0.9339999999999691],[-1.7480000000000189,-0.3849999999999909],[-2.3319999999999936,-1.09699999999998],[-2.6920000000000073,-1.697999999999979],[1.9099999999999966,-3.3220000000000027],[1.7290000000000134,-2.2620000000000005],[0.9159999999999968,-0.28300000000001546]],"o":[[0.12600000000000477,0.0010000000000331966],[-0.09100000000000819,-0.026999999999986812],[-0.16599999999999682,-0.146000000000015],[-0.4960000000000093,-0.6580000000000155],[-1.225999999999999,-2.3519999999999754],[-2.265000000000015,-6.456999999999994],[1.0880000000000223,-0.8840000000000146],[2.4299999999999784,0.5099999999999909],[2.858000000000004,1.3419999999999845],[-1.7379999999999995,3.424000000000035],[-1.4629999999999939,2.5470000000000255],[-0.8919999999999959,1.224999999999966],[0,0]]}}},{"ty":"st","o":{"a":0,"k":0},"w":{"a":0,"k":0},"c":{"a":0,"k":[0,0,0,0]},"lc":3,"lj":1,"ml":1},{"ty":"fl","o":{"a":0,"k":100},"r":1,"c":{"a":0,"k":[0.4823529411764706,0,0.28627450980392155,1]}},{"ty":"tr","o":{"a":0,"k":100},"a":{"a":0,"k":[0,0]},"s":{"a":0,"k":[100,100]},"p":{"a":0,"k":[186.694,-272.474]},"r":{"a":0,"k":0}}]},{"ty":"gr","nm":"Group shape group","it":[{"ty":"sh","ks":{"a":0,"k":{"c":true,"v":[[-159.921,283.687],[-181.918,276.474],[-174.026,305.252]],"i":[[0,0],[4.777000000000015,-4],[-3.084000000000003,-0.6159999999999854]],"o":[[0,0],[-4.775999999999982,4.001000000000033],[3.084000000000003,0.6150000000000091]]}}},{"ty":"st","o":{"a":0,"k":0},"w":{"a":0,"k":0},"c":{"a":0,"k":[0,0,0,0]},"lc":3,"lj":1,"ml":1},{"ty":"fl","o":{"a":0,"k":100},"r":1,"c":{"a":0,"k":[0.8627450980392157,0.3215686274509804,0.09803921568627451,1]}},{"ty":"tr","o":{"a":0,"k":100},"a":{"a":0,"k":[0,0]},"s":{"a":0,"k":[100,100]},"p":{"a":0,"k":[186.694,-272.474]},"r":{"a":0,"k":0}}]}],"op":96},{"ty":4,"nm":"Group","ip":0,"st":0,"ind":3,"hix":19,"ks":{"o":{"a":0,"k":100},"or":{"a":0,"k":[0,0,0]},"a":{"a":0,"k":[18.85400390625,25.271499633789062,0]},"p":{"s":true,"x":{"a":1,"k":[{"t":0,"s":[63.260000000000005],"e":[55.63164504088168],"i":{"x":[0.515],"y":[0.955]},"o":{"x":[0.455],"y":[0.03]}},{"t":54}]},"y":{"a":1,"k":[{"t":0,"s":[53.514248901367196],"e":[64.514],"i":{"x":[0.515],"y":[0.955]},"o":{"x":[0.455],"y":[0.03]}},{"t":28,"s":[64.514],"e":[61.434],"i":{"x":[0.515],"y":[0.955]},"o":{"x":[0.455],"y":[0.03]}},{"t":54}]}},"rx":{"a":0,"k":0},"ry":{"a":0,"k":0},"rz":{"a":0,"k":0},"s":{"a":0,"k":[100,100,100]}},"shapes":[{"ty":"gr","nm":"Group shape group","it":[{"ty":"sh","ks":{"a":0,"k":{"c":true,"v":[[-154.845,279.053],[-169.326,270.203],[-187.155,268.618],[-188.098,291.449],[-176.135,312.536],[-160.349,298.453],[-155.768,286.691]],"i":[[0.5869999999999891,1.603999999999985],[6.947000000000003,2.8710000000000377],[3.6500000000000057,-3.1359999999999673],[-1.954999999999984,-9.718000000000018],[-6.0800000000000125,-1.9920000000000186],[-4.0400000000000205,7.986000000000047],[-1.0039999999999907,3.480000000000018]],"o":[[-1.313999999999993,-2.4259999999999877],[-6.947000000000003,-2.6889999999999645],[-3.211999999999989,3.4499999999999886],[2.112000000000023,9.641999999999996],[6.5,1.5760000000000218],[1.9839999999999804,-4.044999999999959],[0.9689999999999941,-3.5469999999999686]]}}},{"ty":"sh","ks":{"a":0,"k":{"c":true,"v":[[-156.662,279.889],[-157.689,286.137],[-162.145,297.572],[-175.569,310.618],[-186.141,291.037],[-185.765,270.056],[-170.074,272.058]],"i":[[-0.3100000000000023,-1.103999999999985],[1.002999999999986,-3.2889999999999873],[1.9279999999999973,-3.9279999999999973],[4.024000000000001,1.5269999999999868],[1.9059999999999775,9.402000000000044],[-2.1650000000000205,1.75],[-6.6559999999999775,-2.795000000000016]],"o":[[0.2259999999999991,0.16300000000001091],[-0.9680000000000177,3.3559999999999945],[-3.7849999999999966,7.959000000000003],[-4.445000000000022,-1.11099999999999],[-2.062000000000012,-9.325999999999965],[1.725999999999999,-2.062999999999988],