{"ip":0,"fr":60,"v":"5.1.20","assets":[{"id":"precomp_1","layers":[{"ty":4,"nm":"tangan kanan","ip":0,"st":0,"ind":23,"hix":1,"ks":{"o":{"a":0,"k":100},"or":{"a":0,"k":[0,0,0]},"a":{"a":0,"k":[28.354995727539062,19.196502685546875,0]},"p":{"s":true,"x":{"a":0,"k":174.20769104003907},"y":{"a":0,"k":153.27724414062507}},"rx":{"a":0,"k":0},"ry":{"a":0,"k":0},"rz":{"a":0,"k":0},"s":{"a":0,"k":[100,100,100]}},"shapes":[{"ty":"gr","nm":"tangan kanan shape group","it":[{"ty":"sh","ks":{"a":0,"k":{"c":true,"v":[[-449.162,977.635],[-435.662,994.019],[-434.829,994.804],[-420.581,997.645],[-409.735,1001.23],[-402.791,1005.98],[-401.28,1011.21],[-403.28,1011.43],[-451.939,1011.43],[-451.939,1013.43],[-403.377,1013.42],[-399.875,1012.63],[-401.122,1004.88],[-408.92,999.4],[-420.085,995.708],[-433.88,992.924],[-448.662,975.699]],"i":[[-1.268000000000029,-0.26400000000001],[-1.5060000000000286,-7.262000000000057],[-0.41100000000000136,-0.06099999999992178],[-4.689999999999998,-1.2010000000000218],[-3.4540000000000077,-1.5430000000000064],[-1.5710000000000264,-2.1499999999999773],[1.2579999999999814,-0.8500000000000227],[1.0069999999999482,0.12000000000000455],[16.220000000000027,0],[-1.2939999999999827,0.06000000000005912],[-16.12299999999999,0.009999999999990905],[-1.1800000000000068,1.080000000000041],[0.9300000000000068,1.7999999999999545],[2.775000000000034,1.240000000000009],[3.7679999999999723,0.9650000000000318],[4.635999999999967,0.7040000000000646],[8.100999999999999,2.118000000000052]],"o":[[7.281000000000006,1.8500000000000227],[0.08400000000000318,0.4049999999999727],[4.795999999999992,0.70799999999997],[3.7200000000000273,0.9529999999999745],[2.7200000000000273,1.1999999999999318],[1.3109999999999786,1.990000000000009],[-0.17600000000004457,0.25],[-16.220000000000027,0],[-1.2939999999999827,-0.06999999999993634],[16.220000000000027,0],[0.9250000000000114,0.06000000000005912],[2.603999999999985,-2.9600000000000364],[-2.0179999999999723,-2.740000000000009],[-3.6159999999999854,-1.61099999999999],[-4.549000000000035,-1.16599999999994],[-1.740000000000009,-7.511999999999944],[-1.2379999999999995,-0.38199999999994816]]}}},{"ty":"st","o":{"a":0,"k":0},"w":{"a":0,"k":0},"c":{"a":0,"k":[0,0,0,0]},"lc":3,"lj":1,"ml":1},{"ty":"fl","o":{"a":0,"k":100},"r":1,"c":{"a":0,"k":[0.4823529411764706,0,0.28627450980392155,1]}},{"ty":"tr","o":{"a":0,"k":100},"a":{"a":0,"k":[0,0]},"s":{"a":0,"k":[100,100]},"p":{"a":0,"k":[453.233,-975.317]},"r":{"a":0,"k":0}}]},{"ty":"gr","nm":"tangan kanan shape group","it":[{"ty":"sh","ks":{"a":0,"k":{"c":false,"v":[[-448.912,976.667],[-434.683,993.815],[-401.929,1005.48],[-403.28,1012.43],[-451.939,1012.43]],"i":[[0,0],[-3.4750000000000227,-15.252000000000066],[-5.406000000000006,-7.921000000000049],[0,0],[0,0]],"o":[[0,0],[0,0],[5.405999999999949,7.909999999999968],[0,0],[0,0]]}}},{"ty":"st","o":{"a":0,"k":0},"w":{"a":0,"k":0},"c":{"a":0,"k":[0,0,0,0]},"lc":3,"lj":1,"ml":1},{"ty":"fl","o":{"a":0,"k":100},"r":1,"c":{"a":0,"k":[1,1,1,1]}},{"ty":"tr","o":{"a":0,"k":100},"a":{"a":0,"k":[0,0]},"s":{"a":0,"k":[100,100]},"p":{"a":0,"k":[453.233,-975.317]},"r":{"a":0,"k":0}}]}],"op":48},{"ty":4,"nm":"mata kiri merem","ip":0,"st":0,"ind":22,"hix":2,"ks":{"o":{"a":1,"k":[{"t":0,"s":[100],"e":[0],"i":{"x":[0.515],"y":[0.955]},"o":{"x":[0.455],"y":[0.03]}},{"t":28}]},"or":{"a":0,"k":[0,0,0]},"a":{"a":0,"k":[5.9485015869140625,1.740509033203125,0]},"p":{"s":true,"x":{"a":0,"k":156.26869104003904},"y":{"a":0,"k":110.53224414062495}},"rx":{"a":0,"k":0},"ry":{"a":0,"k":0},"rz":{"a":0,"k":0},"s":{"a":0,"k":[100,100,100]}},"shapes":[{"ty":"gr","nm":"mata kiri merem shape group","it":[{"ty":"sh","ks":{"a":0,"k":{"c":true,"v":[[-438.691,950.691],[-446.877,950.501],[-447.519,952.394],[-438.128,952.61]],"i":[[1.224999999999966,-0.4230000000000018],[2.6229999999999905,0.8910000000000764],[-1.245999999999981,-0.35800000000006094],[-3.062999999999988,0.8980000000000246]],"o":[[-2.649000000000001,0.7789999999999964],[-1.2060000000000173,-0.4739999999999327],[3.0130000000000337,1.0209999999999582],[1.259999999999991,-0.30700000000001637]]}}},{"ty":"st","o":{"a":0,"k":0},"w":{"a":0,"k":0},"c":{"a":0,"k":[0,0,0,0]},"lc":3,"lj":1,"ml":1},{"ty":"fl","o":{"a":0,"k":100},"r":1,"c":{"a":0,"k":[0.4823529411764706,0,0.28627450980392155,1]}},{"ty":"tr","o":{"a":0,"k":100},"a":{"a":0,"k":[0,0]},"s":{"a":0,"k":[100,100]},"p":{"a":0,"k":[448.765,-950.027]},"r":{"a":0,"k":0}}]},{"ty":"gr","nm":"mata kiri merem shape group","it":[{"ty":"sh","ks":{"a":0,"k":{"c":false,"v":[[-438.409,951.65],[-447.198,951.448]],"i":[[0,0],[4.753999999999962,1.620999999999981]],"o":[[0,0],[0,0]]}}},{"ty":"st","o":{"a":0,"k":0},"w":{"a":0,"k":0},"c":{"a":0,"k":[0,0,0,0]},"lc":3,"lj":1,"ml":1},{"ty":"fl","o":{"a":0,"k":100},"r":1,"c":{"a":0,"k":[1,1,1,1]}},{"ty":"tr","o":{"a":0,"k":100},"a":{"a":0,"k":[0,0]},"s":{"a":0,"k":[100,100]},"p":{"a":0,"k":[448.765,-950.027]},"r":{"a":0,"k":0}}]}],"op":48},{"ty":4,"nm":"mata kanan merem","ip":0,"st":0,"ind":21,"hix":3,"ks":{"o":{"a":1,"k":[{"t":0,"s":[100],"e":[0],"i":{"x":[0.515],"y":[0.955]},"o":{"x":[0.455],"y":[0.03]}},{"t":28}]},"or":{"a":0,"k":[0,0,0]},"a":{"a":0,"k":[5.906494140625,2.05950927734375,0]},"p":{"s":true,"x":{"a":0,"k":177.44669104003904},"y":{"a":0,"k":110.08224414062502}},"rx":{"a":0,"k":0},"ry":{"a":0,"k":0},"rz":{"a":0,"k":0},"s":{"a":0,"k":[100,100,100]}},"shapes":[{"ty":"gr","nm":"mata kanan merem shape group","it":[{"ty":"sh","ks":{"a":0,"k":{"c":true,"v":[[-417.767,949.853],[-425.896,950.831],[-426.262,952.798],[-416.936,951.672]],"i":[[1.1519999999999868,-0.5939999999999372],[2.723000000000013,0.5080000000000382],[-1.2839999999999918,-0.17700000000002092],[-2.9039999999999964,1.3260000000000218]],"o":[[-2.511000000000024,1.149000000000001],[-1.2620000000000005,-0.2960000000000491],[3.1270000000000095,0.5800000000000409],[1.2029999999999745,-0.48300000000006094]]}}},{"ty":"st","o":{"a":0,"k":0},"w":{"a":0,"k":0},"c":{"a":0,"k":[0,0,0,0]},"lc":3,"lj":1,"ml":1},{"ty":"fl","o":{"a":0,"k":100},"r":1,"c":{"a":0,"k":[0.4823529411764706,0,0.28627450980392155,1]}},{"ty":"tr","o":{"a":0,"k":100},"a":{"a":0,"k":[0,0]},"s":{"a":0,"k":[100,100]},"p":{"a":0,"k":[427.546,-949.259]},"r":{"a":0,"k":0}}]},{"ty":"gr","nm":"mata kanan merem shape group","it":[{"ty":"sh","ks":{"a":0,"k":{"c":false,"v":[[-417.352,950.762],[-426.079,951.815]],"i":[[0,0],[4.9360000000000355,0.9259999999999309]],"o":[[0,0],[0,0]]}}},{"ty":"st","o":{"a":0,"k":0},"w":{"a":0,"k":0},"c":{"a":0,"k":[0,0,0,0]},"lc":3,"lj":1,"ml":1},{"ty":"fl","o":{"a":0,"k":100},"r":1,"c":{"a":0,"k":[1,1,1,1]}},{"ty":"tr","o":{"a":0,"k":100},"a":{"a":0,"k":[0,0]},"s":{"a":0,"k":[100,100]},"p":{"a":0,"k":[427.546,-949.259]},"r":{"a":0,"k":0}}]}],"op":48},{"ty":4,"nm":"book","ip":0,"st":0,"ind":20,"hix":4,"ks":{"o":{"a":0,"k":100},"or":{"a":0,"k":[0,0,0]},"a":{"a":0,"k":[49.407501220703125,42.83001708984375,0]},"p":{"s":true,"x":{"a":0,"k":231.20069104003906},"y":{"a":0,"k":130.5842441406251}},"rx":{"a":0,"k":0},"ry":{"a":0,"k":0},"rz":{"a":0,"k":0},"s":{"a":0,"k":[100,100,100]}},"shapes":[{"ty":"gr","nm":"book shape group","it":[{"ty":"sh","ks":{"a":0,"k":{"c":true,"v":[[-359.526,945.249],[-350.33,945.413],[-357.628,974.599],[-367.615,1012.6],[-377.314,1012.33],[-371.573,990.165]],"i":[[-4.015999999999963,14.97199999999998],[-3.0649999999999977,-0.055000000000063665],[2.430999999999983,-9.721000000000004],[3.3290000000000077,-12.668999999999983],[3.233000000000004,0.08999999999991815],[-1.9120000000000346,7.383000000000038]],"o":[[3.066000000000031,0.05499999999994998],[-2.434000000000026,9.731999999999971],[-3.3290000000000077,12.66599999999994],[-3.233000000000004,-0.09000000000003183],[1.914000000000044,-7.389999999999986],[4.014999999999986,-14.97199999999998]]}}},{"ty":"sh","ks":{"a":0,"k":{"c":true,"v":[[-361.255,943.977],[-373.507,989.656],[-379.565,1013.04],[-378.624,1014.29],[-366.877,1014.62],[-365.882,1013.87],[-355.691,975.096],[-348.084,944.678],[-349.037,943.435],[-360.271,943.236]],"i":[[0.11700000000001864,-0.4370000000000118],[4.0849999999999795,-15.231999999999971],[2.0190000000000055,-7.789999999999964],[-0.6239999999999668,-0.01999999999998181],[-3.915999999999997,-0.11000000000001364],[-0.11700000000001864,0.4399999999999409],[-3.399000000000001,12.932999999999993],[-2.5360000000000014,10.13900000000001],[0.6239999999999668,0.011000000000080945],[3.744000000000028,0.06600000000003092]],"o":[[-4.083000000000027,15.22300000000007],[-2.0190000000000055,7.795000000000073],[-0.1560000000000059,0.6000000000000227],[3.9150000000000205,0.11000000000001364],[0.45699999999999363,0.009999999999990905],[3.396000000000015,-12.919999999999959],[2.534999999999968,-10.13900000000001],[0.15100000000001046,-0.6059999999999945],[-3.7450000000000045,-0.06599999999991724],[-0.45299999999997453,-0.008000000000038199]]}}},{"ty":"st","o":{"a":0,"k":0},"w":{"a":0,"k":0},"c":{"a":0,"k":[0,0,0,0]},"lc":3,"lj":1,"ml":1},{"ty":"fl","o":{"a":0,"k":100},"r":1,"c":{"a":0,"k":[0.4823529411764706,0,0.28627450980392155,1]}},{"ty":"tr","o":{"a":0,"k":100},"a":{"a":0,"k":[0,0]},"s":{"a":0,"k":[100,100]},"p":{"a":0,"k":[417.293,-928.99]},"r":{"a":0,"k":0}}]},{"ty":"gr","nm":"book shape group","it":[{"ty":"sh","ks":{"a":0,"k":{"c":true,"v":[[-360.289,944.236],[-349.054,944.435],[-356.661,974.854],[-366.849,1013.62],[-378.597,1013.29],[-372.539,989.906]],"i":[[0,0],[0,0],[0,0],[0,0],[0,0],[0,0]],"o":[[0,0],[0,0],[0,0],[0,0],[0,0],[0,0]]}}},{"ty":"st","o":{"a":0,"k":0},"w":{"a":0,"k":0},"c":{"a":0,"k":[0,0,0,0]},"lc":3,"lj":1,"ml":1},{"ty":"fl","o":{"a":0,"k":100},"r":2,"c":{"a":0,"k":[0,0.6,0.592156862745098,1]}},{"ty":"tr","o":{"a":0,"k":100},"a":{"a":0,"k":[0,0]},"s":{"a":0,"k":[100,100]},"p":{"a":0,"k":[417.293,-928.99]},"r":{"a":0,"k":0}}]},{"ty":"gr","nm":"book shape group","it":[{"ty":"sh","ks":{"a":0,"k":{"c":true,"v":[[-350.024,944.192],[-357.631,974.611],[-355.694,975.108],[-347.701,944.696],[-348.651,943.442],[-349.036,943.435]],"i":[[0.11099999999999,-0.44399999999996],[2.534999999999968,-10.139999999999986],[-0.32799999999997453,1.2460000000000946],[-2.6649999999999636,10.136999999999944],[0.6290000000000191,0.010999999999967258],[0.1279999999999859,0.0030000000000427463]],"o":[[-2.5360000000000014,10.139999999999986],[-0.313000000000045,1.25],[2.664000000000044,-10.136999999999944],[0.160000000000025,-0.6080000000000609],[-0.1279999999999859,-0.0019999999999527063],[-0.45800000000002683,-0.007999999999924512]]}}},{"ty":"st","o":{"a":0,"k":0},"w":{"a":0,"k":0},"c":{"a":0,"k":[0,0,0,0]},"lc":3,"lj":1,"ml":1},{"ty":"fl","o":{"a":0,"k":100},"r":1,"c":{"a":0,"k":[0.4823529411764706,0,0.28627450980392155,1]}},{"ty":"tr","o":{"a":0,"k":100},"a":{"a":0,"k":[0,0]},"s":{"a":0,"k":[100,100]},"p":{"a":0,"k":[417.293,-928.99]},"r":{"a":0,"k":0}}]},{"ty":"gr","nm":"book shape group","it":[{"ty":"sh","ks":{"a":0,"k":{"c":true,"v":[[-349.054,944.435],[-356.661,974.854],[-348.668,944.442]],"i":[[0,0],[0,0],[0,0]],"o":[[0,0],[0,0],[0,0]]}}},{"ty":"st","o":{"a":0,"k":0},"w":{"a":0,"k":0},"c":{"a":0,"k":[0,0,0,0]},"lc":3,"lj":1,"ml":1},{"ty":"fl","o":{"a":0,"k":100},"r":2,"c":{"a":0,"k":[0,0.6,0.592156862745098,1]}},{"ty":"tr","o":{"a":0,"k":100},"a":{"a":0,"k":[0,0]},"s":{"a":0,"k":[100,100]},"p":{"a":0,"k":[417.293,-928.99]},"r":{"a":0,"k":0}}]},{"ty":"gr","nm":"book shape group","it":[{"ty":"sh","ks":{"a":0,"k":{"c":true,"v":[[-360.272,943.236],[-360.69,943.228],[-361.676,943.977],[-373.507,989.656],[-371.573,990.165],[-359.323,944.495]],"i":[[0.6309999999999718,0.010999999999967258],[0.13999999999998636,0.0030000000000427463],[0.1139999999999759,-0.4399999999999409],[3.9429999999999836,-15.225999999999999],[-0.3350000000000364,1.247000000000071],[-4.084000000000003,15.222999999999956]],"o":[[-0.13900000000001,-0.0030000000000427463],[-0.4549999999999841,-0.007999999999924512],[-3.944000000000017,15.225999999999999],[-0.3240000000000123,1.2490000000000236],[4.08299999999997,-15.222999999999956],[0.16299999999995407,-0.6100000000000136]]}}},{"ty":"st","o":{"a":0,"k":0},"w":{"a":0,"k":0},"c":{"a":0,"k":[0,0,0,0]},"lc":3,"lj":1,"ml":1},{"ty":"fl","o":{"a":0,"k":100},"r":1,"c":{"a":0,"k":[0.4823529411764706,0,0.28627450980392155,1]}},{"ty":"tr","o":{"a":0,"k":100},"a":{"a":0,"k":[0,0]},"s":{"a":0,"k":[100,100]},"p":{"a":0,"k":[417.293,-928.99]},"r":{"a":0,"k":0}}]},{"ty":"gr","nm":"book shape group","it":[{"ty":"sh","ks":{"a":0,"k":{"c":true,"v":[[-360.289,944.236],[-360.708,944.228],[-372.539,989.906]],"i":[[0,0],[0,0],[0,0]],"o":[[0,0],[0,0],[0,0]]}}},{"ty":"st","o":{"a":0,"k":0},"w":{"a":0,"k":0},"c":{"a":0,"k":[0,0,0,0]},"lc":3,"lj":1,"ml":1},{"ty":"fl","o":{"a":0,"k":100},"r":2,"c":{"a":0,"k":[0,0.6,0.592156862745098,1]}},{"ty":"tr","o":{"a":0,"k":100},"a":{"a":0,"k":[0,0]},"s":{"a":0,"k":[100,100]},"p":{"a":0,"k":[417.293,-928.99]},"r":{"a":0,"k":0}}]},{"ty":"gr","nm":"book shape group","it":[{"ty":"sh","ks":{"a":0,"k":{"c":true,"v":[[-347.707,944.669],[-321.061,937.915],[-339.144,1003.33],[-364.903,1011.93],[-355.694,975.108],[-347.701,944.696]],"i":[[0.010999999999967258,0.008000000000038199],[-8.882000000000005,2.25100000000009],[6.026999999999987,-21.804000000000087],[8.586000000000013,-2.8599999999999],[-3.0679999999999836,12.267000000000053],[-2.6649999999999636,10.136999999999944]],"o":[[8.882000000000005,-2.2509999999999764],[-6.02800000000002,21.80600000000004],[-8.586999999999989,2.8700000000000045],[3.0710000000000264,-12.27699999999993],[2.664000000000044,-10.136999999999944],[0.0020000000000095497,-0.009999999999990905]]}}},{"ty":"sh","ks":{"a":0,"k":{"c":true,"v":[[-349.848,944.996],[-357.631,974.611],[-367.285,1013.22],[-365.999,1014.41],[-338.006,1005.06],[-337.359,1004.38],[-318.675,936.789],[-319.885,935.554],[-349.178,942.978],[-349.903,943.705],[-350.024,944.192],[-349.839,945.036]],"i":[[0,0],[2.595999999999947,-9.879000000000019],[3.2180000000000177,-12.870000000000005],[-0.72199999999998,0.2400000000000091],[-9.331000000000017,3.1200000000000045],[-0.08800000000002228,0.32000000000005],[-6.228000000000009,22.529999999999973],[0.7189999999999941,-0.18200000000001637],[9.76400000000001,-2.474999999999909],[0.08899999999999864,-0.3550000000000182],[0.040000000000020464,-0.16200000000003456],[-0.17899999999997362,-0.23299999999994725]],"o":[[-2.593999999999994,9.868000000000052],[-3.2180000000000177,12.868000000000052],[-0.18500000000000227,0.7300000000000182],[9.331000000000017,-3.1200000000000045],[0.3159999999999741,-0.10999999999989996],[6.228000000000009,-22.53099999999995],[0.19700000000000273,-0.7139999999999418],[-9.76400000000001,2.4750000000000227],[-0.3550000000000182,0.09000000000003183],[-0.03999999999996362,0.16300000000001091],[-0.07600000000002183,0.30299999999999727],[0,0]]}}},{"ty":"st","o":{"a":0,"k":0},"w":{"a":0,"k":0},"c":{"a":0,"k":[0,0,0,0]},"lc":3,"lj":1,"ml":1},{"ty":"fl","o":{"a":0,"k":100},"r":1,"c":{"a":0,"k":[0.4823529411764706,0,0.28627450980392155,1]}},{"ty":"tr","o":{"a":0,"k":100},"a":{"a":0,"k":[0,0]},"s":{"a":0,"k":[100,100]},"p":{"a":0,"k":[417.293,-928.99]},"r":{"a":0,"k":0}}]},{"ty":"gr","nm":"book shape group","it":[{"ty":"sh","ks":{"a":0,"k":{"c":true,"v":[[-349.054,944.435],[-348.932,943.948],[-319.639,936.523],[-338.322,1004.11],[-366.315,1013.46],[-356.661,974.854],[-348.668,944.442]],"i":[[0,0],[0,0],[0,0],[0,0],[0,0],[0,0],[0,0]],"o":[[0,0],[0,0],[0,0],[0,0],[0,0],[0,0],[0,0]]}}},{"ty":"st","o":{"a":0,"k":0},"w":{"a":0,"k":0},"c":{"a":0,"k":[0,0,0,0]},"lc":3,"lj":1,"ml":1},{"ty":"fl","o":{"a":0,"k":100},"r":2,"c":{"a":0,"k":[0,0.48627450980392156,0.47843137254901963,1]}},{"ty":"tr","o":{"a":0,"k":100},"a":{"a":0,"k":[0,0]},"s":{"a":0,"k":[100,100]},"p":{"a":0,"k":[417.293,-928.99]},"r":{"a":0,"k":0}}]},{"ty":"gr","nm":"book shape group","it":[{"ty":"sh","ks":{"a":0,"k":{"c":true,"v":[[-359.323,944.492],[-359.321,944.487],[-360.103,943.245],[-399.842,935.8],[-401,936.556],[-417.166,1005.92],[-416.364,1007.13],[-378.826,1013.69],[-377.688,1012.96],[-371.571,990.157],[-359.901,945.101]],"i":[[-0.07699999999999818,0.2939999999999827],[-0.0009999999999763531,0.002000000000066393],[0.5579999999999927,0.10500000000001819],[13.245999999999981,2.4820000000000846],[0.1190000000000282,-0.5090000000000146],[5.38900000000001,-23.122999999999934],[-0.5520000000000209,-0.10000000000002274],[-12.512999999999977,-2.1900000000000546],[-0.13100000000002865,0.4900000000000091],[-2.040999999999997,7.606999999999971],[-3.8899999999999864,15.019000000000005]],"o":[[0.0009999999999763531,-0.0019999999999527063],[0.1470000000000482,-0.5469999999999118],[-13.245999999999981,-2.4809999999999945],[-0.51400000000001,-0.09600000000000364],[-5.38900000000001,23.12099999999998],[-0.12700000000000955,0.5400000000000773],[12.512,2.1900000000000546],[0.5,0.08999999999991815],[2.038000000000011,-7.600000000000023],[3.890000000000043,-15.019000000000005],[0.2880000000000109,-0.07699999999999818]]}}},{"ty":"sh","ks":{"a":0,"k":{"c":true,"v":[[-361.256,943.979],[-360.272,943.236],[-360.69,943.228]],"i":[[0,0],[-0.3280000000000314,0.2480000000000473],[0.13999999999998636,0.0030000000000427463]],"o":[[0.32799999999997453,-0.24700000000007094],[-0.13900000000001,-0.0030000000000427463],[0,0]]}}},{"ty":"sh","ks":{"a":0,"k":{"c":true,"v":[[-361.925,944.939],[-373.505,989.647],[-379.383,1011.56],[-414.978,1005.34],[-399.27,937.942]],"i":[[-12.447999999999979,-2.3319999999999936],[3.8589999999999804,-14.897000000000048],[1.9590000000000032,-7.2999999999999545],[11.865000000000009,2.0699999999999363],[-5.23599999999999,22.466999999999985]],"o":[[-3.86099999999999,14.905000000000086],[-1.9590000000000032,7.30499999999995],[-11.865000000000009,-2.0699999999999363],[5.23599999999999,-22.465000000000032],[12.448999999999955,2.33299999999997]]}}},{"ty":"st","o":{"a":0,"k":0},"w":{"a":0,"k":0},"c":{"a":0,"k":[0,0,0,0]},"lc":3,"lj":1,"ml":1},{"ty":"fl","o":{"a":0,"k":100},"r":1,"c":{"a":0,"k":[0.4823529411764706,0,0.28627450980392155,1]}},{"ty":"tr","o":{"a":0,"k":100},"a":{"a":0,"k":[0,0]},"s":{"a":0,"k":[100,100]},"p":{"a":0,"k":[417.293,-928.99]},"r":{"a":0,"k":0}}]},{"ty":"gr","nm":"book shape group","it":[{"ty":"sh","ks":{"a":0,"k":{"c":true,"v":[[-360.289,944.236],[-360.287,944.228],[-400.026,936.783],[-416.192,1006.14],[-378.654,1012.7],[-372.539,989.906],[-360.708,944.228]],"i":[[0,0],[0,0],[0,0],[0,0],[0,0],[0,0],[0,0]],"o":[[0,0],[0,0],[0,0],[0,0],[0,0],[0,0],[0,0]]}}},{"ty":"st","o":{"a":0,"k":0},"w":{"a":0,"k":0},"c":{"a":0,"k":[0,0,0,0]},"lc":3,"lj":1,"ml":1},{"ty":"fl","o":{"a":0,"k":100},"r":2,"c":{"a":0,"k":[0,0.6941176470588235,0.6862745098039216,1]}},{"ty":"tr","o":{"a":0,"k":100},"a":{"a":0,"k":[0,0]},"s":{"a":0,"k":[100,100]},"p":{"a":0,"k":[417.293,-928.99]},"r":{"a":0,"k":0}}]},{"ty":"gr","nm":"book shape group","it":[{"ty":"sh","ks":{"a":0,"k":{"c":true,"v":[[-321.995,936.906],[-328.028,931.462],[-328.76,931.206],[-355.123,943.291],[-394.7,930.178],[-395.572,930.877],[-398.368,939.853],[-397.977,940.976],[-359.131,967.462],[-357.94,967.414],[-322.037,938.427]],"i":[[0.44299999999998363,0.4010000000000673],[2.011000000000024,1.8150000000000546],[0.2699999999999818,-0.01700000000005275],[6.072999999999979,-8.38900000000001],[14.423000000000002,-1.1879999999999882],[0.12000000000000455,-0.3849999999999909],[0.9320000000000164,-2.991999999999962],[-0.3580000000000041,-0.2440000000000282],[-12.949000000000012,-8.82899999999995],[-0.3380000000000223,0.27300000000002456],[-11.968000000000018,9.662000000000035]],"o":[[-2.0109999999999673,-1.8139999999999645],[-0.20199999999999818,-0.18200000000001637],[-9.615999999999985,0.6050000000000182],[-11.148000000000025,-8.45900000000006],[-0.4019999999999868,0.03300000000001546],[-0.9320000000000164,2.9920000000000755],[-0.1290000000000191,0.41400000000010095],[12.948999999999955,8.82899999999995],[0.35899999999998045,0.24500000000000455],[11.968000000000018,-9.662000000000035],[0.464999999999975,-0.375]]}}},{"ty":"sh","ks":{"a":0,"k":{"c":true,"v":[[-324.205,937.607],[-358.618,965.391],[-396.238,939.741],[-393.876,932.156],[-355.503,945.501],[-354.053,945.259],[-329.039,933.229]],"i":[[-1.6120000000000232,-1.4549999999999272],[11.471000000000004,-9.260999999999967],[12.54000000000002,8.550000000000068],[-0.7870000000000346,2.5289999999999964],[-10.883000000000038,-8.466000000000008],[-0.3090000000000259,0.4759999999999991],[-9.525000000000034,0.6539999999999964]],"o":[[-11.471000000000004,9.261000000000081],[-12.54000000000002,-8.549999999999955],[0.7869999999999777,-2.52800000000002],[13.855999999999995,-0.97199999999998],[0.44999999999998863,0.35000000000002274],[5.286999999999978,-8.115000000000009],[1.6100000000000136,1.467999999999961]]}}},{"ty":"st","o":{"a":0,"k":0},"w":{"a":0,"k":0},"c":{"a":0,"k":[0,0,0,0]},"lc":3,"lj":1,"ml":1},{"ty":"fl","o":{"a":0,"k":100},"r":1,"c":{"a":0,"k":[0.4823529411764706,0,0.28627450980392155,1]}},{"ty":"tr","o":{"a":0,"k":100},"a":{"a":0,"k":[0,0]},"s":{"a":0,"k":[100,100]},"p":{"a":0,"k":[417.293,-928.99]},"r":{"a":0,"k":0}}]},{"ty":"gr","nm":"book shape group","it":[{"ty":"sh","ks":{"a":0,"k":{"c":true,"v":[[-322.665,937.649],[-328.698,932.204],[-354.889,944.712],[-394.618,931.174],[-397.413,940.15],[-358.568,966.636]],"i":[[0,0],[0,0],[7.798000000000002,-12.212999999999965],[21.629999999999995,-1.9120000000000346],[0,0],[0,0]],"o":[[0,0],[0,0],[0,0],[0,0],[0,0],[0,0]]}}},{"ty":"st","o":{"a":0,"k":0},"w":{"a":0,"k":0},"c":{"a":0,"k":[0,0,0,0]},"lc":3,"lj":1,"ml":1},{"ty":"fl","o":{"a":0,"k":100},"r":1,"c":{"a":0,"k":[1,0.9725490196078431,0.8745098039215686,1]}},{"ty":"tr","o":{"a":0,"k":100},"a":{"a":0,"k":[0,0]},"s":{"a":0,"k":[100,100]},"p":{"a":0,"k":[417.293,-928.99]},"r":{"a":0,"k":0}}]}],"op":48},{"ty":4,"nm":"rambut atas","ip":0,"st":0,"ind":19,"hix":5,"ks":{"o":{"a":0,"k":100},"or":{"a":0,"k":[0,0,0]},"a":{"a":0,"k":[12.082504272460938,9.15350341796875,0]},"p":{"s":true,"x":{"a":0,"k":159.30669104003906},"y":{"a":0,"k":72.82924414062498}},"rx":{"a":0,"k":0},"ry":{"a":0,"k":0},"rz":{"a":0,"k":0},"s":{"a":0,"k":[100,100,100]}},"shapes":[{"ty":"gr","nm":"rambut atas shape group","it":[{"ty":"sh","ks":{"a":0,"k":{"c":true,"v":[[-449.454,916.075],[-438.531,908.472],[-441.852,914.646],[-440.588,916.046],[-430.705,911.927],[-434.294,921.272],[-432.427,921.989],[-428.001,910.464],[-429.319,909.183],[-438.744,913.11],[-436.12,908.272],[-436.708,906.838],[-451.285,915.268]],"i":[[-0.46699999999998454,1.2089999999999463],[-4.600999999999999,-0.6240000000000236],[1.1079999999999472,-2.0419999999999163],[-0.8409999999999513,0.34999999999990905],[-3.2940000000000396,1.3729999999999336],[1.1959999999999695,-3.115000000000009],[-0.4079999999999586,1.2300000000000182],[-1.4750000000000227,3.8419999999999845],[0.7830000000000155,-0.3269999999999982],[3.1420000000000528,-1.308999999999969],[-0.8740000000000236,1.6129999999999427],[0.5840000000000032,0.1710000000000491],[2.3310000000000173,-5.257000000000062]],"o":[[1.8949999999999818,-4.335000000000036],[-1.1059999999999945,2.090000000000032],[-0.4340000000000259,0.8000000000000682],[3.2940000000000396,-1.3730000000000473],[-1.1970000000000027,3.115000000000009],[-0.521000000000015,1.1859999999999218],[1.4750000000000227,-3.8419999999999845],[0.3039999999999736,-0.79200000000003],[-3.141999999999996,1.308999999999969],[0.875,-1.6119999999999663],[0.2950000000000159,-0.5440000000000964],[-6.5569999999999595,-1.91599999999994],[-0.5769999999999982,1.1609999999999445]]}}},{"ty":"st","o":{"a":0,"k":0},"w":{"a":0,"k":0},"c":{"a":0,"k":[0,0,0,0]},"lc":3,"lj":1,"ml":1},{"ty":"fl","o":{"a":0,"k":100},"r":1,"c":{"a":0,"k":[0.4823529411764706,0,0.28627450980392155,1]}},{"ty":"tr","o":{"a":0,"k":100},"a":{"a":0,"k":[0,0]},"s":{"a":0,"k":[100,100]},"p":{"a":0,"k":[451.862,-904.912]},"r":{"a":0,"k":0}}]},{"ty":"gr","nm":"rambut atas shape group","it":[{"ty":"sh","ks":{"a":0,"k":{"c":false,"v":[[-450.37,915.672],[-436.999,907.795],[-440.973,915.123],[-428.934,910.106],[-433.361,921.63]],"i":[[0,0],[0,0],[0,0],[0,0],[0,0]],"o":[[5.362000000000023,-10.759999999999991],[0,0],[0,0],[0,0],[0,0]]}}},{"ty":"st","o":{"a":0,"k":0},"w":{"a":0,"k":0},"c":{"a":0,"k":[0,0,0,0]},"lc":3,"lj":1,"ml":1},{"ty":"fl","o":{"a":0,"k":100},"r":1,"c":{"a":0,"k":[1,1,1,1]}},{"ty":"tr","o":{"a":0,"k":100},"a":{"a":0,"k":[0,0]},"s":{"a":0,"k":[100,100]},"p":{"a":0,"k":[451.862,-904.912]},"r":{"a":0,"k":0}}]}],"op":48},{"ty":4,"nm":"rambut kanan","ip":0,"st":0,"ind":18,"hix":6,"ks":{"o":{"a":0,"k":100},"or":{"a":0,"k":[0,0,0]},"a":{"a":0,"k":[10.60400390625,10.9320068359375,0]},"p":{"s":true,"x":{"a":0,"k":108.85569104003903},"y":{"a":0,"k":111.59424414062497}},"rx":{"a":0,"k":0},"ry":{"a":0,"k":0},"rz":{"a":0,"k":0},"s":{"a":0,"k":[100,100,100]}},"shapes":[{"ty":"gr","nm":"rambut kanan shape group","it":[{"ty":"sh","ks":{"a":0,"k":{"c":true,"v":[[-484.278,942.843],[-500.148,946.994],[-499.777,948.787],[-493.005,950.224],[-497.717,954.879],[-497.321,956.542],[-491.049,958.563],[-492.599,961.392],[-491.791,962.87],[-481.06,963.612],[-480.922,961.617],[-490.094,960.982],[-488.713,958.463],[-489.283,957.03],[-495.139,955.144],[-490.278,950.342],[-490.774,948.652],[-496.906,947.352],[-484.609,944.815]],"i":[[1.2870000000000346,0.1550000000000864],[4.496000000000038,-3.1860000000000355],[-0.8230000000000359,-0.17399999999997817],[-2.257000000000005,-0.47900000000004184],[1.5709999999999695,-1.552000000000021],[-0.6899999999999977,-0.22199999999998],[-2.090000000000032,-0.6739999999999782],[0.5169999999999959,-0.9430000000000973],[-0.7030000000000314,-0.04899999999997817],[-3.576999999999998,-0.24699999999995725],[1.2960000000000491,0.028999999999996362],[3.0570000000000164,0.21199999999998909],[-0.45999999999997954,0.8400000000000318],[0.5800000000000409,0.18700000000001182],[1.9519999999999982,0.6290000000000191],[-1.620999999999981,1.600999999999999],[0.7520000000000095,0.15999999999996817],[2.0439999999999827,0.4339999999999691],[-4.1930000000000405,-0.7100000000000364]],"o":[[-5.661999999999978,-0.9449999999999363],[-0.6859999999999786,0.48599999999999],[2.257000000000005,0.47899999999992815],[-1.5699999999999932,1.5519999999999072],[-0.5160000000000196,0.5099999999999909],[2.091000000000008,0.6739999999999782],[-0.5160000000000196,0.9429999999999836],[-0.33899999999999864,0.6179999999999382],[3.576999999999998,0.24699999999995725],[1.2869999999999777,0.14999999999997726],[-3.0569999999999595,-0.21100000000001273],[0.45999999999997954,-0.8389999999999418],[0.29300000000000637,-0.5349999999999682],[-1.9519999999999982,-0.6279999999999291],[1.6200000000000045,-1.600999999999999],[0.5459999999999923,-0.5399999999999636],[-2.0439999999999827,-0.4329999999999927],[3.7339999999999804,-2.1580000000000155],[1.266999999999996,0.27499999999997726]]}}},{"ty":"st","o":{"a":0,"k":0},"w":{"a":0,"k":0},"c":{"a":0,"k":[0,0,0,0]},"lc":3,"lj":1,"ml":1},{"ty":"fl","o":{"a":0,"k":100},"r":1,"c":{"a":0,"k":[0.4823529411764706,0,0.28627450980392155,1]}},{"ty":"tr","o":{"a":0,"k":100},"a":{"a":0,"k":[0,0]},"s":{"a":0,"k":[100,100]},"p":{"a":0,"k":[500.834,-941.898]},"r":{"a":0,"k":0}}]},{"ty":"gr","nm":"rambut kanan shape group","it":[{"ty":"sh","ks":{"a":0,"k":{"c":false,"v":[[-484.443,943.829],[-499.57,947.809],[-490.981,949.631],[-497.014,955.591],[-489.59,957.982],[-491.722,961.872],[-480.991,962.615]],"i":[[0,0],[0,0],[0,0],[0,0],[0,0],[0,0],[0,0]],"o":[[-8.258000000000038,-1.3949999999999818],[0,0],[0,0],[0,0],[0,0],[0,0],[0,0]]}}},{"ty":"st","o":{"a":0,"k":0},"w":{"a":0,"k":0},"c":{"a":0,"k":[0,0,0,0]},"lc":3,"lj":1,"ml":1},{"ty":"fl","o":{"a":0,"k":100},"r":1,"c":{"a":0,"k":[1,1,1,1]}},{"ty":"tr","o":{"a":0,"k":100},"a":{"a":0,"k":[0,0]},"s":{"a":0,"k":[100,100]},"p":{"a":0,"k":[500.834,-941.898]},"r":{"a":0,"k":0}}]}],"op":48},{"ty":4,"nm":"Mata Kanan 2","ip":0,"st":0,"ind":17,"hix":7,"ks":{"o":{"a":1,"k":[{"t":0,"s":[0],"e":[100],"i":{"x":[0.515],"y":[0.955]},"o":{"x":[0.455],"y":[0.03]}},{"t":28}]},"or":{"a":0,"k":[0,0,0]},"a":{"a":0,"k":[4.0070037841796875,4.006988525390625,0]},"p":{"s":true,"x":{"a":0,"k":157.54869104003907},"y":{"a":0,"k":109.650244140625}},"rx":{"a":0,"k":0},"ry":{"a":0,"k":0},"rz":{"a":0,"k":0},"s":{"a":0,"k":[100,100,100]}},"shapes":[{"ty":"gr","nm":"Mata Kanan 2 shape group","it":[{"ty":"sh","ks":{"a":0,"k":{"c":true,"v":[[-440.03,948.997],[-441.378,950.414],[-439.961,951.763],[-438.613,950.346]],"i":[[0.7639999999999532,-0.017999999999915417],[-0.019000000000005457,-0.7630000000000337],[-0.76400000000001,0.019000000000005457],[0.019000000000005457,0.76400000000001]],"o":[[-0.7630000000000337,0.019000000000005457],[0.019000000000005457,0.76400000000001],[0.7630000000000337,-0.019000000000005457],[-0.01799999999997226,-0.76400000000001]]}}},{"ty":"st","o":{"a":0,"k":0},"w":{"a":0,"k":0},"c":{"a":0,"k":[0,0,0,0]},"lc":3,"lj":1,"ml":1},{"ty":"fl","o":{"a":0,"k":100},"r":2,"c":{"a":0,"k":[1,1,1,1]}},{"ty":"tr","o":{"a":0,"k":100},"a":{"a":0,"k":[0,0]},"s":{"a":0,"k":[100,100]},"p":{"a":0,"k":[445.544,-946.879]},"r":{"a":0,"k":0}}]},{"ty":"gr","nm":"Mata Kanan 2 shape group","it":[{"ty":"sh","ks":{"a":0,"k":{"c":true,"v":[[-441.635,946.933],[-445.49,950.984],[-441.439,954.839],[-437.584,950.788]],"i":[[2.1829999999999927,-0.053999999999973625],[-0.053999999999973625,-2.1829999999999927],[-2.1829999999999927,0.053999999999973625],[0.05400000000003047,2.183999999999969]],"o":[[-2.1829999999999927,0.053999999999973625],[0.05400000000003047,2.1829999999999927],[2.1830000000000496,-0.05400000000008731],[-0.053999999999973625,-2.1829999999999927]]}}},{"ty":"sh","ks":{"a":0,"k":{"c":true,"v":[[-440.03,948.997],[-441.378,950.414],[-439.961,951.763],[-438.613,950.346]],"i":[[0.7639999999999532,-0.017999999999915417],[-0.019000000000005457,-0.7630000000000337],[-0.76400000000001,0.019000000000005457],[0.019000000000005457,0.76400000000001]],"o":[[-0.7630000000000337,0.019000000000005457],[0.019000000000005457,0.76400000000001],[0.7630000000000337,-0.019000000000005457],[-0.01799999999997226,-0.76400000000001]]}}},{"ty":"st","o":{"a":0,"k":0},"w":{"a":0,"k":0},"c":{"a":0,"k":[0,0,0,0]},"lc":3,"lj":1,"ml":1},{"ty":"fl","o":{"a":0,"k":100},"r":2,"c":{"a":0,"k":[0.4823529411764706,0,0.28627450980392155,1]}},{"ty":"tr","o":{"a":0,"k":100},"a":{"a":0,"k":[0,0]},"s":{"a":0,"k":[100,100]},"p":{"a":0,"k":[445.544,-946.879]},"r":{"a":0,"k":0}}]}],"op":48},{"ty":4,"nm":"Mata kanan 2","ip":0,"st":0,"ind":16,"hix":8,"ks":{"o":{"a":1,"k":[{"t":0,"s":[100],"e":[0],"i":{"x":[0.515],"y":[0.955]},"o":{"x":[0.455],"y":[0.03]}},{"t":28}]},"or":{"a":0,"k":[0,0,0]},"a":{"a":0,"k":[4.394500732421875,1,0]},"p":{"s":true,"x":{"a":0,"k":156.61269104003904},"y":{"a":0,"k":110.386244140625}},"rx":{"a":0,"k":0},"ry":{"a":0,"k":0},"rz":{"a":0,"k":0},"s":{"a":0,"k":[100,100,100]}},"shapes":[{"ty":"gr","nm":"Mata kanan 2 shape group","it":[{"ty":"sh","ks":{"a":0,"k":{"c":false,"v":[[-438.079,950.825],[-446.868,950.622]],"i":[[0,0],[4.754000000000019,1.6210000000000946]],"o":[[0,0],[0,0]]}}},{"ty":"st","o":{"a":0,"k":100},"c":{"a":0,"k":[0.4823529411764706,0,0.28627450980392155,1]},"lc":2,"lj":2,"ml":10,"w":{"a":0,"k":2}},{"ty":"fl","o":{"a":0,"k":100},"r":1,"c":{"a":0,"k":[1,1,1,1]}},{"ty":"tr","o":{"a":0,"k":100},"a":{"a":0,"k":[0,0]},"s":{"a":0,"k":[100,100]},"p":{"a":0,"k":[446.868,-950.622]},"r":{"a":0,"k":0}}]}],"op":48},{"ty":4,"nm":"Mata kiri 1","ip":0,"st":0,"ind":15,"hix":9,"ks":{"o":{"a":1,"k":[{"t":0,"s":[0],"e":[100],"i":{"x":[0.515],"y":[0.955]},"o":{"x":[0.455],"y":[0.03]}},{"t":28}]},"or":{"a":0,"k":[0,0,0]},"a":{"a":0,"k":[4.0070037841796875,4.00750732421875,0]},"p":{"s":true,"x":{"a":0,"k":178.00869104003905},"y":{"a":0,"k":109.47524414062494}},"rx":{"a":0,"k":0},"ry":{"a":0,"k":0},"rz":{"a":0,"k":0},"s":{"a":0,"k":[100,100,100]}},"shapes":[{"ty":"gr","nm":"Mata kiri 1 shape group","it":[{"ty":"sh","ks":{"a":0,"k":{"c":true,"v":[[-419.564,948.431],[-420.913,949.848],[-419.496,951.197],[-418.147,949.78]],"i":[[0.76400000000001,-0.019000000000005457],[-0.019000000000005457,-0.76299999999992],[-0.76400000000001,0.019000000000005457],[0.019000000000005457,0.76400000000001]],"o":[[-0.7639999999999532,0.019000000000005457],[0.019000000000005457,0.76400000000001],[0.7639999999999532,-0.019000000000005457],[-0.019000000000005457,-0.76400000000001]]}}},{"ty":"st","o":{"a":0,"k":0},"w":{"a":0,"k":0},"c":{"a":0,"k":[0,0,0,0]},"lc":3,"lj":1,"ml":1},{"ty":"fl","o":{"a":0,"k":100},"r":2,"c":{"a":0,"k":[1,1,1,1]}},{"ty":"tr","o":{"a":0,"k":100},"a":{"a":0,"k":[0,0]},"s":{"a":0,"k":[100,100]},"p":{"a":0,"k":[425.084,-946.704]},"r":{"a":0,"k":0}}]},{"ty":"gr","nm":"Mata kiri 1 shape group","it":[{"ty":"sh","ks":{"a":0,"k":{"c":true,"v":[[-421.175,946.758],[-425.03,950.809],[-420.979,954.665],[-417.124,950.614]],"i":[[2.184000000000026,-0.05400000000008731],[-0.05400000000003047,-2.1829999999999927],[-2.1829999999999927,0.05400000000008731],[0.05400000000003047,2.1829999999999927]],"o":[[-2.1829999999999927,0.053999999999973625],[0.053999999999973625,2.1840000000000828],[2.1829999999999927,-0.05499999999994998],[-0.053999999999973625,-2.1840000000000828]]}}},{"ty":"sh","ks":{"a":0,"k":{"c":true,"v":[[-419.564,948.431],[-420.913,949.848],[-419.496,951.197],[-418.147,949.78]],"i":[[0.76400000000001,-0.019000000000005457],[-0.019000000000005457,-0.76299999999992],[-0.76400000000001,0.019000000000005457],[0.019000000000005457,0.76400000000001]],"o":[[-0.7639999999999532,0.019000000000005457],[0.019000000000005457,0.76400000000001],[0.7639999999999532,-0.019000000000005457],[-0.019000000000005457,-0.76400000000001]]}}},{"ty":"st","o":{"a":0,"k":0},"w":{"a":0,"k":0},"c":{"a":0,"k":[0,0,0,0]},"lc":3,"lj":1,"ml":1},{"ty":"fl","o":{"a":0,"k":100},"r":2,"c":{"a":0,"k":[0.4823529411764706,0,0.28627450980392155,1]}},{"ty":"tr","o":{"a":0,"k":100},"a":{"a":0,"k":[0,0]},"s":{"a":0,"k":[100,100]},"p":{"a":0,"k":[425.084,-946.704]},"r":{"a":0,"k":0}}]}],"op":48},{"ty":4,"nm":"Mata kiri 2","ip":0,"st":0,"ind":14,"hix":10,"ks":{"o":{"a":1,"k":[{"t":0,"s":[100],"e":[0],"i":{"x":[0.515],"y":[0.955]},"o":{"x":[0.455],"y":[0.03]}},{"t":28}]},"or":{"a":0,"k":[0,0,0]},"a":{"a":0,"k":[4.363494873046875,0.64959716796875,0]},"p":{"s":true,"x":{"a":0,"k":177.70069104003906},"y":{"a":0,"k":109.35124414062503}},"rx":{"a":0,"k":0},"ry":{"a":0,"k":0},"rz":{"a":0,"k":0},"s":{"a":0,"k":[100,100,100]}},"shapes":[{"ty":"gr","nm":"Mata kiri 2 shape group","it":[{"ty":"sh","ks":{"a":0,"k":{"c":false,"v":[[-417.022,949.937],[-425.749,950.989]],"i":[[0,0],[4.9360000000000355,0.9270000000000209]],"o":[[0,0],[0,0]]}}},{"ty":"st","o":{"a":0,"k":100},"c":{"a":0,"k":[0.4823529411764706,0,0.28627450980392155,1]},"lc":2,"lj":2,"ml":10,"w":{"a":0,"k":2}},{"ty":"fl","o":{"a":0,"k":100},"r":1,"c":{"a":0,"k":[1,1,1,1]}},{"ty":"tr","o":{"a":0,"k":100},"a":{"a":0,"k":[0,0]},"s":{"a":0,"k":[100,100]},"p":{"a":0,"k":[425.749,-949.937]},"r":{"a":0,"k":0}}]}],"op":48},{"ty":4,"nm":"Kacamata","ip":0,"st":0,"ind":13,"hix":11,"ks":{"o":{"a":0,"k":100},"or":{"a":0,"k":[0,0,0]},"a":{"a":0,"k":[27.343994140625,14.4840087890625,0]},"p":{"s":true,"x":{"a":0,"k":167.28269104003905},"y":{"a":0,"k":108.87824414062496}},"rx":{"a":0,"k":0},"ry":{"a":0,"k":0},"rz":{"a":0,"k":0},"s":{"a":0,"k":[100,100,100]}},"shapes":[{"ty":"gr","nm":"Kacamata shape group","it":[{"ty":"sh","ks":{"a":0,"k":{"c":true,"v":[[-431.957,946.295],[-418.402,935.63],[-404.459,949.573],[-418.402,963.515],[-431.649,953.933],[-445.204,964.598],[-459.147,950.655],[-445.204,936.713]],"i":[[-1.829999999999984,-5.564999999999941],[-6.574999999999989,0.0019999999999527063],[-0.002999999999985903,-7.703999999999951],[7.7029999999999745,-0.0030000000000427463],[1.829999999999984,5.565000000000055],[6.574999999999989,-0.0019999999999527063],[0.002999999999985903,7.704000000000065],[-7.7029999999999745,0.0030000000000427463]],"o":[[1.4739999999999895,-6.1200000000000045],[7.7029999999999745,0.0030000000000427463],[-0.002999999999985903,7.7029999999999745],[-6.18100000000004,-0.0019999999999527063],[-1.4739999999999895,6.1200000000000045],[-7.7029999999999745,-0.0029999999999290594],[0.002999999999985903,-7.7029999999999745],[6.180999999999983,0.002000000000066393]]}}},{"ty":"sh","ks":{"a":0,"k":{"c":true,"v":[[-445.204,938.713],[-433.261,950.655],[-445.204,962.598],[-457.147,950.655]],"i":[[-6.593000000000018,-0.0029999999999290594],[0.0030000000000427463,-6.5919999999999845],[6.593000000000018,0.0030000000000427463],[-0.002999999999985903,6.593000000000075]],"o":[[6.593000000000018,-0.0029999999999290594],[0.0030000000000427463,6.593000000000075],[-6.593000000000018,0.0030000000000427463],[-0.002999999999985903,-6.5919999999999845]]}}},{"ty":"sh","ks":{"a":0,"k":{"c":true,"v":[[-418.402,937.63],[-406.459,949.573],[-418.402,961.515],[-430.345,949.573]],"i":[[-6.593000000000018,-0.0030000000000427463],[0.002999999999985903,-6.592999999999961],[6.592999999999961,0.0030000000000427463],[-0.002999999999985903,6.5919999999999845]],"o":[[6.592999999999961,-0.0030000000000427463],[0.002999999999985903,6.5919999999999845],[-6.593000000000018,0.0030000000000427463],[-0.002999999999985903,-6.592999999999961]]}}},{"ty":"st","o":{"a":0,"k":0},"w":{"a":0,"k":0},"c":{"a":0,"k":[0,0,0,0]},"lc":3,"lj":1,"ml":1},{"ty":"fl","o":{"a":0,"k":100},"r":2,"c":{"a":0,"k":[0.4823529411764706,0,0.28627450980392155,1]}},{"ty":"tr","o":{"a":0,"k":100},"a":{"a":0,"k":[0,0]},"s":{"a":0,"k":[100,100]},"p":{"a":0,"k":[459.147,-935.63]},"r":{"a":0,"k":0}}]}],"op":48},{"ty":4,"nm":"tompel kanan","ip":0,"st":0,"ind":12,"hix":12,"ks":{"o":{"a":0,"k":100},"or":{"a":0,"k":[0,0,0]},"a":{"a":0,"k":[5.0550079345703125,4.181488037109375,0]},"p":{"s":true,"x":{"a":0,"k":193.08269104003907},"y":{"a":0,"k":109.03724414062495}},"rx":{"a":0,"k":0},"ry":{"a":0,"k":0},"rz":{"a":0,"k":0},"s":{"a":0,"k":[100,100,100]}},"shapes":[{"ty":"gr","nm":"tompel kanan shape group","it":[{"ty":"sh","ks":{"a":0,"k":{"c":true,"v":[[-406.757,946.619],[-410.642,951.23],[-405.249,953.925],[-401.365,949.315]],"i":[[2.562000000000012,-0.52800000000002],[-0.4159999999999968,-2.018000000000029],[-2.561999999999955,0.5289999999999964],[0.41700000000003,2.0179999999999154]],"o":[[-2.562000000000012,0.5289999999999964],[0.41699999999997317,2.016999999999939],[2.5610000000000355,-0.5279999999999063],[-0.4159999999999968,-2.018000000000029]]}}},{"ty":"st","o":{"a":0,"k":100},"c":{"a":0,"k":[0,0,0,1]},"lc":2,"lj":2,"ml":10,"w":{"a":0,"k":0}},{"ty":"fl","o":{"a":0,"k":0},"c":{"a":0,"k":[0,0,0,0]},"r":1},{"ty":"tr","o":{"a":0,"k":100},"a":{"a":0,"k":[0,0]},"s":{"a":0,"k":[100,100]},"p":{"a":0,"k":[411.058,-946.091]},"r":{"a":0,"k":0}}]},{"ty":"gr","nm":"tompel kanan shape group","it":[{"ty":"sh","ks":{"a":0,"k":{"c":true,"v":[[-406.757,946.619],[-410.642,951.23],[-405.249,953.925],[-401.365,949.315]],"i":[[2.562000000000012,-0.52800000000002],[-0.4159999999999968,-2.018000000000029],[-2.561999999999955,0.5289999999999964],[0.41700000000003,2.0179999999999154]],"o":[[-2.562000000000012,0.5289999999999964],[0.41699999999997317,2.016999999999939],[2.5610000000000355,-0.5279999999999063],[-0.4159999999999968,-2.018000000000029]]}}},{"ty":"st","o":{"a":0,"k":0},"w":{"a":0,"k":0},"c":{"a":0,"k":[0,0,0,0]},"lc":3,"lj":1,"ml":1},{"ty":"fl","o":{"a":0,"k":100},"r":2,"c":{"a":0,"k":[1,0.5764705882352941,0.11372549019607843,1]}},{"ty":"tr","o":{"a":0,"k":98},"a":{"a":0,"k":[0,0]},"s":{"a":0,"k":[100,100]},"p":{"a":0,"k":[411.058,-946.091]},"r":{"a":0,"k":0}}]}],"op":48},{"ty":4,"nm":"tompel kiri","ip":0,"st":0,"ind":11,"hix":13,"ks":{"o":{"a":0,"k":100},"or":{"a":0,"k":[0,0,0]},"a":{"a":0,"k":[5.8665008544921875,4.766998291015625,0]},"p":{"s":true,"x":{"a":0,"k":141.86769104003903},"y":{"a":0,"k":113.025244140625}},"rx":{"a":0,"k":0},"ry":{"a":0,"k":0},"rz":{"a":0,"k":0},"s":{"a":0,"k":[100,100,100]}},"shapes":[{"ty":"gr","nm":"tompel kiri shape group","it":[{"ty":"sh","ks":{"a":0,"k":{"c":true,"v":[[-457.769,949.881],[-462.779,954.962],[-456.665,958.641],[-451.655,953.56]],"i":[[3.0720000000000027,-0.3869999999999436],[-0.3050000000000068,-2.419999999999959],[-3.0720000000000027,0.3870000000000573],[0.3039999999999736,2.4190000000000964]],"o":[[-3.0720000000000027,0.3870000000000573],[0.3050000000000068,2.4189999999999827],[3.0710000000000264,-0.3869999999999436],[-0.3050000000000068,-2.4189999999999827]]}}},{"ty":"st","o":{"a":0,"k":100},"c":{"a":0,"k":[0,0,0,1]},"lc":2,"lj":2,"ml":10,"w":{"a":0,"k":0}},{"ty":"fl","o":{"a":0,"k":0},"c":{"a":0,"k":[0,0,0,0]},"r":1},{"ty":"tr","o":{"a":0,"k":100},"a":{"a":0,"k":[0,0]},"s":{"a":0,"k":[100,100]},"p":{"a":0,"k":[463.084,-949.494]},"r":{"a":0,"k":0}}]},{"ty":"gr","nm":"tompel kiri shape group","it":[{"ty":"sh","ks":{"a":0,"k":{"c":true,"v":[[-457.769,949.881],[-462.779,954.962],[-456.665,958.641],[-451.655,953.56]],"i":[[3.0720000000000027,-0.3869999999999436],[-0.3050000000000068,-2.419999999999959],[-3.0720000000000027,0.3870000000000573],[0.3039999999999736,2.4190000000000964]],"o":[[-3.0720000000000027,0.3870000000000573],[0.3050000000000068,2.4189999999999827],[3.0710000000000264,-0.3869999999999436],[-0.3050000000000068,-2.4189999999999827]]}}},{"ty":"st","o":{"a":0,"k":0},"w":{"a":0,"k":0},"c":{"a":0,"k":[0,0,0,0]},"lc":3,"lj":1,"ml":1},{"ty":"fl","o":{"a":0,"k":100},"r":2,"c":{"a":0,"k":[1,0.5764705882352941,0.11372549019607843,1]}},{"ty":"tr","o":{"a":0,"k":98},"a":{"a":0,"k":[0,0]},"s":{"a":0,"k":[100,100]},"p":{"a":0,"k":[463.084,-949.494]},"r":{"a":0,"k":0}}]}],"op":48},{"ty":4,"nm":"head","ip":0,"st":0,"ind":10,"hix":14,"ks":{"o":{"a":0,"k":100},"or":{"a":0,"k":[0,0,0]},"a":{"a":0,"k":[54.66900634765625,36.548492431640625,0]},"p":{"s":true,"x":{"a":0,"k":157.99869104003906},"y":{"a":0,"k":107.20524414062496}},"rx":{"a":0,"k":0},"ry":{"a":0,"k":0},"rz":{"a":0,"k":0},"s":{"a":0,"k":[100,100,100]}},"shapes":[{"ty":"gr","nm":"head shape group","it":[{"ty":"sh","ks":{"a":0,"k":{"c":true,"v":[[-439.358,914.693],[-396.851,949.644],[-441.254,974.525],[-486.654,948.272]],"i":[[-25.904999999999973,-0.7269999999999754],[-5.617000000000019,-20.599000000000046],[25.084000000000003,0.125],[-4.132999999999981,17.059999999999945]],"o":[[17.423000000000002,0.47900000000004184],[4.786000000000001,15.770999999999958],[-25.073999999999955,0.04200000000003001],[4.204000000000008,-19.006000000000085]]}}},{"ty":"sh","ks":{"a":0,"k":{"c":true,"v":[[-439.3,912.694],[-488.608,947.842],[-441.256,976.525],[-394.922,949.116]],"i":[[18.39500000000004,0.5629999999999882],[4.363999999999976,-19.93399999999997],[-25.197000000000003,-0.10799999999994725],[4.682000000000016,18.779999999999973]],"o":[[-26.748999999999967,-0.8019999999999072],[-3.9920000000000186,19.87200000000007],[25.18599999999998,-0.05999999999994543],[-5.923000000000002,-21.509000000000015]]}}},{"ty":"st","o":{"a":0,"k":0},"w":{"a":0,"k":0},"c":{"a":0,"k":[0,0,0,0]},"lc":3,"lj":1,"ml":1},{"ty":"fl","o":{"a":0,"k":100},"r":1,"c":{"a":0,"k":[0.4823529411764706,0,0.28627450980392155,1]}},{"ty":"tr","o":{"a":0,"k":100},"a":{"a":0,"k":[0,0]},"s":{"a":0,"k":[100,100]},"p":{"a":0,"k":[495.756,-911.892]},"r":{"a":0,"k":0}}]},{"ty":"gr","nm":"head shape group","it":[{"ty":"sh","ks":{"a":0,"k":{"c":true,"v":[[-439.329,913.694],[-395.887,949.38],[-487.631,948.057]],"i":[[-26.326999999999998,-0.7649999999999864],[-5.769999999999982,-21.053999999999974],[-8.125,36.932000000000016]],"o":[[17.908999999999992,0.5210000000000719],[9.468999999999994,34.551000000000045],[4.283999999999992,-19.470000000000027]]}}},{"ty":"st","o":{"a":0,"k":0},"w":{"a":0,"k":0},"c":{"a":0,"k":[0,0,0,0]},"lc":3,"lj":1,"ml":1},{"ty":"fl","o":{"a":0,"k":100},"r":1,"c":{"a":0,"k":[1,1,1,1]}},{"ty":"tr","o":{"a":0,"k":100},"a":{"a":0,"k":[0,0]},"s":{"a":0,"k":[100,100]},"p":{"a":0,"k":[495.756,-911.892]},"r":{"a":0,"k":0}}]}],"op":48},{"ty":4,"nm":"kuping kiri","ip":0,"st":0,"ind":9,"hix":15,"ks":{"o":{"a":0,"k":100},"or":{"a":0,"k":[0,0,0]},"a":{"a":0,"k":[21.379501342773438,29.57049560546875,0]},"p":{"s":true,"x":{"a":0,"k":129.57969104003902},"y":{"a":0,"k":84.126244140625}},"rx":{"a":0,"k":0},"ry":{"a":0,"k":0},"rz":{"a":0,"k":0},"s":{"a":0,"k":[100,100,100]}},"shapes":[{"ty":"gr","nm":"kuping kiri shape group","it":[{"ty":"sh","ks":{"a":0,"k":{"c":true,"v":[[-457.17,922.827],[-456.568,922.783],[-455.909,921.596],[-456.263,920.818],[-457.652,919.013],[-462.874,913.468],[-475.729,905.764],[-476,905.858],[-479.462,912.784],[-480.565,925.619],[-480.448,943.799],[-478.711,944.436],[-468.168,933.183],[-460.594,925.652],[-456.742,922.778],[-457.453,922.727]],"i":[[0,0],[-0.29000000000002046,0.07600000000002183],[0.05299999999999727,0.11800000000005184],[0.14699999999999136,0.25],[0.6279999999999859,0.74899999999991],[2.104000000000042,2.02800000000002],[3.75,-0.4740000000000464],[0.09300000000001774,-0.05099999999993088],[0.464999999999975,-2.116999999999962],[0.13700000000000045,-4.238000000000056],[-0.2330000000000041,-6.0499999999999545],[-0.5819999999999936,0.6359999999999673],[-3.5679999999999836,3.6970000000000027],[-2.625,2.363999999999919],[-1.3069999999999595,0.3709999999999809],[0.23699999999996635,0.01700000000005275]],"o":[[0.1290000000000191,0.02800000000002001],[0.7249999999999659,-0.2720000000000482],[-0.09600000000000364,-0.40200000000004366],[-0.29400000000003956,-0.4519999999999982],[-1.25,-1.490000000000009],[-4.298000000000002,-4.019999999999982],[-0.06700000000000728,0.009000000000014552],[-2.858000000000004,1.5720000000000027],[-0.8369999999999891,4.274000000000001],[-0.19299999999998363,6.0639999999999645],[0.03299999999995862,0.8619999999999663],[3.4700000000000273,-3.796000000000049],[2.4920000000000186,-2.5819999999999936],[1.3410000000000082,-1.2309999999999945],[-0.23699999999996635,-0.01700000000005275],[0,0]]}}},{"ty":"sh","ks":{"a":0,"k":{"c":true,"v":[[-458.381,921.303],[-461.932,924.166],[-469.608,931.794],[-478.524,941.272],[-478.566,925.682],[-477.499,913.169],[-475.081,907.634],[-475.352,907.728],[-464.261,914.909],[-459.184,920.299]],"i":[[-0.18500000000000227,-0.2519999999999527],[1.016999999999996,-0.8960000000000719],[2.48599999999999,-2.5739999999999554],[2.9359999999999786,-3.1900000000000546],[-0.16500000000002046,5.192000000000007],[-0.7969999999999686,4.060000000000059],[-1.6019999999999754,0.7369999999999663],[0.08999999999997499,-0.03099999999994907],[-4.008999999999958,-3.9829999999999472],[-1.1949999999999932,-1.4259999999999309]],"o":[[-1.4680000000000177,0.7609999999999673],[-2.701999999999998,2.4329999999999927],[-3.012999999999977,3.1230000000000473],[-0.17300000000000182,-5.197000000000003],[0.1349999999999909,-4.239000000000033],[0.40900000000004866,-2.3419999999999845],[-0.08999999999997499,0.03200000000003911],[1.7699999999999818,-0.58299999999997],[2.049000000000035,1.9740000000000464],[0.33300000000002683,0.39600000000007185]]}}},{"ty":"st","o":{"a":0,"k":0},"w":{"a":0,"k":0},"c":{"a":0,"k":[0,0,0,0]},"lc":3,"lj":1,"ml":1},{"ty":"fl","o":{"a":0,"k":100},"r":1,"c":{"a":0,"k":[0.4823529411764706,0,0.28627450980392155,1]}},{"ty":"tr","o":{"a":0,"k":100},"a":{"a":0,"k":[0,0]},"s":{"a":0,"k":[100,100]},"p":{"a":0,"k":[490.885,-895.792]},"r":{"a":0,"k":0}}]},{"ty":"gr","nm":"kuping kiri shape group","it":[{"ty":"sh","ks":{"a":0,"k":{"c":true,"v":[[-457.031,921.82],[-475.541,906.746],[-479.449,943.761]],"i":[[-1.7280000000000086,-0.8040000000000873],[5.521000000000015,-1.0579999999999927],[0,0]],"o":[[1.7280000000000086,0.80499999999995],[-5.519999999999982,1.0579999999999927],[0,0]]}}},{"ty":"st","o":{"a":0,"k":0},"w":{"a":0,"k":0},"c":{"a":0,"k":[0,0,0,0]},"lc":3,"lj":1,"ml":1},{"ty":"fl","o":{"a":0,"k":100},"r":2,"c":{"a":0,"k":[0.8627450980392157,0.3215686274509804,0.09803921568627451,1]}},{"ty":"tr","o":{"a":0,"k":100},"a":{"a":0,"k":[0,0]},"s":{"a":0,"k":[100,100]},"p":{"a":0,"k":[490.885,-895.792]},"r":{"a":0,"k":0}}]},{"ty":"gr","nm":"kuping kiri shape group","it":[{"ty":"sh","ks":{"a":0,"k":{"c":true,"v":[[-448.284,919.678],[-461.213,905.914],[-479.826,898.918],[-487.564,923.143],[-480.995,949.311],[-459.951,938.849],[-451.532,927.553]],"i":[[0.15800000000001546,1.8150000000000546],[6.6200000000000045,5.138000000000034],[4.740000000000009,-2.2630000000000337],[0.7690000000000055,-11.033000000000015],[-5.8799999999999955,-3.8770000000000664],[-6.710999999999956,7.406999999999925],[-2.112000000000023,3.44500000000005]],"o":[[-0.6580000000000155,-2.9139999999999873],[-6.6679999999999495,-4.963999999999942],[-4.399000000000001,2.6820000000000164],[-0.59699999999998,10.999000000000024],[6.394999999999982,3.5879999999999654],[3.3350000000000364,-3.76400000000001],[2.0960000000000036,-3.518000000000029]]}}},{"ty":"sh","ks":{"a":0,"k":{"c":true,"v":[[-450.258,920.001],[-453.237,926.508],[-461.448,937.522],[-479.94,947.612],[-485.567,923.265],[-478.868,900.674],[-462.427,907.503]],"i":[[-0.04200000000003001,-1.3729999999999336],[2.0600000000000023,-3.261000000000081],[3.25,-3.6650000000000773],[4.023000000000025,2.883000000000038],[-0.7330000000000041,10.715000000000032],[-2.937999999999988,1.3220000000000027],[-6.359999999999957,-4.98700000000008]],"o":[[0.19299999999998363,0.3300000000000409],[-2.0429999999999495,3.3349999999999227],[-6.458000000000027,7.448999999999955],[-4.536999999999978,-2.592999999999961],[0.5610000000000355,-10.68100000000004],[2.5989999999999895,-1.7409999999999854],[6.4080000000000155,4.812999999999988]]}}},{"ty":"sh","ks":{"a":0,"k":{"c":true,"v":[[-457.17,922.827],[-456.568,922.783],[-455.909,921.596],[-456.263,920.818],[-457.652,919.013],[-462.874,913.468],[-475.729,905.764],[-476,905.858],[-479.462,912.784],[-480.565,925.619],[-480.448,943.799],[-478.711,944.436],[-468.168,933.183],[-460.594,925.652],[-456.742,922.778],[-457.453,922.727]],"i":[[0,0],[-0.29000000000002046,0.07600000000002183],[0.05299999999999727,0.11800000000005184],[0.14699999999999136,0.25],[0.6279999999999859,0.74899999999991],[2.104000000000042,2.02800000000002],[3.75,-0.4740000000000464],[0.09300000000001774,-0.05099999999993088],[0.464999999999975,-2.116999999999962],[0.13700000000000045,-4.238000000000056],[-0.2330000000000041,-6.0499999999999545],[-0.5819999999999936,0.6359999999999673],[-3.5679999999999836,3.6970000000000027],[-2.625,2.363999999999919],[-1.3069999999999595,0.3709999999999809],[0.23699999999996635,0.01700000000005275]],"o":[[0.1290000000000191,0.02800000000002001],[0.7249999999999659,-0.2720000000000482],[-0.09600000000000364,-0.40200000000004366],[-0.29400000000003956,-0.4519999999999982],[-1.25,-1.490000000000009],[-4.298000000000002,-4.019999999999982],[-0.06700000000000728,0.009000000000014552],[-2.858000000000004,1.5720000000000027],[-0.8369999999999891,4.274000000000001],[-0.19299999999998363,6.0639999999999645],[0.03299999999995862,0.8619999999999663],[3.4700000000000273,-3.796000000000049],[2.4920000000000186,-2.5819999999999936],[1.3410000000000082,-1.2309999999999945],[-0.23699999999996635,-0.01700000000005275],[0,0]]}}},{"ty":"sh","ks":{"a":0,"k":{"c":true,"v":[[-458.381,921.303],[-461.932,924.166],[-469.608,931.794],[-478.524,941.272],[-478.566,925.682],[-477.499,913.169],[-475.081,907.634],[-475.352,907.728],[-464.261,914.909],[-459.184,920.299]],"i":[[-0.18500000000000227,-0.2519999999999527],[1.016999999999996,-0.8960000000000719],[2.48599999999999,-2.5739999999999554],[2.9359999999999786,-3.1900000000000546],[-0.16500000000002046,5.192000000000007],[-0.7969999999999686,4.060000000000059],[-1.6019999999999754,0.7369999999999663],[0.08999999999997499,-0.03099999999994907],[-4.008999999999958,-3.9829999999999472],[-1.1949999999999932,-1.4259999999999309]],"o":[[-1.4680000000000177,0.7609999999999673],[-2.701999999999998,2.4329999999999927],[-3.012999999999977,3.1230000000000473],[-0.17300000000000182,-5.197000000000003],[0.1349999999999909,-4.239000000000033],[0.40900000000004866,-2.3419999999999845],[-0.08999999999997499,0.03200000000003911],[1.7699999999999818,-0.58299999999997],[2.049000000000035,1.9740000000000464],[0.33300000000002683,0.39600000000007185]]}}},{"ty":"st","o":{"a":0,"k":0},"w":{"a":0,"k":0},"c":{"a":0,"k":[0,0,0,0]},"lc":3,"lj":1,"ml":1},{"ty":"fl","o":{"a":0,"k":100},"r":1,"c":{"a":0,"k":[0.4823529411764706,0,0.28627450980392155,1]}},{"ty":"tr","o":{"a":0,"k":100},"a":{"a":0,"k":[0,0]},"s":{"a":0,"k":[100,100]},"p":{"a":0,"k":[490.885,-895.792]},"r":{"a":0,"k":0}}]},{"ty":"gr","nm":"kuping kiri shape group","it":[{"ty":"sh","ks":{"a":0,"k":{"c":true,"v":[[-449.271,919.84],[-479.347,899.796],[-480.467,948.462]],"i":[[0.7010000000000218,4.286999999999921],[7.338999999999999,-4.004000000000019],[-10.418000000000006,-6.471000000000004]],"o":[[-0.700999999999965,-4.288000000000011],[-7.338000000000022,4.0049999999999955],[10.418000000000006,6.471000000000004]]}}},{"ty":"sh","ks":{"a":0,"k":{"c":true,"v":[[-457.031,921.82],[-475.541,906.746],[-479.449,943.761]],"i":[[-1.7280000000000086,-0.8040000000000873],[5.521000000000015,-1.0579999999999927],[0,0]],"o":[[1.7280000000000086,0.80499999999995],[-5.519999999999982,1.0579999999999927],[0,0]]}}},{"ty":"st","o":{"a":0,"k":0},"w":{"a":0,"k":0},"c":{"a":0,"k":[0,0,0,0]},"lc":3,"lj":1,"ml":1},{"ty":"fl","o":{"a":0,"k":100},"r":2,"c":{"a":0,"k":[1,0.5764705882352941,0.11372549019607843,1]}},{"ty":"tr","o":{"a":0,"k":100},"a":{"a":0,"k":[0,0]},"s":{"a":0,"k":[100,100]},"p":{"a":0,"k":[490.885,-895.792]},"r":{"a":0,"k":0}}]}],"op":48},{"ty":4,"nm":"kuping kanan","ip":0,"st":0,"ind":8,"hix":16,"ks":{"o":{"a":0,"k":100},"or":{"a":0,"k":[0,0,0]},"a":{"a":0,"k":[17.606002807617188,23.365509033203125,0]},"p":{"s":true,"x":{"a":0,"k":183.33269104003907},"y":{"a":0,"k":80.45624414062493}},"rx":{"a":0,"k":0},"ry":{"a":0,"k":0},"rz":{"a":0,"k":0},"s":{"a":0,"k":[100,100,100]}},"shapes":[{"ty":"gr","nm":"kuping kanan shape group","it":[{"ty":"sh","ks":{"a":0,"k":{"c":true,"v":[[-409.831,933.601],[-412.691,932.231],[-418.747,927.559],[-426.27,920.858],[-420.821,914.644],[-415.72,910.35],[-411.894,909.253],[-408.633,921.644],[-408.979,930.01],[-409.533,932.834],[-409.833,933.605],[-409.931,933.76],[-409.897,933.739],[-409.544,933.607]],"i":[[0,0],[1.086999999999989,0.7350000000000136],[1.9870000000000232,1.6700000000000728],[2.4629999999999654,2.3090000000000828],[-1.936999999999955,1.9519999999999982],[-1.849999999999966,1.15199999999993],[-1.0699999999999932,-0.37400000000002365],[-0.06300000000004502,-6.032000000000039],[0.30299999999999727,-2.316000000000031],[0.21000000000003638,-0.6859999999999218],[0.08800000000002228,-0.1610000000000582],[0.016999999999995907,-0.020999999999958163],[-0.049000000000035016,0.03099999999994907],[-0.117999999999995,0.04399999999998272]],"o":[[-0.7649999999999864,0.03899999999998727],[-2.112000000000023,-1.34699999999998],[-2.562999999999988,-2.1539999999999964],[1.7059999999999604,-2.173999999999978],[1.600999999999999,-1.615000000000009],[1.3280000000000314,-0.8500000000000227],[1.6100000000000136,0.18599999999992178],[0.09600000000000364,3.0259999999999536],[-0.1500000000000341,1.1560000000000628],[-0.10300000000000864,0.3420000000000982],[-0.04299999999994952,0.08100000000001728],[0.016999999999995907,-0.021999999999934516],[0.117999999999995,-0.04399999999998272],[0,0]]}}},{"ty":"sh","ks":{"a":0,"k":{"c":true,"v":[[-428.309,921.7],[-420.034,929.09],[-413.767,933.917],[-409.208,935.578],[-408.856,935.447],[-406.996,930.269],[-406.634,921.581],[-411.251,907.36],[-416.779,908.653],[-422.241,913.236],[-428.418,920.362]],"i":[[-0.3669999999999618,-0.3450000000000273],[-2.8350000000000364,-2.383000000000038],[-2.26400000000001,-1.4460000000000264],[-2.061999999999955,0.2939999999999827],[-0.04099999999999682,0.03300000000001546],[-0.40500000000002956,2.4969999999999573],[0.09800000000001319,3.129000000000019],[3.6049999999999613,1.6989999999999554],[1.4139999999999873,-0.86099999999999],[1.6399999999999864,-1.6520000000000437],[1.9120000000000346,-2.4869999999999663]],"o":[[2.6920000000000073,2.5289999999999964],[1.9839999999999804,1.66599999999994],[1.0910000000000082,0.6509999999999536],[0.1570000000000391,-0.021999999999934516],[1.2590000000000146,-1.0209999999999582],[0.3199999999999932,-2.455000000000041],[-0.32499999999998863,-6.27800000000002],[-2.205000000000041,-0.6649999999999636],[-2.0670000000000073,1.2899999999999636],[-2.2210000000000036,2.2390000000000327],[-0.3059999999999832,0.3990000000000009]]}}},{"ty":"st","o":{"a":0,"k":0},"w":{"a":0,"k":0},"c":{"a":0,"k":[0,0,0,0]},"lc":3,"lj":1,"ml":1},{"ty":"fl","o":{"a":0,"k":100},"r":1,"c":{"a":0,"k":[0.4823529411764706,0,0.28627450980392155,1]}},{"ty":"tr","o":{"a":0,"k":100},"a":{"a":0,"k":[0,0]},"s":{"a":0,"k":[100,100]},"p":{"a":0,"k":[433.359,-898.326]},"r":{"a":0,"k":0}}]},{"ty":"gr","nm":"kuping kanan shape group","it":[{"ty":"sh","ks":{"a":0,"k":{"c":true,"v":[[-427.625,920.971],[-411.554,908.313],[-409.376,934.593]],"i":[[0,0],[-5.178000000000054,-1.8719999999999573],[2.3729999999999905,-1.4459999999999127]],"o":[[0,0],[5.177999999999997,1.8719999999999573],[-2.3730000000000473,1.4460000000000264]]}}},{"ty":"st","o":{"a":0,"k":0},"w":{"a":0,"k":0},"c":{"a":0,"k":[0,0,0,0]},"lc":3,"lj":1,"ml":1},{"ty":"fl","o":{"a":0,"k":100},"r":2,"c":{"a":0,"k":[0.8627450980392157,0.3215686274509804,0.09803921568627451,1]}},{"ty":"tr","o":{"a":0,"k":100},"a":{"a":0,"k":[0,0]},"s":{"a":0,"k":[100,100]},"p":{"a":0,"k":[433.359,-898.326]},"r":{"a":0,"k":0}}]},{"ty":"gr","nm":"kuping kanan shape group","it":[{"ty":"sh","ks":{"a":0,"k":{"c":true,"v":[[-431.366,918.817],[-422.647,908.326],[-410.354,901.925],[-403.747,919.136],[-406.537,938.485],[-421.487,931.738],[-428.64,923.613]],"i":[[-0.14699999999999136,0.1169999999999618],[-4.721000000000004,4.168000000000006],[-1.9320000000000164,-1.1689999999999827],[-1.1030000000000086,-8.346000000000004],[3.2799999999999727,-2.1889999999999645],[5.540999999999997,5.461999999999989],[1.815999999999974,2.48599999999999]],"o":[[-0.10500000000001819,-0.9189999999999827],[4.659999999999968,-4.3390000000000555],[2.2369999999999663,0.7240000000000464],[1.2760000000000105,8.365999999999985],[-2.742999999999995,2.437000000000012],[-2.7860000000000014,-2.6700000000000728],[-1.8269999999999982,-2.411000000000058]]}}},{"ty":"sh","ks":{"a":0,"k":{"c":true,"v":[[-433.359,918.655],[-430.255,924.793],[-422.871,933.181],[-405.347,940.093],[-401.767,918.852],[-409.542,900.097],[-423.986,906.84]],"i":[[0.38299999999998136,-2.5049999999999955],[-1.8829999999999814,-2.6649999999999636],[-2.8799999999999955,-2.761000000000081],[-5.051000000000045,3.3319999999999936],[1.1650000000000205,8.659999999999968],[3.8029999999999973,1.9610000000000127],[4.968999999999994,-4.3390000000000555]],"o":[[0.007999999999981355,1.5950000000000273],[1.8940000000000055,2.590000000000032],[5.788999999999987,5.399999999999977],[4.513999999999953,-3.5779999999999745],[-1.3389999999999986,-8.67999999999995],[-4.108000000000004,-1.5159999999999627],[-4.906000000000006,4.509999999999991]]}}},{"ty":"sh","ks":{"a":0,"k":{"c":true,"v":[[-409.831,933.601],[-412.691,932.231],[-418.747,927.559],[-426.27,920.858],[-420.821,914.644],[-415.72,910.35],[-411.894,909.253],[-408.633,921.644],[-408.979,930.01],[-409.533,932.834],[-409.833,933.605],[-409.931,933.76],[-409.897,933.739],[-409.544,933.607]],"i":[[0,0],[1.086999999999989,0.7350000000000136],[1.9870000000000232,1.6700000000000728],[2.4629999999999654,2.3090000000000828],[-1.936999999999955,1.9519999999999982],[-1.849999999999966,1.15199999999993],[-1.0699999999999932,-0.37400000000002365],[-0.06300000000004502,-6.032000000000039],[0.30299999999999727,-2.316000000000031],[0.21000000000003638,-0.6859999999999218],[0.08800000000002228,-0.1610000000000582],[0.016999999999995907,-0.020999999999958163],[-0.049000000000035016,0.03099999999994907],[-0.117999999999995,0.04399999999998272]],"o":[[-0.7649999999999864,0.03899999999998727],[-2.112000000000023,-1.34699999999998],[-2.562999999999988,-2.1539999999999964],[1.7059999999999604,-2.173999999999978],[1.600999999999999,-1.615000000000009],[1.3280000000000314,-0.8500000000000227],[1.6100000000000136,0.18599999999992178],[0.09600000000000364,3.0259999999999536],[-0.1500000000000341,1.1560000000000628],[-0.10300000000000864,0.3420000000000982],[-0.04299999999994952,0.08100000000001728],[0.016999999999995907,-0.021999999999934516],[0.117999999999995,-0.04399999999998272],[0,0]]}}},{"ty":"sh","ks":{"a":0,"k":{"c":true,"v":[[-428.309,921.7],[-420.034,929.09],[-413.767,933.917],[-409.208,935.578],[-408.856,935.447],[-406.996,930.269],[-406.634,921.581],[-411.251,907.36],[-416.779,908.653],[-422.241,913.236],[-428.418,920.362]],"i":[[-0.3669999999999618,-0.3450000000000273],[-2.8350000000000364,-2.383000000000038],[-2.26400000000001,-1.4460000000000264],[-2.061999999999955,0.2939999999999827],[-0.04099999999999682,0.03300000000001546],[-0.40500000000002956,2.4969999999999573],[0.09800000000001319,3.129000000000019],[3.6049999999999613,1.6989999999999554],[1.4139999999999873,-0.86099999999999],[1.6399999999999864,-1.6520000000000437],[1.9120000000000346,-2.4869999999999663]],"o":[[2.6920000000000073,2.5289999999999964],[1.9839999999999804,1.66599999999994],[1.0910000000000082,0.6509999999999536],[0.1570000000000391,-0.021999999999934516],[1.2590000000000146,-1.0209999999999582],[0.3199999999999932,-2.455000000000041],[-0.32499999999998863,-6.27800000000002],[-2.205000000000041,-0.6649999999999636],[-2.0670000000000073,1.2899999999999636],[-2.2210000000000036,2.2390000000000327],[-0.3059999999999832,0.3990000000000009]]}}},{"ty":"st","o":{"a":0,"k":0},"w":{"a":0,"k":0},"c":{"a":0,"k":[0,0,0,0]},"lc":3,"lj":1,"ml":1},{"ty":"fl","o":{"a":0,"k":100},"r":1,"c":{"a":0,"k":[0.4823529411764706,0,0.28627450980392155,1]}},{"ty":"tr","o":{"a":0,"k":100},"a":{"a":0,"k":[0,0]},"s":{"a":0,"k":[100,100]},"p":{"a":0,"k":[433.359,-898.326]},"r":{"a":0,"k":0}}]},{"ty":"gr","nm":"kuping kanan shape group","it":[{"ty":"sh","ks":{"a":0,"k":{"c":true,"v":[[-432.362,918.736],[-409.948,901.011],[-405.942,939.289]],"i":[[-0.27799999999996317,3.423999999999978],[-6.0400000000000205,-2.6849999999999454],[7.795000000000016,-5.768000000000029]],"o":[[0.27700000000004366,-3.423999999999978],[6.039999999999964,2.685000000000059],[-7.793999999999983,5.768000000000029]]}}},{"ty":"sh","ks":{"a":0,"k":{"c":true,"v":[[-427.625,920.971],[-411.554,908.313],[-409.376,934.593]],"i":[[0,0],[-5.178000000000054,-1.8719999999999573],[2.3729999999999905,-1.4459999999999127]],"o":[[0,0],[5.177999999999997,1.8719999999999573],[-2.3730000000000473,1.4460000000000264]]}}},{"ty":"st","o":{"a":0,"k":0},"w":{"a":0,"k":0},"c":{"a":0,"k":[0,0,0,0]},"lc":3,"lj":1,"ml":1},{"ty":"fl","o":{"a":0,"k":100},"r":2,"c":{"a":0,"k":[1,0.5764705882352941,0.11372549019607843,1]}},{"ty":"tr","o":{"a":0,"k":100},"a":{"a":0,"k":[0,0]},"s":{"a":0,"k":[100,100]},"p":{"a":0,"k":[433.359,-898.326]},"r":{"a":0,"k":0}}]}],"op":48},{"ty":4,"nm":"body","ip":0,"st":0,"ind":7,"hix":17,"ks":{"o":{"a":0,"k":100},"or":{"a":0,"k":[0,0,0]},"a":{"a":0,"k":[58.274017333984375,35.35699462890625,0]},"p":{"s":true,"x":{"a":0,"k":122.56669104003905},"y":{"a":0,"k":138.88724414062497}},"rx":{"a":0,"k":0},"ry":{"a":0,"k":0},"rz":{"a":0,"k":0},"s":{"a":0,"k":[100,100,100]}},"shapes":[{"ty":"gr","nm":"body shape group","it":[{"ty":"sh","ks":{"a":0,"k":{"c":true,"v":[[-424.224,958.107],[-470.061,951.792],[-523.983,975.492],[-529.717,999.879],[-506.466,1014.56],[-458.145,1014.56],[-421.898,971.897],[-424.097,958.455]],"i":[[0.057999999999992724,0.09000000000003183],[21.25999999999999,-2.8840000000000146],[10.086999999999989,-12.896999999999935],[-1.7910000000000537,-8.54200000000003],[-14.409999999999968,0.9200000000000728],[-16.107000000000028,0],[3.65300000000002,22.3599999999999],[0.7330000000000041,4.4809999999999945]],"o":[[-4.942000000000007,-7.711999999999989],[-21.213000000000022,3.0230000000000246],[-4.564000000000078,5.913000000000011],[1.7309999999999945,8.581000000000017],[16.107000000000028,0],[22.656999999999982,-0.009999999999990905],[-0.7329999999999472,-4.480000000000018],[-0.023000000000024556,-0.13999999999998636]]}}},{"ty":"sh","ks":{"a":0,"k":{"c":true,"v":[[-426.071,958.778],[-423.872,972.22],[-458.145,1012.56],[-506.523,1012.56],[-527.761,999.462],[-522.404,976.72],[-469.781,953.773],[-425.945,959.126]],"i":[[0.04200000000003001,0.11599999999998545],[-0.7330000000000041,-4.4809999999999945],[21.413999999999987,0],[16.164000000000044,0],[1.7419999999999618,7.7280000000000655],[-4.201000000000022,5.367999999999938],[-20.930999999999983,2.9279999999999973],[-3.254000000000019,-6.13799999999992]],"o":[[0.7330000000000041,4.4809999999999945],[3.4630000000000223,21.131999999999948],[-16.107000000000028,0],[-13.860000000000014,0.7000000000000455],[-1.6829999999999927,-7.7690000000000055],[9.357999999999947,-12.129000000000019],[20.884000000000015,-3.0670000000000073],[-0.04200000000003001,-0.11599999999998545]]}}},{"ty":"st","o":{"a":0,"k":0},"w":{"a":0,"k":0},"c":{"a":0,"k":[0,0,0,0]},"lc":3,"lj":1,"ml":1},{"ty":"fl","o":{"a":0,"k":100},"r":1,"c":{"a":0,"k":[0.4823529411764706,0,0.28627450980392155,1]}},{"ty":"tr","o":{"a":0,"k":100},"a":{"a":0,"k":[0,0]},"s":{"a":0,"k":[100,100]},"p":{"a":0,"k":[534.793,-944.766]},"r":{"a":0,"k":0}}]},{"ty":"gr","nm":"body shape group","it":[{"ty":"sh","ks":{"a":0,"k":{"c":true,"v":[[-425.084,958.617],[-523.193,976.106],[-506.466,1013.56],[-458.145,1013.56],[-422.885,972.058]],"i":[[0,0],[19.44399999999996,-25.025999999999954],[-28.326999999999998,1.6200000000000045],[0,0],[3.5579999999999927,21.74599999999998]],"o":[[-8.197000000000003,-13.850999999999999],[-8.765999999999963,11.280999999999949],[0,0],[22.034999999999968,0],[0,0]]}}},{"ty":"st","o":{"a":0,"k":0},"w":{"a":0,"k":0},"c":{"a":0,"k":[0,0,0,0]},"lc":3,"lj":1,"ml":1},{"ty":"fl","o":{"a":0,"k":100},"r":1,"c":{"a":0,"k":[1,1,1,1]}},{"ty":"tr","o":{"a":0,"k":100},"a":{"a":0,"k":[0,0]},"s":{"a":0,"k":[100,100]},"p":{"a":0,"k":[534.793,-944.766]},"r":{"a":0,"k":0}}]}],"op":48},{"ty":4,"nm":"ekor","ip":0,"st":0,"ind":6,"hix":18,"ks":{"o":{"a":1,"k":[{"t":0,"s":[100],"e":[0],"i":{"x":[0.515],"y":[0.955]},"o":{"x":[0.455],"y":[0.03]}},{"t":6,"s":[0],"e":[100],"i":{"x":[0.515],"y":[0.955]},"o":{"x":[0.455],"y":[0.03]}},{"t":12,"s":[100],"e":[0],"i":{"x":[0.515],"y":[0.955]},"o":{"x":[0.455],"y":[0.03]}},{"t":18,"s":[0],"e":[100],"i":{"x":[0.515],"y":[0.955]},"o":{"x":[0.455],"y":[0.03]}},{"t":24,"s":[100],"e":[0],"i":{"x":[0.515],"y":[0.955]},"o":{"x":[0.455],"y":[0.03]}},{"t":30,"s":[0],"e":[100],"i":{"x":[0.515],"y":[0.955]},"o":{"x":[0.455],"y":[0.03]}},{"t":36,"s":[100],"e":[0],"i":{"x":[0.515],"y":[0.955]},"o":{"x":[0.455],"y":[0.03]}},{"t":42,"s":[0],"e":[100],"i":{"x":[0.515],"y":[0.955]},"o":{"x":[0.455],"y":[0.03]}},{"t":48}]},"or":{"a":0,"k":[0,0,0]},"a":{"a":0,"k":[22.864501953125,28.31298828125,0]},"p":{"s":true,"x":{"a":0,"k":65.770691040039},"y":{"a":0,"k":120.62924414062493}},"rx":{"a":0,"k":0},"ry":{"a":0,"k":0},"rz":{"a":0,"k":0},"s":{"a":0,"k":[100,100,100]}},"shapes":[{"ty":"gr","nm":"ekor shape group","it":[{"ty":"sh","ks":{"a":0,"k":{"c":true,"v":[[-511.717,971.118],[-522.97,966.681],[-532.83,952.733],[-551.757,947.826],[-519.907,989.678],[-519.222,987.799],[-549.797,948.224],[-534.818,952.506],[-523.926,968.437],[-512.228,973.052]],"i":[[1.266999999999996,0.2719999999999345],[3.5470000000000255,1.9289999999999736],[-0.8129999999999882,6.129000000000019],[2.631999999999948,-14.274000000000001],[-16.692999999999984,-6.100000000000023],[1.2369999999999663,0.38599999999996726],[-4.2450000000000045,19.226],[1.092999999999961,-12.84699999999998],[-5.52699999999993,-3.0270000000000437],[-4.05600000000004,-1.0720000000000027]],"o":[[-3.911000000000058,-1.0330000000000155],[-5.314999999999941,-2.8730000000000473],[1.8319999999999936,-14.879999999999995],[-4.41700000000003,20.96199999999999],[1.1960000000000264,0.5],[-16.377000000000066,-5.944999999999936],[2.271000000000072,-11.523000000000025],[-0.8690000000000282,7.571000000000026],[3.6970000000000027,2.0119999999999436],[1.2359999999999332,0.38999999999998636]]}}},{"ty":"st","o":{"a":0,"k":0},"w":{"a":0,"k":0},"c":{"a":0,"k":[0,0,0,0]},"lc":3,"lj":1,"ml":1},{"ty":"fl","o":{"a":0,"k":100},"r":1,"c":{"a":0,"k":[0.4823529411764706,0,0.28627450980392155,1]}},{"ty":"tr","o":{"a":0,"k":100},"a":{"a":0,"k":[0,0]},"s":{"a":0,"k":[100,100]},"p":{"a":0,"k":[556.179,-933.552]},"r":{"a":0,"k":0}}]},{"ty":"gr","nm":"ekor shape group","it":[{"ty":"sh","ks":{"a":0,"k":{"c":false,"v":[[-511.973,972.085],[-533.825,952.628],[-550.779,948.037],[-519.564,988.738]],"i":[[0,0],[-1.4639999999999418,13.872999999999934],[2.453999999999951,-12.910000000000082],[0,0]],"o":[[0,0],[1.4640000000000555,-13.872000000000071],[-5.399999999999977,28.404999999999973],[0,0]]}}},{"ty":"st","o":{"a":0,"k":0},"w":{"a":0,"k":0},"c":{"a":0,"k":[0,0,0,0]},"lc":3,"lj":1,"ml":1},{"ty":"fl","o":{"a":0,"k":100},"r":1,"c":{"a":0,"k":[1,0.5764705882352941,0.11372549019607843,1]}},{"ty":"tr","o":{"a":0,"k":100},"a":{"a":0,"k":[0,0]},"s":{"a":0,"k":[100,100]},"p":{"a":0,"k":[556.179,-933.552]},"r":{"a":0,"k":0}}]}],"op":48},{"ty":4,"nm":"Ekor 2","ip":0,"st":0,"ind":5,"hix":19,"ks":{"o":{"a":1,"k":[{"t":0,"s":[0],"e":[100],"i":{"x":[0.515],"y":[0.955]},"o":{"x":[0.455],"y":[0.03]}},{"t":6,"s":[100],"e":[0],"i":{"x":[0.515],"y":[0.955]},"o":{"x":[0.455],"y":[0.03]}},{"t":12,"s":[0],"e":[100],"i":{"x":[0.515],"y":[0.955]},"o":{"x":[0.455],"y":[0.03]}},{"t":18,"s":[100],"e":[0],"i":{"x":[0.515],"y":[0.955]},"o":{"x":[0.455],"y":[0.03]}},{"t":24,"s":[0],"e":[100],"i":{"x":[0.515],"y":[0.955]},"o":{"x":[0.455],"y":[0.03]}},{"t":30,"s":[100],"e":[0],"i":{"x":[0.515],"y":[0.955]},"o":{"x":[0.455],"y":[0.03]}},{"t":36,"s":[0],"e":[100],"i":{"x":[0.515],"y":[0.955]},"o":{"x":[0.455],"y":[0.03]}},{"t":42,"s":[100],"e":[0],"i":{"x":[0.515],"y":[0.955]},"o":{"x":[0.455],"y":[0.03]}},{"t":48}]},"or":{"a":0,"k":[0,0,0]},"a":{"a":0,"k":[22.89288330078125,12.5150146484375,0]},"p":{"s":true,"x":{"a":0,"k":59.33969104003907},"y":{"a":0,"k":140.3612441406249}},"rx":{"a":0,"k":0},"ry":{"a":0,"k":0},"rz":{"a":0,"k":0},"s":{"a":0,"k":[100,100,100]}},"shapes":[{"ty":"gr","nm":"Ekor 2 shape group","it":[{"ty":"sh","ks":{"a":0,"k":{"c":false,"v":[[-516.853,969.743],[-562.008,989.594],[-522.526,986.642]],"i":[[0,0],[-6.087999999999965,-15.128000000000043],[-20.119000000000028,-5.302999999999997]],"o":[[-11.544000000000096,-3.07000000000005],[5.45900000000006,13.565999999999917],[0,0]]}}},{"ty":"st","o":{"a":0,"k":100},"c":{"a":0,"k":[0.4823529411764706,0,0.28627450980392155,1]},"lc":2,"lj":2,"ml":10,"w":{"a":0,"k":2}},{"ty":"fl","o":{"a":0,"k":100},"r":1,"c":{"a":0,"k":[1,0.5764705882352941,0.11372549019607843,1]}},{"ty":"tr","o":{"a":0,"k":100},"a":{"a":0,"k":[0,0]},"s":{"a":0,"k":[100,100]},"p":{"a":0,"k":[562.639,-969.082]},"r":{"a":0,"k":0}}]}],"op":48},{"ty":4,"nm":"rambut kiri","ip":0,"st":0,"ind":4,"hix":20,"ks":{"o":{"a":0,"k":100},"or":{"a":0,"k":[0,0,0]},"a":{"a":0,"k":[10.58648681640625,10.94451904296875,0]},"p":{"s":true,"x":{"a":0,"k":205.67869104003907},"y":{"a":0,"k":112.99324414062497}},"rx":{"a":0,"k":0},"ry":{"a":0,"k":0},"rz":{"a":0,"k":0},"s":{"a":0,"k":[100,100,100]}},"shapes":[{"ty":"gr","nm":"rambut kiri shape group","it":[{"ty":"sh","ks":{"a":0,"k":{"c":true,"v":[[-399.053,946.216],[-386.728,948.685],[-392.879,950.038],[-393.37,951.729],[-388.498,956.518],[-394.348,958.419],[-394.915,959.853],[-393.528,962.369],[-402.699,963.026],[-402.556,965.021],[-391.827,964.253],[-391.023,962.772],[-392.579,959.947],[-386.313,957.911],[-385.921,956.247],[-390.645,951.604],[-383.875,950.151],[-383.508,948.356],[-399.389,944.244]],"i":[[-1.2660000000000196,0.27800000000002],[-3.7620000000000005,-2.11099999999999],[2.0430000000000064,-0.43899999999996453],[-0.5480000000000018,-0.5389999999999873],[-1.6240000000000236,-1.5960000000000036],[1.9499999999999886,-0.6330000000000382],[-0.2939999999999827,-0.5339999999999918],[-0.46299999999996544,-0.8380000000000791],[3.0570000000000164,-0.21899999999993724],[-1.2870000000000346,0.15300000000002],[-3.576000000000022,0.2559999999999718],[0.3410000000000082,0.6179999999999382],[0.5190000000000055,0.9420000000000073],[-2.0889999999999986,0.6790000000000873],[0.5169999999999959,0.5080000000000382],[1.5749999999999886,1.5469999999999118],[-2.257000000000005,0.4840000000000373],[0.686999999999955,0.4840000000000373],[5.661000000000001,-0.95900000000006]],"o":[[4.192000000000007,-0.7200000000000273],[-2.0649999999999977,0.4759999999999991],[-0.7519999999999527,0.16099999999994452],[1.6240000000000236,1.5960000000000036],[-1.9499999999999886,0.6340000000000146],[-0.5799999999999841,0.18899999999996453],[0.46200000000004593,0.8390000000000555],[-3.0569999999999595,0.21899999999993724],[-1.295000000000016,0.03200000000003911],[3.576999999999998,-0.2559999999999718],[0.7040000000000077,-0.051000000000044565],[-0.5189999999999486,-0.9410000000000309],[2.0880000000000223,-0.6779999999999973],[0.6899999999999977,-0.2239999999999327],[-1.5740000000000123,-1.5480000000000018],[2.257000000000005,-0.48500000000001364],[0.8220000000000027,-0.17699999999990723],[-4.5049999999999955,-3.1749999999999545],[-1.2869999999999777,0.15800000000001546]]}}},{"ty":"st","o":{"a":0,"k":0},"w":{"a":0,"k":0},"c":{"a":0,"k":[0,0,0,0]},"lc":3,"lj":1,"ml":1},{"ty":"fl","o":{"a":0,"k":100},"r":1,"c":{"a":0,"k":[0.4823529411764706,0,0.28627450980392155,1]}},{"ty":"tr","o":{"a":0,"k":100},"a":{"a":0,"k":[0,0]},"s":{"a":0,"k":[100,100]},"p":{"a":0,"k":[403.994,-943.285]},"r":{"a":0,"k":0}}]},{"ty":"gr","nm":"rambut kiri shape group","it":[{"ty":"sh","ks":{"a":0,"k":{"c":false,"v":[[-399.221,945.23],[-384.085,949.173],[-392.669,951.015],[-386.622,956.96],[-394.039,959.37],[-391.898,963.255],[-402.627,964.024]],"i":[[0,0],[0,0],[0,0],[0,0],[0,0],[0,0],[0,0]],"o":[[8.254000000000019,-1.4149999999999636],[0,0],[0,0],[0,0],[0,0],[0,0],[0,0]]}}},{"ty":"st","o":{"a":0,"k":0},"w":{"a":0,"k":0},"c":{"a":0,"k":[0,0,0,0]},"lc":3,"lj":1,"ml":1},{"ty":"fl","o":{"a":0,"k":100},"r":1,"c":{"a":0,"k":[1,1,1,1]}},{"ty":"tr","o":{"a":0,"k":100},"a":{"a":0,"k":[0,0]},"s":{"a":0,"k":[100,100]},"p":{"a":0,"k":[403.994,-943.285]},"r":{"a":0,"k":0}}]}],"op":48},{"ty":4,"nm":"tangan kiri","ip":0,"st":0,"ind":3,"hix":21,"ks":{"o":{"a":0,"k":100},"or":{"a":0,"k":[0,0,0]},"a":{"a":0,"k":[28.355499267578125,19.197998046875,0]},"p":{"s":true,"x":{"a":0,"k":197.42069104003903},"y":{"a":0,"k":151.7862441406251}},"rx":{"a":0,"k":0},"ry":{"a":0,"k":0},"rz":{"a":0,"k":0},"s":{"a":0,"k":[100,100,100]}},"shapes":[{"ty":"gr","nm":"tangan kiri shape group","it":[{"ty":"sh","ks":{"a":0,"k":{"c":true,"v":[[-425.949,976.143],[-412.449,992.527],[-411.616,993.312],[-397.369,996.153],[-386.522,999.735],[-379.578,1004.49],[-378.067,1009.71],[-380.068,1009.93],[-428.726,1009.93],[-428.726,1011.93],[-380.164,1011.93],[-376.662,1011.14],[-377.91,1003.39],[-385.707,997.908],[-396.872,994.216],[-410.667,991.432],[-425.449,974.207]],"i":[[-1.2690000000000055,-0.26400000000001],[-1.5059999999999718,-7.263000000000034],[-0.41100000000000136,-0.06100000000003547],[-4.689999999999998,-1.2010000000000218],[-3.4540000000000077,-1.5399999999999636],[-1.5710000000000264,-2.1499999999999773],[1.257000000000005,-0.8400000000000318],[1.007000000000005,0.12999999999999545],[16.218999999999994,0],[-1.295000000000016,0.06000000000005912],[-16.12299999999999,0],[-1.1800000000000068,1.080000000000041],[0.9300000000000068,1.8000000000000682],[2.7749999999999773,1.2440000000000282],[3.768000000000029,0.9650000000000318],[4.635999999999967,0.7039999999999509],[8.100999999999999,2.118000000000052]],"o":[[7.281000000000006,1.8500000000000227],[0.08400000000000318,0.4049999999999727],[4.795999999999992,0.70799999999997],[3.7210000000000036,0.9529999999999745],[2.7199999999999704,1.205000000000041],[1.3109999999999786,1.990000000000009],[-0.17599999999998772,0.2599999999999909],[-16.218999999999994,0],[-1.295000000000016,-0.05999999999994543],[16.218999999999994,0],[0.9250000000000114,0.06000000000005912],[2.602999999999952,-2.9600000000000364],[-2.016999999999996,-2.740000000000009],[-3.6159999999999854,-1.61099999999999],[-4.550000000000011,-1.1660000000000537],[-1.740000000000009,-7.513000000000034],[-1.238999999999976,-0.3830000000000382]]}}},{"ty":"st","o":{"a":0,"k":0},"w":{"a":0,"k":0},"c":{"a":0,"k":[0,0,0,0]},"lc":3,"lj":1,"ml":1},{"ty":"fl","o":{"a":0,"k":100},"r":1,"c":{"a":0,"k":[0.4823529411764706,0,0.28627450980392155,1]}},{"ty":"tr","o":{"a":0,"k":100},"a":{"a":0,"k":[0,0]},"s":{"a":0,"k":[100,100]},"p":{"a":0,"k":[430.021,-973.824]},"r":{"a":0,"k":0}}]},{"ty":"gr","nm":"tangan kiri shape group","it":[{"ty":"sh","ks":{"a":0,"k":{"c":false,"v":[[-425.699,975.175],[-411.47,992.322],[-378.716,1003.98],[-380.068,1010.93],[-428.726,1010.93]],"i":[[0,0],[-3.474999999999966,-15.251999999999953],[-5.406000000000006,-7.913000000000011],[0,0],[0,0]],"o":[[0,0],[0,0],[5.406000000000006,7.919999999999959],[0,0],[0,0]]}}},{"ty":"st","o":{"a":0,"k":0},"w":{"a":0,"k":0},"c":{"a":0,"k":[0,0,0,0]},"lc":3,"lj":1,"ml":1},{"ty":"fl","o":{"a":0,"k":100},"r":1,"c":{"a":0,"k":[1,1,1,1]}},{"ty":"tr","o":{"a":0,"k":100},"a":{"a":0,"k":[0,0]},"s":{"a":0,"k":[100,100]},"p":{"a":0,"k":[430.021,-973.824]},"r":{"a":0,"k":0}}]}],"op":48},{"ty":4,"nm":"shadow","ip":0,"st":0,"ind":2,"hix":22,"ks":{"o":{"a":0,"k":100},"or":{"a":0,"k":[0,0,0]},"a":{"a":0,"k":[116.91448974609375,7.94500732421875,0]},"p":{"s":true,"x":{"a":0,"k":161.55169104003906},"y":{"a":0,"k":174.309244140625}},"rx":{"a":0,"k":0},"ry":{"a":0,"k":0},"rz":{"a":0,"k":0},"s":{"a":0,"k":[100,100,100]}},"shapes":[{"ty":"gr","nm":"shadow shape group","it":[{"ty":"sh","ks":{"a":0,"k":{"c":true,"v":[[-437.535,1007.6],[-320.62,1015.54],[-437.535,1023.49],[-554.449,1015.54]],"i":[[-64.56899999999996,0],[0,-4.3799999999999955],[64.57000000000005,0],[0,4.389999999999986]],"o":[[64.57000000000005,0],[0,4.389999999999986],[-64.56899999999996,0],[0,-4.3799999999999955]]}}},{"ty":"st","o":{"a":0,"k":100},"c":{"a":0,"k":[0.4823529411764706,0,0.28627450980392155,1]},"lc":2,"lj":2,"ml":10,"w":{"a":0,"k":0}},{"ty":"fl","o":{"a":0,"k":0},"c":{"a":0,"k":[0,0,0,0]},"r":1},{"ty":"tr","o":{"a":0,"k":100},"a":{"a":0,"k":[0,0]},"s":{"a":0,"k":[100,100]},"p":{"a":0,"k":[554.449,-1007.6]},"r":{"a":0,"k":0}}]},{"ty":"gr","nm":"shadow shape group","it":[{"ty":"sh","ks":{"a":0,"k":{"c":true,"v":[[-437.535,1007.6],[-320.62,1015.54],[-437.535,1023.49],[-554.449,1015.54]],"i":[[-64.56899999999996,0],[0,-4.3799999999999955],[64.57000000000005,0],[0,4.389999999999986]],"o":[[64.57000000000005,0],[0,4.389999999999986],[-64.56899999999996,0],[0,-4.3799999999999955]]}}},{"ty":"st","o":{"a":0,"k":0},"w":{"a":0,"k":0},"c":{"a":0,"k":[0,0,0,0]},"lc":3,"lj":1,"ml":1},{"ty":"fl","o":{"a":0,"k":100},"r":2,"c":{"a":0,"k":[0.48627450980392156,0.48627450980392156,0.48627450980392156,1]}},{"ty":"tr","o":{"a":0,"k":49.6795},"a":{"a":0,"k":[0,0]},"s":{"a":0,"k":[100,100]},"p":{"a":0,"k":[554.449,-1007.6]},"r":{"a":0,"k":0}}]}],"op":48}]}],"layers":[{"ty":0,"nm":"instance:precomp_1","refId":"precomp_1","ind":2,"ip":0,"st":0,"hix":1,"ks":{"o":{"a":0,"k":100},"or":{"a":0,"k":[0,0,0]},"a":{"a":0,"k":[159,118.5,0]},"p":{"s":true,"x":{"a":0,"k":123.09199999999998},"y":{"a":0,"k":159.38}},"rx":{"a":0,"k":0},"ry":{"a":0,"k":0},"rz":{"a":0,"k":0},"s":{"a":0,"k":[100,100,100]}},"w":318,"h":237,"op":48}],"op":48,"w":247,"h":244}